8.822510391473770142e-02
9.930415451526641846e-02
-1.546315848827362061e-01
-1.122456640005111694e-01
3.039862401783466339e-02
-1.195469964295625687e-02
-7.128304336220026016e-03
3.394329547882080078e-02
-9.467212483286857605e-03
-2.216222137212753296e-02
-4.879469051957130432e-03
-1.794777512550354004e-01
1.018732190132141113e-01
9.583894908428192139e-02
4.875819012522697449e-02
-1.465693712234497070e-01
-3.398783272132277489e-03
8.657553791999816895e-02
1.615253835916519165e-02
8.392190933227539062e-02
1.564361602067947388e-01
-1.256753504276275635e-01
7.983511686325073242e-02
9.132632613182067871e-02
1.123250871896743774e-01
-6.341475993394851685e-02
2.487001009285449982e-02
1.486719548702239990e-01
-1.387835890054702759e-01
-4.882685095071792603e-02
-1.938016526401042938e-02
1.534575372934341431e-01
-7.182109355926513672e-02
4.327460005879402161e-02
-4.412703961133956909e-02
8.530210703611373901e-02
1.144699752330780029e-01
-1.469218581914901733e-01
7.652635127305984497e-02
-6.982119381427764893e-02
-8.247015625238418579e-02
-7.581147551536560059e-02
-7.880308665335178375e-03
2.358236815780401230e-03
7.374436408281326294e-02
1.573071628808975220e-01
6.666692346334457397e-02
1.061674132943153381e-01
-1.526438444852828979e-01
-1.346653550863265991e-01
-1.268095895648002625e-02
1.519867330789566040e-01
-1.521410048007965088e-02
5.962673202157020569e-02
4.453954100608825684e-02
-7.082088291645050049e-02
4.200026765465736389e-02
-1.417877152562141418e-02
6.544752418994903564e-02
-1.758275628089904785e-01
-9.380492568016052246e-02
-1.115252003073692322e-01
1.933750361204147339e-01
3.100949898362159729e-02
6.740547716617584229e-02
-4.079554229974746704e-02
-2.251572161912918091e-02
-1.733436584472656250e-01
1.245274320244789124e-01
-7.280630618333816528e-02
-1.880379766225814819e-01
-3.779279068112373352e-02
-1.613719039596617222e-03
2.520258538424968719e-03
-8.937456458806991577e-02
7.584615796804428101e-02
-6.039369851350784302e-02
-1.125089600682258606e-01
-9.824403561651706696e-03
-9.281212836503982544e-02
6.869218312203884125e-03
2.030702382326126099e-01
6.444276124238967896e-02
-8.613540790975093842e-03
-2.987503260374069214e-02
-1.319469958543777466e-01
-1.290016472339630127e-01
1.254996359348297119e-01
2.849436923861503601e-02
3.405934944748878479e-02
-8.930478245019912720e-03
-1.121505200862884521e-01
-4.082357510924339294e-02
-1.098042074590921402e-02
7.535139471292495728e-02
-3.944706171751022339e-02
-2.069257386028766632e-02
-8.083573542535305023e-03
7.152930647134780884e-02
1.004114598035812378e-01
1.671176850795745850e-01
-1.013174876570701599e-01
1.037963433191180229e-03
6.337321549654006958e-02
2.654426172375679016e-02
-8.733537793159484863e-02
1.596648842096328735e-01
-3.465951979160308838e-02
4.451977461576461792e-02
1.867959350347518921e-01
-5.190959945321083069e-02
-1.355026066303253174e-01
-3.402614220976829529e-02
-9.862272441387176514e-02
9.096331894397735596e-02
6.472499668598175049e-02
2.800975926220417023e-02
2.054647654294967651e-01
1.437582522630691528e-01
-6.752809882164001465e-02
-2.042167633771896362e-02
-7.697060704231262207e-02
-8.271007798612117767e-03
-3.403704613447189331e-02
-1.388937085866928101e-01
3.703872906044125557e-03
4.191362112760543823e-02
1.088429708033800125e-02
7.968486286699771881e-03
-1.617750898003578186e-02
1.937145181000232697e-02
-7.121943682432174683e-02
-2.880534343421459198e-02
6.969366222620010376e-02
7.614882290363311768e-02
-3.059770725667476654e-02
1.663921773433685303e-01
-1.176849007606506348e-01
1.238625869154930115e-01
1.674000173807144165e-02
1.786888986825942993e-01
-4.787055775523185730e-02
-1.915892958641052246e-01
-8.010429143905639648e-02
1.457318514585494995e-01
2.069724500179290771e-01
1.794822812080383301e-01
-1.164771169424057007e-01
1.448896229267120361e-01
5.366961285471916199e-02
-7.256125658750534058e-02
1.077496707439422607e-01
1.925410628318786621e-01
5.023648962378501892e-02
4.606525227427482605e-02
-2.288656681776046753e-01
-1.661150306463241577e-01
1.738859713077545166e-01
-1.298913806676864624e-01
-3.592479601502418518e-02
3.121602907776832581e-02
-5.793816596269607544e-02
-4.035747423768043518e-02
4.036675021052360535e-02
-1.151783019304275513e-01
-2.675941586494445801e-01
-1.205876767635345459e-01
3.382890427019447088e-04
-3.381057828664779663e-02
-9.322679787874221802e-02
1.693688705563545227e-02
2.287687920033931732e-02
-7.791181653738021851e-02
4.954958334565162659e-02
-1.085568517446517944e-01
-5.385836213827133179e-02
5.031274631619453430e-02
3.664669767022132874e-02
-8.271308243274688721e-02
4.241015017032623291e-02
1.577636897563934326e-01
2.434387430548667908e-02
5.621795542538166046e-03
6.772024929523468018e-02
-1.160003840923309326e-01
2.141382545232772827e-02
8.286860585212707520e-02
-1.808746159076690674e-01
-1.360377855598926544e-02
-1.470947712659835815e-01
-3.756161406636238098e-02
3.912637010216712952e-02
1.945111006498336792e-01
-5.713916569948196411e-02
1.554673258215188980e-02
-7.509686984121799469e-03
-5.464557558298110962e-02
-8.531292527914047241e-02
-6.978886574506759644e-02
-8.116248995065689087e-02
1.031993031501770020e-01
-9.668243676424026489e-02
-7.331006973981857300e-02
-5.975998938083648682e-02
2.055764757096767426e-02
8.071291446685791016e-02
2.172339893877506256e-02
-6.527114659547805786e-02
-2.472995594143867493e-02
-8.198494464159011841e-02
6.581403315067291260e-02
8.407889306545257568e-02
6.811898667365312576e-03
-7.709287106990814209e-02
-2.373669594526290894e-01
2.329827547073364258e-01
1.554912538267672062e-03
-5.934678763151168823e-02
-2.031619288027286530e-02
-2.948814071714878082e-02
3.649637475609779358e-02
4.921599850058555603e-02
-9.462379664182662964e-02
3.131107240915298462e-02
4.384390637278556824e-02
5.841678380966186523e-02
1.247638538479804993e-01
1.629714667797088623e-01
-1.982469260692596436e-01
-1.591068953275680542e-01
1.224663183093070984e-01
2.463469356298446655e-01
-1.309099942445755005e-01
2.753471955657005310e-02
-1.775254495441913605e-02
-7.130127400159835815e-02
1.512686163187026978e-01
-1.377343535423278809e-01
-1.009158939123153687e-01
2.322632644791156054e-04
1.033275350928306580e-01
4.739414900541305542e-02
9.276224672794342041e-02
5.373772233724594116e-02
-1.843824982643127441e-01
3.836122155189514160e-02
-1.664467751979827881e-01
-3.636767622083425522e-03
-7.722295820713043213e-02
9.254647046327590942e-02
-1.221131235361099243e-01
7.400518655776977539e-02
-7.486402988433837891e-02
5.282201245427131653e-02
1.518932636827230453e-02
-1.015226617455482483e-01
-6.814137846231460571e-02
3.850163519382476807e-02
1.667811349034309387e-02
2.088816836476325989e-02
2.231960147619247437e-01
-1.159612908959388733e-01
2.059145122766494751e-01
9.253888577222824097e-02
-7.159014046192169189e-02
-3.943903744220733643e-02
2.731399051845073700e-02
-1.194409802556037903e-01
-1.741159707307815552e-01
-1.849334873259067535e-02
-1.161159425973892212e-01
1.582956612110137939e-01
-1.602500081062316895e-01
3.126391384284943342e-04
1.154223531484603882e-01
9.948432445526123047e-03
1.335052847862243652e-01
-9.870826452970504761e-02
-9.328511543571949005e-03
-1.448604464530944824e-01
1.401392221450805664e-01
-1.116375997662544250e-01
-1.116618290543556213e-01
3.228337690234184265e-02
3.790531679987907410e-02
-9.491556556895375252e-04
-1.956317573785781860e-02
4.321514070034027100e-02
1.203322857618331909e-01
1.159591451287269592e-01
-2.940494008362293243e-02
5.139384046196937561e-02
-1.748401671648025513e-01
-7.030756771564483643e-02
-3.455960424616932869e-03
-5.405401680036447942e-05
1.415988802909851074e-01
1.054603904485702515e-01
-1.493833810091018677e-01
-8.955135941505432129e-02
5.665878206491470337e-02
1.060831621289253235e-01
5.489628389477729797e-02
4.215819761157035828e-02
7.548747956752777100e-02
2.984503097832202911e-02
9.554979950189590454e-02
-3.878467157483100891e-02
-1.641541533172130585e-02
2.962779812514781952e-02
1.314470618963241577e-01
4.072826355695724487e-02
-1.498919632285833359e-02
-5.130895227193832397e-02
1.939396187663078308e-02
-1.327442675828933716e-01
-8.201531320810317993e-02
5.373486503958702087e-02
7.998059689998626709e-02
1.120716631412506104e-01
2.340161055326461792e-02
-7.062485069036483765e-02
-1.402251771651208401e-03
1.420163512229919434e-01
-2.073846757411956787e-02
1.313269436359405518e-01
-7.047823816537857056e-02
-3.261619433760643005e-02
-9.426129609346389771e-02
1.344834454357624054e-02
2.462812699377536774e-02
1.083651557564735413e-01
-3.022336214780807495e-02
6.741970032453536987e-02
-1.186195984482765198e-01
1.136167421936988831e-01
-2.245550975203514099e-03
4.856000840663909912e-02
2.667689882218837738e-02
8.972004801034927368e-02
4.562813043594360352e-02
-1.552667375653982162e-02
-1.110767498612403870e-01
-5.998874455690383911e-02
1.994616240262985229e-01
-5.178357940167188644e-03
-1.317251324653625488e-01
3.535475209355354309e-02
5.019373260438442230e-03
1.309276223182678223e-01
-6.610666215419769287e-02
-1.206125989556312561e-01
-1.441633887588977814e-02
8.742991834878921509e-02
-6.075054407119750977e-02
-1.989165879786014557e-02
8.901803940534591675e-02
4.322752729058265686e-02
8.596817404031753540e-02
-6.417606770992279053e-02
5.505742877721786499e-02
-1.207268610596656799e-01
5.787529516965150833e-03
1.257678121328353882e-01
8.555383980274200439e-02
-1.139618679881095886e-01
1.784637868404388428e-01
-2.000973522663116455e-01
-2.989735640585422516e-02
2.152353078126907349e-01
-5.265437066555023193e-02
5.956025794148445129e-02
-1.214221939444541931e-01
-1.809815317392349243e-01
1.539171040058135986e-01
-1.369188074022531509e-02
1.040409505367279053e-01
-3.384106233716011047e-02
1.581968963146209717e-01
6.392928212881088257e-02
-9.316417574882507324e-02
-1.220393627882003784e-01
-3.232699260115623474e-02
-6.520851701498031616e-02
-2.098084241151809692e-02
-7.302979379892349243e-02
-1.304103285074234009e-01
-1.345331370830535889e-01
1.166900917887687683e-01
4.619753360748291016e-02
-6.941460818052291870e-02
-3.364273905754089355e-02
-5.267813429236412048e-02
-1.323168575763702393e-01
-6.001025065779685974e-02
5.326838791370391846e-02
1.750441938638687134e-01
-9.013338387012481689e-02
1.199800148606300354e-01
-1.437864154577255249e-01
-1.669947057962417603e-01
7.999251037836074829e-02
1.664950251579284668e-01
-1.059956550598144531e-01
1.526360660791397095e-01
-4.437755420804023743e-02
-1.141146346926689148e-01
9.654513746500015259e-02
7.435258477926254272e-02
1.272549182176589966e-01
1.024944894015789032e-02
-1.761436462402343750e-01
1.492212265729904175e-01
1.675510704517364502e-01
9.282930940389633179e-02
-3.935218974947929382e-02
1.560918241739273071e-01
1.261707395315170288e-01
-7.784905284643173218e-02
-2.761356532573699951e-01
-7.714955508708953857e-02
-1.099943742156028748e-01
-1.594709455966949463e-01
6.686359643936157227e-02
-5.015762150287628174e-02
1.200148239731788635e-01
3.981203213334083557e-02
3.048940934240818024e-02
-2.094117254018783569e-01
1.279790997505187988e-01
1.555584520101547241e-01
5.202198401093482971e-02
-3.293682634830474854e-02
4.447128623723983765e-02
1.351398229598999023e-01
-5.312361940741539001e-02
-5.637666955590248108e-02
9.333147853612899780e-02
-1.004798039793968201e-01
-9.048432111740112305e-03
-1.361122541129589081e-02
-2.161068022251129150e-01
-1.255561225116252899e-02
-2.068683952093124390e-01
1.047293841838836670e-01
1.109081134200096130e-01
-1.889592409133911133e-01
5.493132397532463074e-02
-9.853330254554748535e-02
2.028366550803184509e-02
1.709835231304168701e-01
1.952751129865646362e-01
-1.569295078516006470e-01
-7.673417776823043823e-02
-1.067110225558280945e-01
-8.945412188768386841e-02
-4.556595534086227417e-02
1.425719559192657471e-01
1.474364101886749268e-01
-8.080418407917022705e-02
-4.482604563236236572e-02
1.226685568690299988e-01
-1.130027100443840027e-01
-1.499339658766984940e-02
8.792502805590629578e-03
4.012120142579078674e-02
-2.173392027616500854e-01
1.406433135271072388e-01
-4.797574132680892944e-02
5.313216149806976318e-02
-1.016110032796859741e-01
3.204450756311416626e-02
-4.191857948899269104e-02
-1.175978481769561768e-01
-2.882439829409122467e-02
-2.282053232192993164e-01
-1.171181499958038330e-01
-1.040108650922775269e-01
-9.471134841442108154e-02
8.442325890064239502e-02
3.475857526063919067e-02
-1.242344453930854797e-01
1.600817292928695679e-01
1.718160957098007202e-01
6.749283056706190109e-03
-4.108601436018943787e-02
1.662236899137496948e-01
6.807705387473106384e-03
9.155786782503128052e-02
-1.953900605440139771e-01
-2.027455121278762817e-01
1.419861167669296265e-01
-4.621533304452896118e-02
-8.910682052373886108e-02
-1.753599499352276325e-03
9.706989675760269165e-02
1.412925273180007935e-01
-1.745451837778091431e-01
-2.216102778911590576e-01
-8.026070892810821533e-02
-7.815959863364696503e-03
2.661380358040332794e-02
2.150574624538421631e-01
1.278681447729468346e-03
-8.782630413770675659e-02
3.719590231776237488e-02
5.155311897397041321e-02
-4.601222649216651917e-02
-1.791683584451675415e-01
6.565207242965698242e-02
5.151133984327316284e-02
3.123972006142139435e-02
-1.130689382553100586e-01
-1.205215603113174438e-01
1.548607200384140015e-01
-1.518369466066360474e-01
6.180221959948539734e-02
4.224042966961860657e-02
1.821080368245020509e-04
1.998390071094036102e-02
3.828552365303039551e-02
-5.884211137890815735e-02
-1.060984805226325989e-01
-1.615082025527954102e-01
1.600944101810455322e-01
1.154084205627441406e-01
-2.202272182330489159e-03
-9.899768233299255371e-02
1.336931586265563965e-01
1.664993315935134888e-01
-3.948470577597618103e-02
6.525838375091552734e-02
2.687278017401695251e-02
2.313499152660369873e-01
-9.068971872329711914e-02
4.692914430052042007e-03
4.663284868001937866e-02
2.746970579028129578e-02
4.640547931194305420e-02
-1.375839114189147949e-01
2.761406823992729187e-02
-1.183989197015762329e-01
-2.702628821134567261e-02
-1.093349680304527283e-01
8.915828913450241089e-02
-1.101843430660665035e-03
-3.851823508739471436e-02
-1.933735050261020660e-02
7.310863584280014038e-02
7.204534858465194702e-02
-6.532245874404907227e-02
-3.665535897016525269e-02
1.897672563791275024e-01
-4.498154297471046448e-02
8.046692237257957458e-03
6.768247485160827637e-02
-8.797336369752883911e-02
1.009923890233039856e-01
1.110926941037178040e-01
-1.479424536228179932e-01
6.761838495731353760e-02
4.223326221108436584e-02
-1.128439903259277344e-01
-1.219376251101493835e-01
-8.877326548099517822e-02
-7.889290153980255127e-02
-6.884956359863281250e-02
-8.682273328304290771e-02
-5.851370096206665039e-02
-1.286837905645370483e-01
-2.886611036956310272e-02
-1.218582466244697571e-01
1.203460469841957092e-01
-1.442659944295883179e-01
4.896247386932373047e-02
6.007063388824462891e-02
6.659488379955291748e-02
-4.467658698558807373e-02
-2.306615747511386871e-02
-6.772049516439437866e-02
1.761983931064605713e-01
2.263771556317806244e-02
-1.532078385353088379e-01
7.823862135410308838e-02
5.587983131408691406e-02
-4.281979799270629883e-02
5.486524850130081177e-02
-3.665574640035629272e-02
-1.123932823538780212e-01
-2.278023399412631989e-02
8.891216665506362915e-02
-4.543081670999526978e-02
-4.760123416781425476e-02
5.398726090788841248e-02
-1.335339099168777466e-01
-2.815307863056659698e-02
9.927624464035034180e-02
2.033720538020133972e-02
8.354987949132919312e-03
-2.158803641796112061e-01
-5.079572554677724838e-03
-1.296956241130828857e-01
1.323110312223434448e-01
-1.179861947894096375e-01
-1.563251465559005737e-01
6.812051683664321899e-02
1.410608589649200439e-01
1.711551100015640259e-01
5.550850555300712585e-02
5.469315499067306519e-02
-6.927394866943359375e-02
-7.569800317287445068e-02
2.069125138223171234e-02
-6.712755560874938965e-02
-3.007701039314270020e-02
-7.651964575052261353e-02
1.984087824821472168e-01
-1.743600703775882721e-02
-1.070329099893569946e-01
-1.045273765921592712e-01
6.193508207798004150e-02
-6.512052565813064575e-02
9.877387434244155884e-03
1.838393695652484894e-02
7.638934999704360962e-02
8.722621202468872070e-02
1.487200148403644562e-02
1.007994636893272400e-02
8.748180232942104340e-03
2.183047533035278320e-01
2.049566619098186493e-02
-1.766512691974639893e-01
-9.448565542697906494e-02
-1.119122952222824097e-01
-7.435595989227294922e-02
1.305889785289764404e-01
1.462143659591674805e-01
-1.429000198841094971e-01
-1.278425157070159912e-01
1.690074987709522247e-02
2.742202393710613251e-02
1.293851286172866821e-01
1.101005822420120239e-01
-1.398826241493225098e-01
-1.982844918966293335e-01
-3.593258932232856750e-02
-7.320386171340942383e-02
1.241144165396690369e-01
-1.214153692126274109e-02
-5.181221663951873779e-02
1.221307665109634399e-01
7.667738944292068481e-02
1.063045486807823181e-01
5.017541348934173584e-02
-5.375231429934501648e-02
-1.619007289409637451e-01
-1.701778024435043335e-01
1.357611864805221558e-01
-2.063067443668842316e-02
-1.599709987640380859e-01
4.200344532728195190e-02
-9.071978926658630371e-02
1.549042016267776489e-01
1.350579559803009033e-01
-4.580519348382949829e-02
2.915977872908115387e-02
5.722811911255121231e-03
4.637663438916206360e-02
1.695570647716522217e-01
6.677080690860748291e-02
-1.314432621002197266e-01
-1.012510270811617374e-03
1.062652468681335449e-01
-4.454686120152473450e-02
1.249173283576965332e-01
-1.348013803362846375e-02
-1.390726864337921143e-01
-4.352353513240814209e-02
-4.875436797738075256e-02
-5.357176065444946289e-03
-1.617037355899810791e-01
2.117716968059539795e-01
1.199055537581443787e-01
1.104968711733818054e-01
4.435786604881286621e-02
-1.579822450876235962e-01
-1.135155558586120605e-01
-1.833164542913436890e-01
2.855621743947267532e-03
-1.532685160636901855e-01
-2.523463033139705658e-02
6.690777093172073364e-02
9.521017223596572876e-02
1.335077583789825439e-01
-6.046590581536293030e-02
8.999675512313842773e-02
-5.338920652866363525e-02
-1.834677159786224365e-01
9.178274124860763550e-02
1.206897869706153870e-01
1.221752315759658813e-01
-5.956828966736793518e-02
3.113522753119468689e-02
-6.098927184939384460e-02
7.536604255437850952e-02
-1.347216814756393433e-01
-6.177703663706779480e-02
7.097332924604415894e-02
-4.875581339001655579e-02
3.870059549808502197e-02
6.506229192018508911e-02
-9.073531627655029297e-02
8.043068647384643555e-02
1.189700588583946228e-01
-1.589644700288772583e-01
-8.334471285343170166e-02
-1.208506152033805847e-01
1.826678812503814697e-01
-2.432228811085224152e-02
1.343572884798049927e-01
-4.839332774281501770e-02
7.563050091266632080e-02
1.723980754613876343e-01
5.116021633148193359e-02
-9.047246538102626801e-03
6.299456954002380371e-02
-5.719552747905254364e-03
-1.093293577432632446e-01
-4.833550378680229187e-02
-4.550049081444740295e-02
1.355086863040924072e-01
3.967788442969322205e-02
-4.458036273717880249e-03
-1.339846551418304443e-01
-4.494848474860191345e-02
-5.187223106622695923e-02
1.044927537441253662e-02
1.345788389444351196e-01
-8.867329359054565430e-02
1.624650210142135620e-01
-1.185803860425949097e-01
-1.862110942602157593e-01
5.880212038755416870e-02
8.672295510768890381e-02
-1.019550934433937073e-01
-7.643522322177886963e-02
-1.441557556390762329e-01
1.319760531187057495e-01
1.342623531818389893e-01
5.178139731287956238e-02
-3.737399727106094360e-02
-1.889159437268972397e-03
1.646769940853118896e-01
2.861610846593976021e-03
-8.460208773612976074e-02
1.212383732199668884e-01
5.305865406990051270e-02
-9.890358150005340576e-02
-7.636709511280059814e-02
-4.672435671091079712e-02
-3.171480447053909302e-02
9.336960315704345703e-02
1.108790468424558640e-02
1.874697022140026093e-02
-5.061618983745574951e-02
1.583644300699234009e-01
-2.590685151517391205e-02
1.725344359874725342e-01
2.943988330662250519e-02
4.516466706991195679e-02
-2.195765264332294464e-02
-6.471725553274154663e-02
-4.171244055032730103e-02
8.614088594913482666e-02
1.108039245009422302e-01
-9.348006546497344971e-02
-1.162126809358596802e-01
-1.565671339631080627e-02
-1.559481322765350342e-01
9.634730964899063110e-02
-2.117164134979248047e-01
6.002180650830268860e-02
7.496879249811172485e-02
1.300158202648162842e-01
-6.480661779642105103e-02
6.952225416898727417e-02
-9.522051364183425903e-02
3.442273288965225220e-02
-9.779691696166992188e-02
-1.560047566890716553e-01
7.786170113831758499e-03
-1.092260926961898804e-01
-1.091930940747261047e-01
4.854102805256843567e-02
-1.903508231043815613e-02
4.216531291604042053e-02
-8.834146894514560699e-03
-1.973519101738929749e-02
7.695267349481582642e-02
1.831152290105819702e-01
4.413994774222373962e-02
-6.605331599712371826e-02
-7.841771841049194336e-02
6.966692954301834106e-02
3.630156069993972778e-02
3.323909267783164978e-02
-2.404425991699099541e-03
1.633264310657978058e-02
2.171865552663803101e-01
-4.020612314343452454e-02
3.371185623109340668e-03
2.148108035326004028e-01
4.442398995161056519e-02
-8.349094539880752563e-02
5.855798721313476562e-02
-6.683643162250518799e-02
-8.540076017379760742e-02
5.551433935761451721e-02
4.051730036735534668e-02
4.665954969823360443e-03
-5.378430709242820740e-02
-2.421720027923583984e-01
1.236275434494018555e-01
2.402671277523040771e-01
-9.189020097255706787e-02
-7.579146325588226318e-02
-1.875408738851547241e-02
1.375007927417755127e-01
-5.064479634165763855e-02
-1.597706228494644165e-03
-3.239795193076133728e-02
-1.598119884729385376e-01
3.035195730626583099e-02
-1.893459446728229523e-02
-1.850570179522037506e-02
-4.499663412570953369e-02
-7.742180675268173218e-02
-5.960153788328170776e-02
1.066527441143989563e-01
-1.012368351221084595e-01
-6.406954675912857056e-02
-1.164403483271598816e-01
1.349948644638061523e-01
1.329870074987411499e-01
-5.819077137857675552e-03
7.354355603456497192e-02
-1.463005226105451584e-02
-9.450823068618774414e-02
8.740282617509365082e-03
8.059376478195190430e-02
1.942395605146884918e-02
-8.564615994691848755e-02
-8.936514146625995636e-03
-1.150027755647897720e-02
-9.974297881126403809e-02
-1.195170730352401733e-01
-3.785167261958122253e-02
7.489983737468719482e-02
-3.442801162600517273e-02
8.986233919858932495e-02
7.012801244854927063e-03
-4.315160587430000305e-02
5.060306563973426819e-02
-2.922505438327789307e-01
8.811468631029129028e-02
-5.427872762084007263e-02
-1.050858050584793091e-01
9.874606877565383911e-02
-1.927682608366012573e-01
-2.623151801526546478e-02
3.672703728079795837e-02
-1.208650097250938416e-01
-2.665783464908599854e-01
-1.277724653482437134e-01
9.802287071943283081e-02
8.296599239110946655e-02
-4.776795208454132080e-02
-2.991691604256629944e-02
-4.323384910821914673e-02
9.438292682170867920e-02
1.704739332199096680e-01
7.878658175468444824e-02
7.055743038654327393e-02
2.147785425186157227e-01
6.812167912721633911e-02
5.429954081773757935e-02
-2.632532455027103424e-02
-6.328500807285308838e-02
7.751858793199062347e-03
4.351726919412612915e-02
2.333535812795162201e-02
1.384729146957397461e-01
8.271140605211257935e-02
-5.482966452836990356e-02
3.488827869296073914e-02
-9.871692210435867310e-02
-9.573253989219665527e-02
-5.446298792958259583e-02
-1.427128314971923828e-01
1.217717751860618591e-01
-9.564229846000671387e-02
1.037214696407318115e-01
8.111525326967239380e-02
7.513290643692016602e-02
-1.916805058717727661e-01
-1.561704725027084351e-01
-7.069560140371322632e-02
5.793537944555282593e-03
5.672140792012214661e-02
-9.665401279926300049e-02
-1.399536877870559692e-01
-1.210899949073791504e-01
1.163436751812696457e-02
4.081228375434875488e-02
-1.883763372898101807e-01
5.505392327904701233e-02
9.860660135746002197e-02
-1.008725613355636597e-01
2.750739455223083496e-02
-1.000522226095199585e-01
-1.046709045767784119e-01
8.729621022939682007e-02
7.391344010829925537e-02
-1.530380845069885254e-01
-5.343885719776153564e-02
-2.013432085514068604e-01
3.704155609011650085e-02
1.934133470058441162e-02
1.397020965814590454e-01
-9.977219253778457642e-02
3.204511106014251709e-02
-9.157775901257991791e-03
8.186861872673034668e-02
-1.662104576826095581e-01
5.815778672695159912e-02
7.130491547286510468e-03
-8.319936692714691162e-03
1.910047084093093872e-01
-1.471120864152908325e-01
-1.585813611745834351e-01
-8.877568691968917847e-02
-5.069305747747421265e-02
1.902568526566028595e-02
5.515289679169654846e-02
1.274490803480148315e-01
6.623954046517610550e-03
1.564749032258987427e-01
8.743743598461151123e-02
4.641976952552795410e-02
5.755418911576271057e-02
4.436727613210678101e-02
-4.506945237517356873e-02
-1.239217296242713928e-01
-3.623986989259719849e-02
-2.311080135405063629e-02
4.391817748546600342e-02
-7.361227273941040039e-02
-7.001548260450363159e-02
1.882909685373306274e-01
1.236795261502265930e-01
1.739420369267463684e-02
-5.186745524406433105e-02
5.678661167621612549e-02
1.695037186145782471e-01
-2.525319457054138184e-01
8.228045701980590820e-02
6.901253759860992432e-02
-8.909181505441665649e-02
1.284072995185852051e-01
-9.056483209133148193e-02
1.494394838809967041e-01
-1.804724633693695068e-01
1.363776177167892456e-01
7.092296332120895386e-02
-4.875231534242630005e-02
6.773273460566997528e-03
-5.733300000429153442e-03
-6.307179480791091919e-02
1.619220823049545288e-01
9.001136571168899536e-02
-6.180035322904586792e-02
3.683098778128623962e-02
1.298353523015975952e-01
-4.555644094944000244e-02
2.124239355325698853e-01
-6.332878023386001587e-03
-5.375481024384498596e-02
-1.360891908407211304e-01
1.684686541557312012e-01
1.536871045827865601e-01
9.380582720041275024e-02
1.516884416341781616e-01
2.424791604280471802e-01
-6.628881394863128662e-02
-1.457942128181457520e-01
-2.977388538420200348e-02
-1.691866666078567505e-01
1.235823631286621094e-01
3.004259988665580750e-02
-1.429163664579391479e-01
-1.704081743955612183e-01
-2.313321642577648163e-02
1.387456618249416351e-02
-9.938141331076622009e-03
6.897964328527450562e-02
-1.721397340297698975e-01
-1.025016754865646362e-01
-5.965334177017211914e-02
-1.569873094558715820e-02
1.598823964595794678e-01
-3.856029361486434937e-02
-1.550065875053405762e-01
3.381577506661415100e-02
5.236396193504333496e-02
-7.696179300546646118e-02
-1.015525087714195251e-01
-5.545591935515403748e-02
-4.504181817173957825e-02
8.143267035484313965e-02
-1.547493636608123779e-01
6.553447991609573364e-02
1.025313958525657654e-01
8.363752067089080811e-02
-1.987343281507492065e-01
-2.314265072345733643e-02
1.238772422075271606e-01
2.079484313726425171e-01
6.980131380259990692e-03
2.705348096787929535e-02
-5.985696241259574890e-02
6.332708150148391724e-02
2.124287746846675873e-02
-1.654408723115921021e-01
1.112300083041191101e-01
2.133246697485446930e-02
-1.009666100144386292e-01
6.099614873528480530e-02
-8.620793372392654419e-02
4.601575434207916260e-02
-2.690517902374267578e-02
-3.260324150323867798e-02
-8.623932488262653351e-03
7.633273303508758545e-02
1.962979584932327271e-01
-3.383979946374893188e-02
-9.202362596988677979e-02
-2.219008095562458038e-02
-3.361032530665397644e-02
1.945203691720962524e-01
-1.583521664142608643e-01
-6.117718666791915894e-02
3.037580475211143494e-02
-9.601618349552154541e-02
5.514994263648986816e-02
-1.285569928586483002e-02
7.693111151456832886e-02
-2.019760385155677795e-02
-9.926886856555938721e-02
-6.210464984178543091e-02
-1.035148929804563522e-02
-1.866692751646041870e-01
3.214594349265098572e-02
1.482871323823928833e-01
2.146409638226032257e-02
2.141098119318485260e-02
-3.331739827990531921e-02
5.864061042666435242e-02
3.619071096181869507e-02
1.263702213764190674e-01
1.709767282009124756e-01
-2.152305245399475098e-01
-8.224835246801376343e-02
-9.194833040237426758e-02
8.294575661420822144e-02
6.475624442100524902e-02
1.227383166551589966e-01
-1.230843216180801392e-01
-1.639251112937927246e-01
-8.708444982767105103e-02
1.981642842292785645e-01
1.248729750514030457e-01
7.841388881206512451e-02
9.587997943162918091e-02
-2.367204427719116211e-01
2.542063966393470764e-02
-8.867724239826202393e-02
2.177454158663749695e-02
1.890126056969165802e-02
2.146247588098049164e-02
-6.591578572988510132e-02
6.625824421644210815e-02
5.220874771475791931e-02
1.589091271162033081e-01
1.950858235359191895e-01
-2.112977206707000732e-01
6.169193424284458160e-03
-2.158479243516921997e-01
8.695863932371139526e-02
-2.280948460102081299e-01
-2.209073156118392944e-01
1.547537837177515030e-02
-3.151671588420867920e-02
1.092202290892601013e-01
1.242729723453521729e-01
6.047157570719718933e-02
-1.231086999177932739e-01
-1.285370439291000366e-01
2.264289408922195435e-01
-1.443265825510025024e-01
1.590482145547866821e-02
-8.211456984281539917e-02
1.172479093074798584e-01
-2.705382369458675385e-02
1.336352527141571045e-01
-4.897608980536460876e-02
2.271051518619060516e-02
-1.130082681775093079e-01
-8.029928803443908691e-02
3.525997279211878777e-03
-1.175751090049743652e-01
-1.274839043617248535e-01
8.732968941330909729e-03
4.751228541135787964e-02
1.596937887370586395e-02
-8.882232755422592163e-02
3.101421892642974854e-02
-1.584289520978927612e-01
1.758678257465362549e-01
-3.334843786433339119e-03
-1.651329547166824341e-01
4.516552761197090149e-02
-1.356143504381179810e-01
-1.917736381292343140e-01
-1.004470512270927429e-01
-7.008715718984603882e-02
-1.466595083475112915e-01
5.294276401400566101e-02
2.717341110110282898e-02
-2.763883024454116821e-02
-4.386566951870918274e-02
-4.931053146719932556e-02
4.265327751636505127e-02
1.493455022573471069e-01
-1.616314947605133057e-01
1.552519947290420532e-01
-1.450096666812896729e-01
1.143888533115386963e-01
-1.109433099627494812e-01
-1.151783168315887451e-01
1.258196383714675903e-01
5.243096500635147095e-02
-5.033588409423828125e-02
8.279457688331604004e-02
1.495291441679000854e-01
1.062523350119590759e-01
2.681974694132804871e-02
2.850123308598995209e-02
-1.141165122389793396e-01
4.410098120570182800e-02
-1.869100183248519897e-01
-4.069245606660842896e-02
7.919128239154815674e-02
-9.503345005214214325e-03
-5.186530947685241699e-02
3.302486380562186241e-03
6.090252473950386047e-02
5.309988185763359070e-02
2.036444097757339478e-01
-8.876371197402477264e-03
-2.472980506718158722e-02
-4.017525166273117065e-02
-6.076775118708610535e-02
7.903134450316429138e-03
-4.519189149141311646e-02
2.143581025302410126e-02
-6.058545783162117004e-03
4.621447622776031494e-02
-1.283523738384246826e-01
-1.037893891334533691e-01
-1.773239672183990479e-01
-1.444066911935806274e-01
-1.699846982955932617e-01
1.141588669270277023e-02
-2.703216858208179474e-02
-3.312590718269348145e-02
9.078860282897949219e-02
7.360801100730895996e-02
-1.184476464986801147e-01
1.334381699562072754e-01
-2.802681922912597656e-02
-1.363230794668197632e-01
-3.740390390157699585e-02
9.641530364751815796e-02
5.145264416933059692e-02
1.387579292058944702e-01
-2.162028700113296509e-01
-4.184891656041145325e-02
-2.682674117386341095e-02
9.246003627777099609e-02
-2.639437466859817505e-02
-2.068412005901336670e-01
-2.292208001017570496e-02
-8.208982646465301514e-03
4.747455939650535583e-03
3.535810112953186035e-02
-1.285602450370788574e-01
9.685878758318722248e-04
-1.159614846110343933e-01
2.180414944887161255e-01
1.086652800440788269e-01
9.872049093246459961e-02
5.354120582342147827e-02
-1.698817014694213867e-01
2.697054110467433929e-02
4.030098393559455872e-02
6.132914870977401733e-02
-1.026861220598220825e-01
1.439921259880065918e-01
8.204985409975051880e-02
2.406681515276432037e-02
1.798969693481922150e-02
-4.892355203628540039e-02
-2.246755408123135567e-03
2.995849773287773132e-02
-1.095776185393333435e-01
-9.965213388204574585e-02
-2.679355628788471222e-02
-1.112310588359832764e-01
1.691406667232513428e-01
-1.536598708480596542e-02
-1.445009857416152954e-01
3.574201837182044983e-02
8.405146189033985138e-03
-1.501984894275665283e-02
9.576511383056640625e-02
1.570438593626022339e-01
9.789755195379257202e-02
-1.954320818185806274e-01
1.060487255454063416e-01
-7.736001163721084595e-02
5.077930912375450134e-02
-1.010622270405292511e-02
4.955157637596130371e-02
8.920115232467651367e-02
5.524786189198493958e-02
-9.795315563678741455e-02
-1.630421280860900879e-01
1.097448095679283142e-01
1.812835410237312317e-02
-1.718333363533020020e-01
-2.009080350399017334e-01
1.731384545564651489e-02
-1.540142893791198730e-01
1.011823043227195740e-01
-9.407116472721099854e-02
-3.515296801924705505e-02
2.335271565243601799e-03
1.001978591084480286e-01
-1.246236637234687805e-01
-8.801371790468692780e-03
-1.184313148260116577e-01
-5.056453403085470200e-03
1.722658239305019379e-02
-5.865764617919921875e-02
-7.936818897724151611e-02
2.961984835565090179e-02
1.600118726491928101e-02
-1.549180448055267334e-01
7.878339290618896484e-02
6.449701637029647827e-02
-4.908627271652221680e-02
8.150720596313476562e-02
-7.845851778984069824e-02
4.077984392642974854e-02
-4.014212265610694885e-02
1.809389516711235046e-02
7.422464434057474136e-03
-1.133982166647911072e-01
2.282695919275283813e-01
-1.609455645084381104e-01
1.065548881888389587e-01
2.778865955770015717e-02
1.486277729272842407e-01
1.246524825692176819e-01
-1.320990025997161865e-01
7.992383837699890137e-02
1.229790374636650085e-01
-2.614431828260421753e-02
-1.483923792839050293e-01
-1.644107997417449951e-01
6.269873585551977158e-03
1.260818839073181152e-01
1.174085959792137146e-01
-7.564603351056575775e-03
1.340751200914382935e-01
-1.891480386257171631e-02
9.423605352640151978e-02
9.379453957080841064e-02
2.111734822392463684e-02
1.543678157031536102e-02
1.990941539406776428e-02
7.667799480259418488e-03
2.475343272089958191e-02
3.639389574527740479e-02
1.378443539142608643e-01
2.244089543819427490e-01
1.140921637415885925e-01
-1.503416299819946289e-01
2.442305907607078552e-02
-1.426983065903186798e-02
-4.995695874094963074e-02
-1.225936599075794220e-02
-1.266124099493026733e-01
-1.348021477460861206e-01
1.259978115558624268e-01
-1.812208443880081177e-02
-1.604109555482864380e-01
3.556437790393829346e-02
2.711913734674453735e-02
-5.638025328516960144e-02
-1.449946463108062744e-01
6.791651714593172073e-03
-1.466109901666641235e-01
-2.356392145156860352e-01
-3.259490802884101868e-02
1.236145868897438049e-01
1.101278793066740036e-02
-1.068542227149009705e-01
2.952612750232219696e-02
8.936367928981781006e-02
-8.209048211574554443e-02
-3.997602034360170364e-03
8.062974363565444946e-02
1.327139884233474731e-01
1.232425197958946228e-01
9.182176738977432251e-02
-1.551423668861389160e-01
1.358859390020370483e-01
-6.993690133094787598e-02
2.426617443561553955e-01
-6.138605624437332153e-02
1.745153218507766724e-01
1.066314894706010818e-02
-2.955291420221328735e-02
2.096273750066757202e-01
-3.338391333818435669e-02
-1.518280804157257080e-01
-5.087702348828315735e-02
-1.256030499935150146e-01
-1.559564620256423950e-01
-1.572593487799167633e-02
6.576185580343008041e-03
-7.428049296140670776e-02
-1.077301353216171265e-01
-1.329545080661773682e-01
1.930649951100349426e-02
1.072644144296646118e-01
-1.747847050428390503e-01
6.256227940320968628e-02
-1.619838774204254150e-01
-7.989093661308288574e-02
1.863282546401023865e-02
-1.875599026679992676e-01
3.387423232197761536e-02
-6.235705316066741943e-02
1.493696421384811401e-01
-1.047702040523290634e-02
-1.012348532676696777e-01
8.754099160432815552e-02
-6.254480034112930298e-02
-1.155449729412794113e-02
4.867778718471527100e-02
1.281445920467376709e-01
3.073210082948207855e-02
4.247872531414031982e-02
5.476860702037811279e-02
4.697130620479583740e-02
5.330508202314376831e-02
-1.529126167297363281e-01
-1.125825196504592896e-01
-1.446323245763778687e-01
-6.683883816003799438e-02
7.910414040088653564e-02
9.945213794708251953e-03
1.237101927399635315e-01
7.860793173313140869e-02
-6.243634968996047974e-02
-8.806616812944412231e-02
2.293301820755004883e-01
2.180000767111778259e-02
-7.970234751701354980e-02
-1.340751349925994873e-01
-6.320983916521072388e-02
-2.656928896903991699e-01
1.689027100801467896e-01
-1.310924142599105835e-01
-1.639943569898605347e-01
8.873943239450454712e-02
-1.696593016386032104e-01
1.055850014090538025e-01
-1.935315430164337158e-01
1.946440339088439941e-01
1.155821010470390320e-01
1.274442821741104126e-01
-8.758200705051422119e-02
-1.319639012217521667e-02
2.813833300024271011e-03
1.297621726989746094e-01
8.867083489894866943e-02
-2.425869181752204895e-02
-5.598301813006401062e-02
1.231315135955810547e-01
-1.151091307401657104e-01
3.006369434297084808e-02
7.355580478906631470e-02
4.021235927939414978e-02
6.131359189748764038e-02
8.508174121379852295e-02
-1.050333678722381592e-01
2.417681924998760223e-02
4.891916364431381226e-02
1.253517270088195801e-01
1.415226161479949951e-01
-1.435146480798721313e-01
-1.320163607597351074e-01
4.421936348080635071e-02
-5.578835308551788330e-02
7.370845228433609009e-02
1.401569694280624390e-02
-6.484436988830566406e-02
7.059112191200256348e-02
4.718517884612083435e-02
4.195969924330711365e-02
8.914200961589813232e-02
-1.034540161490440369e-01
4.172653332352638245e-02
-4.218753427267074585e-02
2.515478804707527161e-02
1.051279753446578979e-01
1.779575347900390625e-01
1.260801255702972412e-01
1.213489100337028503e-01
1.402246057987213135e-01
1.209855377674102783e-01
-5.521967634558677673e-02
6.796901673078536987e-02
1.380278319120407104e-01
2.580834785476326942e-03
-2.672127634286880493e-02
-1.609696298837661743e-01
7.500495016574859619e-02
-5.175229534506797791e-02
-1.217509135603904724e-01
-3.292517736554145813e-02
1.039508506655693054e-01
-3.609086573123931885e-02
-1.800499260425567627e-01
6.972260773181915283e-02
-4.616185277700424194e-02
1.075229607522487640e-02
2.239173799753189087e-01
-1.340000182390213013e-01
-7.972789555788040161e-02
-5.925237387418746948e-02
-5.000577494502067566e-02
1.738243922591209412e-02
1.348825097084045410e-01
3.672561794519424438e-02
-2.910548634827136993e-02
1.251497566699981689e-01
8.339279890060424805e-02
-1.680197119712829590e-01
-1.260448843240737915e-01
8.315426856279373169e-02
2.172230929136276245e-02
1.327832043170928955e-01
-1.869032159447669983e-02
-3.609463945031166077e-02
-5.091799423098564148e-02
7.687184959650039673e-02
9.908248484134674072e-02
1.491879113018512726e-02
1.037292852997779846e-01
2.543266676366329193e-02
5.009305104613304138e-02
-1.909052282571792603e-01
-7.586498558521270752e-02
-6.760808825492858887e-02
1.108268648386001587e-01
-1.206803992390632629e-01
-9.170643985271453857e-02
-2.325302548706531525e-02
1.227803304791450500e-01
-2.739739418029785156e-02
5.002469569444656372e-02
-4.991495609283447266e-02
2.323025017976760864e-01
-5.017635971307754517e-02
-2.402297407388687134e-02
-4.756620153784751892e-02
3.258404135704040527e-02
-9.655173122882843018e-02
6.099406257271766663e-02
-1.487427577376365662e-02
8.612107485532760620e-02
2.176876217126846313e-01
-7.486231625080108643e-02
9.809861332178115845e-02
-2.245423644781112671e-01
2.280991673469543457e-01
-1.636559516191482544e-01
-9.638740867376327515e-02
-1.713620275259017944e-01
-1.716224104166030884e-01
-6.954541802406311035e-02
6.952278781682252884e-03
1.149299889802932739e-01
-7.965110242366790771e-02
3.340611979365348816e-02
1.026174798607826233e-01
1.018518060445785522e-01
-1.137798801064491272e-01
7.161048799753189087e-02
-8.114204555749893188e-02
-4.767505824565887451e-02
4.481172189116477966e-03
5.230271071195602417e-02
-1.359305828809738159e-01
5.439967289566993713e-02
-1.346340924501419067e-01
-1.996708959341049194e-01
1.640795618295669556e-01
-1.605556458234786987e-01
-9.087393432855606079e-02
1.100702956318855286e-01
-1.719878613948822021e-01
-3.592901304364204407e-02
1.315321475267410278e-01
8.275820314884185791e-02
6.726035475730895996e-02
1.396460086107254028e-01
-7.159198820590972900e-02
1.058743074536323547e-01
3.323787823319435120e-02
-1.440900266170501709e-01
5.220966786146163940e-02
4.258966818451881409e-02
-1.667346060276031494e-01
1.516953706741333008e-01
1.244960129261016846e-01
7.284591346979141235e-02
8.763915300369262695e-02
1.035035774111747742e-02
-7.921908795833587646e-02
-5.492901429533958435e-02
6.000610440969467163e-02
1.067610085010528564e-01
-1.202417612075805664e-01
5.944162979722023010e-02
-1.429523676633834839e-01
9.682919085025787354e-02
-1.621605306863784790e-01
1.338582579046487808e-02
1.714488565921783447e-01
-2.095962613821029663e-01
1.456785015761852264e-02
-9.149203449487686157e-02
2.966594137251377106e-02
-8.056904375553131104e-02
1.066032201051712036e-01
-1.136298254132270813e-01
4.845920577645301819e-02
-2.075528353452682495e-02
7.498761266469955444e-02
3.970184922218322754e-02
-7.277385145425796509e-02
-1.183746382594108582e-02
-1.660961844027042389e-02
-3.825914114713668823e-02
-8.728827536106109619e-02
-1.080402452498674393e-02
7.885242253541946411e-02
-1.510947495698928833e-01
9.498877078294754028e-02
-3.996301069855690002e-02
-1.657497286796569824e-01
1.354711800813674927e-01
-8.850601501762866974e-03
7.067567855119705200e-02
-1.483042091131210327e-01
8.282978832721710205e-02
4.360976815223693848e-02
4.533022269606590271e-02
2.559522353112697601e-02
5.781001597642898560e-02
-1.332983970642089844e-01
-1.267147362232208252e-01
2.087333053350448608e-02
4.507355019450187683e-02
6.710561364889144897e-02
-1.347028464078903198e-01
4.299629479646682739e-03
7.692874409258365631e-03
-7.794222235679626465e-02
1.655271649360656738e-01
4.435079917311668396e-02
-1.050427332520484924e-01
-2.619128301739692688e-02
-1.805593967437744141e-01
2.576404623687267303e-02
-1.540288794785737991e-02
-9.783898293972015381e-02
-1.998934522271156311e-02
-1.063257157802581787e-01
1.025917567312717438e-02
-1.094796136021614075e-01
-3.368507325649261475e-02
-7.784303277730941772e-02
2.041640430688858032e-01
9.396581351757049561e-02
-1.760996133089065552e-01
7.945185899734497070e-02
1.823743581771850586e-01
3.160044550895690918e-02
-1.310630589723587036e-01
-5.808658525347709656e-02
-1.544571761041879654e-02
1.113521531224250793e-01
-7.027067709714174271e-03
2.958921901881694794e-02
6.757557392120361328e-02
-3.311495855450630188e-02
5.805489141494035721e-03
1.712854653596878052e-01
-8.974143862724304199e-02
1.156224384903907776e-01
-7.935533672571182251e-02
1.027015820145606995e-01
-4.086804017424583435e-02
8.437153697013854980e-02
-2.986831823363900185e-03
3.846916928887367249e-02
-1.420067548751831055e-01
-8.319705724716186523e-02
-1.067257369868457317e-03
1.341891586780548096e-01
1.563233090564608574e-03
9.155911952257156372e-02
3.041731007397174835e-02
2.963150618597865105e-03
3.698280453681945801e-02
1.649974584579467773e-01
-8.436713367700576782e-02
-7.104840874671936035e-02
1.590149253606796265e-01
3.115704096853733063e-02
1.292377561330795288e-01
7.631769776344299316e-02
-4.535415396094322205e-02
-9.562909603118896484e-02
1.226625367999076843e-01
1.922759972512722015e-02
-1.212337613105773926e-01
4.760493524372577667e-03
-9.545905888080596924e-02
6.881605833768844604e-02
-1.127063482999801636e-01
-1.179970949888229370e-01
-2.150841057300567627e-01
-7.919407635927200317e-02
-1.361345499753952026e-01
8.401792496442794800e-02
2.188728656619787216e-03
-1.485746800899505615e-01
1.433676034212112427e-01
-7.147192955017089844e-02
-1.656293123960494995e-01
1.307356730103492737e-02
7.368078920990228653e-03
-1.557537820190191269e-02
-9.649723768234252930e-02
-6.011848803609609604e-03
1.287092417478561401e-01
-3.638629987835884094e-02
7.705356180667877197e-02
2.241796068847179413e-02
-1.186807230114936829e-01
7.656200975179672241e-02
-5.606092140078544617e-02
1.298451423645019531e-01
-1.499707065522670746e-02
-8.191965520381927490e-02
1.373427063226699829e-01
-1.041628271341323853e-01
1.353336870670318604e-01
-3.797128796577453613e-02
6.883848458528518677e-02
-8.249070495367050171e-03
-1.959724724292755127e-01
9.566782414913177490e-02
-1.193488202989101410e-02
-1.677074283361434937e-01
-8.521040529012680054e-02
8.044163882732391357e-02
1.240214426070451736e-02
1.405239999294281006e-01
7.087173871695995331e-04
5.611171945929527283e-02
-4.021379724144935608e-02
5.068572238087654114e-03
-8.131558448076248169e-02
-8.506320416927337646e-03
2.160788699984550476e-02
-8.857249468564987183e-02
6.040881946682929993e-02
3.730302304029464722e-02
-8.469664305448532104e-02
-7.810007035732269287e-02
2.506652660667896271e-02
-8.585519343614578247e-02
-1.252492666244506836e-01
7.878130674362182617e-02
-1.363766640424728394e-01
-8.506565541028976440e-02
7.521933317184448242e-02
3.180846944451332092e-02
2.539539933204650879e-01
1.284167915582656860e-02
8.118787407875061035e-02
-1.816593483090400696e-02
4.093459621071815491e-02
7.398999296128749847e-03
3.031478449702262878e-02
-3.057727217674255371e-02
7.552983611822128296e-02
4.961970075964927673e-02
6.688365340232849121e-02
6.735947728157043457e-02
9.853346645832061768e-02
6.230771914124488831e-02
-9.380855411291122437e-02
-1.184107214212417603e-01
5.514983832836151123e-02
9.286987781524658203e-02
-9.390574693679809570e-02
3.667115047574043274e-02
-2.330609112977981567e-01
-1.013097763061523438e-01
-2.118933200836181641e-02
-1.170404627919197083e-01
-2.203052863478660583e-02
-6.760947406291961670e-02
1.259115617722272873e-02
2.662682719528675079e-02
-5.875482410192489624e-02
-6.065370887517929077e-02
-8.536515757441520691e-03
-1.193142496049404144e-02
8.192324079573154449e-03
1.683378219604492188e-02
-1.665089428424835205e-01
1.125745661556720734e-02
-7.370208948850631714e-02
-5.720098689198493958e-02
1.185417175292968750e-01
-6.556849181652069092e-02
8.808140456676483154e-02
2.162574045360088348e-02
-6.654597073793411255e-02
-5.009691417217254639e-02
5.928393453359603882e-02
-8.404018729925155640e-02
-2.171154320240020752e-01
-1.564849764108657837e-01
4.136946517974138260e-03
3.835996612906455994e-02
7.091917842626571655e-02
1.087444573640823364e-01
-1.783609092235565186e-01
1.464631129056215286e-02
-2.675201371312141418e-02
-1.007812842726707458e-02
-1.014047116041183472e-01
1.254272013902664185e-01
2.649184316396713257e-02
-1.855293512344360352e-01
5.103324353694915771e-02
1.335547268390655518e-01
-1.385829299688339233e-01
-6.946766376495361328e-02
-2.235124707221984863e-01
-2.271734327077865601e-01
1.209215223789215088e-01
9.734567999839782715e-02
-4.993942752480506897e-02
-5.381885543465614319e-02
-2.584989741444587708e-02
2.274457924067974091e-02
7.667683064937591553e-02
1.367112994194030762e-01
-1.406008452177047729e-01
2.682545483112335205e-01
-1.939308643341064453e-02
-6.825323402881622314e-02
1.745136231184005737e-01
1.203658878803253174e-01
2.865845151245594025e-02
1.940837204456329346e-01
2.954584732651710510e-02
-1.364103555679321289e-01
-1.690248101949691772e-01
-9.922279417514801025e-02
-2.049494236707687378e-01
6.142921280115842819e-03
-4.886069148778915405e-02
8.156548254191875458e-03
4.306164756417274475e-02
-1.708701401948928833e-01
5.757717788219451904e-02
-1.984702944755554199e-01
9.051520377397537231e-02
-7.830152660608291626e-02
-1.511351484805345535e-02
9.897680021822452545e-03
-9.680966287851333618e-02
5.704608559608459473e-02
-4.769327118992805481e-02
-7.549544423818588257e-02
1.882382631301879883e-01
-7.366222143173217773e-02
2.454405091702938080e-02
-1.199942454695701599e-01
-5.728421732783317566e-02
1.973228305578231812e-01
-1.397960931062698364e-01
5.606020241975784302e-02
7.446487993001937866e-02
1.040696278214454651e-01
-8.656999468803405762e-02
1.236244514584541321e-01
-2.592354640364646912e-02
-1.094236001372337341e-01
-5.861516669392585754e-02
1.148418933153152466e-01
-5.969887599349021912e-02
3.932064026594161987e-02
-5.586642771959304810e-02
-1.958249062299728394e-01
1.294315755367279053e-01
8.424636721611022949e-02
-4.100475460290908813e-02
-2.444901689887046814e-02
7.050473242998123169e-02
-8.607041835784912109e-02
-7.942605763673782349e-02
9.700110554695129395e-02
-6.630089133977890015e-02
-3.790972009301185608e-02
1.178097352385520935e-01
8.130723610520362854e-03
2.993441559374332428e-02
-8.296208083629608154e-02
6.705866008996963501e-02
1.657716184854507446e-02
3.874072432518005371e-02
-7.777910679578781128e-02
3.472150536254048347e-03
-5.656762048602104187e-02
-4.291035607457160950e-02
-2.901970781385898590e-02
-9.452209621667861938e-02
3.560315817594528198e-02
-6.781944632530212402e-02
1.802957952022552490e-01
5.229932069778442383e-02
1.102729663252830505e-01
-1.236562281847000122e-01
1.760014146566390991e-01
-2.609995603561401367e-01
1.518981158733367920e-01
8.298408240079879761e-03
1.164810582995414734e-01
1.491815894842147827e-01
-1.603310704231262207e-01
-5.029943305999040604e-03
-4.737102612853050232e-02
-6.004964932799339294e-02
-4.321748390793800354e-02
-1.221559792757034302e-01
-1.783512085676193237e-01
-2.728756703436374664e-02
-1.538129746913909912e-01
-9.982006996870040894e-02
1.373823732137680054e-01
-4.356200620532035828e-02
1.304654330015182495e-01
-6.374679505825042725e-02
-1.861931681632995605e-01
6.405209004878997803e-02
9.797888994216918945e-02
-2.048980258405208588e-02
-1.358627378940582275e-01
5.641606822609901428e-02
5.290266126394271851e-02
1.056819781661033630e-01
-9.030274301767349243e-02
-1.618149131536483765e-02
8.986512571573257446e-02
-1.209646686911582947e-01
-8.109542727470397949e-02
3.144595026969909668e-02
8.881847560405731201e-02
1.426793336868286133e-01
4.912089928984642029e-02
-1.384869068861007690e-01
2.588714100420475006e-02
4.459727182984352112e-02
-1.333291232585906982e-01
5.870768055319786072e-02
-1.844572871923446655e-01
-9.329264611005783081e-02
1.182447597384452820e-01
-1.221612468361854553e-01
-4.506212659180164337e-03
4.216822236776351929e-02
9.116730839014053345e-02
1.256809290498495102e-02
1.434318274259567261e-01
-1.440337002277374268e-01
1.915894001722335815e-01
-3.106121532618999481e-02
-2.817053161561489105e-02
4.382221028208732605e-02
5.275934934616088867e-02
-1.415808871388435364e-02
1.473062336444854736e-01
1.070866174995899200e-02
-1.699486933648586273e-02
3.100027330219745636e-02
-4.767140373587608337e-02
6.985265761613845825e-02
-7.771389931440353394e-02
1.542746126651763916e-01
2.487428486347198486e-01
6.643937528133392334e-02
-5.785605311393737793e-02
-1.246525123715400696e-01
5.536097660660743713e-02
-1.507594138383865356e-01
3.317736834287643433e-02
-2.850549817085266113e-01
7.488824427127838135e-02
1.502585560083389282e-01
1.844903975725173950e-01
2.941587939858436584e-02
-1.821160465478897095e-01
-8.427803218364715576e-02
1.107731387019157410e-01
-1.352494508028030396e-01
-1.873075366020202637e-01
1.660542637109756470e-01
-6.306666880846023560e-02
1.407942324876785278e-01
-9.329699724912643433e-02
-8.896076120436191559e-03
-1.235341876745223999e-01
1.981963515281677246e-01
7.453369349241256714e-02
-2.050970681011676788e-02
-5.166497826576232910e-02
-5.524933803826570511e-03
-2.512879297137260437e-02
-1.560646444559097290e-01
-6.792917847633361816e-02
7.967392355203628540e-02
-2.035485208034515381e-01
-5.234977602958679199e-02
4.365481436252593994e-03
-1.194032952189445496e-01
9.675621241331100464e-02
1.390676796436309814e-01
-3.596455976366996765e-02
-1.235279962420463562e-01
-1.476008743047714233e-01
1.745534986257553101e-01
-1.150807738304138184e-01
-3.925729170441627502e-02
1.535338759422302246e-01
7.482047379016876221e-02
1.339999437332153320e-01
-1.187973544001579285e-01
2.078308761119842529e-01
-1.066263318061828613e-01
2.058847993612289429e-01
4.211295768618583679e-02
1.894757300615310669e-01
1.922592520713806152e-02
2.073642238974571228e-02
-1.442638784646987915e-01
3.572181612253189087e-02
-5.252595245838165283e-02
-7.991307228803634644e-02
-5.768804252147674561e-02
-9.747710078954696655e-03
2.422729730606079102e-01
-1.398165374994277954e-01
-1.068678647279739380e-01
3.973424062132835388e-02
-6.680162996053695679e-02
1.570732295513153076e-01
1.767709255218505859e-01
-3.752960264682769775e-02
1.610033214092254639e-01
1.015531830489635468e-02
-3.171672299504280090e-02
-1.086196079850196838e-01
-6.293629109859466553e-02
4.816547036170959473e-03
6.483260542154312134e-02
7.026135921478271484e-02
1.550505906343460083e-01
-4.661203175783157349e-02
1.789343506097793579e-01
-3.680154681205749512e-02
1.545324623584747314e-01
-1.994551392272114754e-03
-1.319686323404312134e-02
-7.692139595746994019e-02
-9.481845051050186157e-02
8.641830086708068848e-02
-1.362416148185729980e-01
-4.726747423410415649e-02
8.607556670904159546e-02
-6.215679645538330078e-02
1.077725961804389954e-01
1.493452489376068115e-01
-4.825258255004882812e-02
-1.775297150015830994e-02
-2.647243440151214600e-02
5.797246098518371582e-02
-1.493209227919578552e-02
8.046597242355346680e-02
1.527111381292343140e-01
-4.865095764398574829e-02
1.889744959771633148e-02
-1.260933130979537964e-01
5.398687720298767090e-02
2.047862261533737183e-01
3.316678851842880249e-02
9.992193430662155151e-03
-8.406941592693328857e-02
-1.193656846880912781e-01
-3.669882658869028091e-03
5.559192225337028503e-02
4.532327502965927124e-02
4.801928997039794922e-02
-8.802571147680282593e-02
-8.561956882476806641e-02
-6.997691094875335693e-02
-8.834438771009445190e-02
6.899486482143402100e-02
7.842179387807846069e-02
-3.539961203932762146e-02
1.972144469618797302e-02
-1.654788553714752197e-01
3.560503572225570679e-02
3.843371570110321045e-02
7.457995414733886719e-02
-1.164079830050468445e-01
-1.393778771162033081e-01
3.569633886218070984e-02
-6.166543811559677124e-02
-1.146518662571907043e-01
-1.186776310205459595e-01
1.673495322465896606e-01
-1.225745901465415955e-01
9.463034570217132568e-02
1.519021391868591309e-01
-2.530249767005443573e-02
-1.605365239083766937e-02
1.420948505401611328e-01
-1.039516925811767578e-01
-5.727173760533332825e-03
1.097487956285476685e-01
-1.444828510284423828e-01
1.049950048327445984e-01
1.025386080145835876e-01
-1.064871996641159058e-01
-1.205402687191963196e-01
8.250601589679718018e-02
-6.985127180814743042e-02
1.672926247119903564e-01
-5.021080002188682556e-02
8.922796696424484253e-03
2.336613088846206665e-01
-1.072732955217361450e-01
3.631896525621414185e-02
2.012799307703971863e-02
6.193453446030616760e-02
-4.234431311488151550e-02
7.285743951797485352e-03
-9.475546330213546753e-02
1.088814958930015564e-01
5.392846185714006424e-03
1.881349459290504456e-02
6.625203788280487061e-02
-8.856137841939926147e-02
-8.130998164415359497e-02
1.171509847044944763e-01
1.864512334577739239e-03
-1.883477866649627686e-01
8.176664263010025024e-02
-8.590251952409744263e-02
9.665808081626892090e-02
5.765690654516220093e-02
8.486615121364593506e-02
7.202798873186111450e-02
4.500265792012214661e-02
3.084630705416202545e-02
-5.961633473634719849e-02
1.781519502401351929e-01
-4.252861440181732178e-02
1.781277507543563843e-01
-9.010668098926544189e-02
-5.593012645840644836e-02
-6.018037442117929459e-03
5.634498782455921173e-03
-7.486128807067871094e-02
-9.061031788587570190e-02
-1.084070056676864624e-01
3.340653330087661743e-02
-1.151816621422767639e-01
-2.184452116489410400e-01
-2.853319793939590454e-02
1.965559832751750946e-02
1.237563937902450562e-01
-5.782074108719825745e-02
3.514757007360458374e-02
-1.169260218739509583e-01
-1.755326613783836365e-02
-5.663204193115234375e-02
-3.042932599782943726e-02
9.472964704036712646e-02
-3.905120119452476501e-02
1.661642044782638550e-01
1.817018724977970123e-02
-1.228977963328361511e-01
-1.206443831324577332e-02
8.959767222404479980e-02
1.004177853465080261e-01
-1.546868085861206055e-01
-3.981215506792068481e-02
-1.231602057814598083e-01
1.841722279787063599e-01
-7.639043778181076050e-02
1.575321257114410400e-01
9.922294318675994873e-02
-1.021054908633232117e-01
7.072647660970687866e-02
-8.424455672502517700e-02
1.245012283325195312e-01
1.021433435380458832e-02
1.296461224555969238e-01
9.406207501888275146e-02
-6.098000705242156982e-02
-9.620200144127011299e-04
3.086231090128421783e-02
-1.147026312537491322e-03
-1.068112999200820923e-01
8.297929167747497559e-02
4.689562693238258362e-02
1.921248063445091248e-02
6.636247038841247559e-02
-1.034879982471466064e-01
2.012137472629547119e-01
7.295147981494665146e-03
8.569746464490890503e-02
9.228509664535522461e-02
-1.039542034268379211e-01
2.288945764303207397e-01
5.899552255868911743e-02
-1.096897795796394348e-01
9.577018022537231445e-02
8.338546752929687500e-02
3.074496798217296600e-02
1.076863631606101990e-01
-6.542189419269561768e-02
4.988956823945045471e-02
-6.782323122024536133e-02
1.224105879664421082e-01
9.132981300354003906e-02
8.868152648210525513e-02
-1.659319549798965454e-02
3.259867429733276367e-02
9.940330684185028076e-02
-3.963099792599678040e-02
-4.748011007905006409e-02
1.492976099252700806e-01
7.946153730154037476e-02
2.885102480649948120e-02
6.591950077563524246e-03
-1.086106002330780029e-01
-1.393535882234573364e-01
-9.192000329494476318e-02
6.817574054002761841e-02
-7.432208210229873657e-02
-1.244231387972831726e-01
-3.944286704063415527e-02
5.040164105594158173e-03
3.982418030500411987e-02
-9.780553728342056274e-02
3.006830625236034393e-02
-2.170880883932113647e-02
1.358479112386703491e-01
-3.309077396988868713e-02
7.377422414720058441e-03
2.676515467464923859e-02
-1.396067738533020020e-01
1.627177745103836060e-01
-3.645500913262367249e-02
-2.992207370698451996e-02
1.644768193364143372e-02
4.821581393480300903e-02
4.356667771935462952e-02
1.256301850080490112e-01
6.370952818542718887e-03
5.774059519171714783e-02
-1.941136866807937622e-01
-1.655840873718261719e-01
9.732527285814285278e-02
2.143400758504867554e-01
-5.969479680061340332e-03
2.885024063289165497e-03
2.109102904796600342e-02
1.128047555685043335e-01
3.429421223700046539e-03
-1.122616231441497803e-01
-7.149825245141983032e-02
-1.579273343086242676e-01
-1.368450745940208435e-02
-7.083257287740707397e-02
2.596454322338104248e-02
8.486273884773254395e-02
4.215632379055023193e-02
-1.424657851457595825e-01
4.667775705456733704e-02
1.359286997467279434e-02
-1.177257746458053589e-01
6.202558800578117371e-02
-4.009909927845001221e-02
1.494952384382486343e-02
1.793537586927413940e-01
-6.955719739198684692e-02
-8.738245069980621338e-02
-4.574024677276611328e-02
5.121130496263504028e-02
-1.674573123455047607e-02
3.381199389696121216e-02
4.841374605894088745e-02
-8.649222552776336670e-02
-1.316511780023574829e-01
-3.697562962770462036e-02
4.527981951832771301e-02
-1.354697942733764648e-01
1.195706576108932495e-01
-1.103753224015235901e-01
5.457266420125961304e-02
3.723127068951725960e-03
2.141955494880676270e-01
-1.921769678592681885e-01
-4.251964390277862549e-03
1.647676974534988403e-01
-1.342839449644088745e-01
-5.081555247306823730e-02
-5.031712725758552551e-02
8.125830441713333130e-02
-7.438690215349197388e-02
6.587333977222442627e-02
-2.890663966536521912e-02
1.298048943281173706e-01
-7.088406383991241455e-02
1.149876043200492859e-01
-4.252891230862587690e-04
8.589329198002815247e-03
9.891369938850402832e-02
-7.617453485727310181e-02
1.102608628571033478e-02
5.362799763679504395e-02
1.016556844115257263e-01
-1.362843066453933716e-01
9.078723937273025513e-02
-5.590665712952613831e-02
1.513534132391214371e-02
2.215635962784290314e-02
-5.126262083649635315e-02
-2.310279943048954010e-02
-1.702848821878433228e-01
7.605958729982376099e-02
7.463225722312927246e-02
1.346734166145324707e-01
1.099540367722511292e-01
-4.689012467861175537e-02
-1.180045753717422485e-01
-5.919345840811729431e-02
-4.255671054124832153e-02
8.343610912561416626e-02
2.595041096210479736e-01
7.730546407401561737e-03
6.551158428192138672e-02
-1.465896964073181152e-01
3.475140407681465149e-02
2.011997438967227936e-02
-6.913309544324874878e-02
-7.192157208919525146e-02
-4.054916277527809143e-02
-1.905652433633804321e-01
2.932672202587127686e-02
5.060836300253868103e-02
-1.097029969096183777e-01
7.738018780946731567e-02
-1.046753749251365662e-01
-7.083014398813247681e-02
-8.452691137790679932e-02
-4.198889806866645813e-02
1.720153242349624634e-01
-4.035535454750061035e-02
-8.557765930891036987e-02
-1.430621184408664703e-02
-8.822139352560043335e-02
1.440702378749847412e-01
-1.010167896747589111e-01
9.613501280546188354e-02
-1.362104266881942749e-01
2.502851933240890503e-02
1.503334101289510727e-02
-1.854115352034568787e-02
-8.390245586633682251e-02
-1.157229766249656677e-01
6.534719467163085938e-02
-1.195980608463287354e-01
1.919579654932022095e-01
-7.210002839565277100e-02
-1.254264265298843384e-01
-1.357411593198776245e-01
1.131117492914199829e-01
-7.265959680080413818e-02
3.115791641175746918e-02
-1.121039967983961105e-02
-1.050779130309820175e-02
3.753984346985816956e-02
1.657887399196624756e-01
1.890868246555328369e-01
1.438851654529571533e-01
-2.758365124464035034e-02
-1.566890813410282135e-02
-1.264477521181106567e-02
-2.518625184893608093e-02
9.248559176921844482e-02
-1.460359692573547363e-01
-1.071199327707290649e-01
-4.169263318181037903e-02
9.359240531921386719e-02
1.139021068811416626e-01
-5.752153694629669189e-02
-9.126064926385879517e-02
1.478306669741868973e-02
-1.074808463454246521e-01
2.215552516281604767e-02
-1.265368163585662842e-01
-2.116621434688568115e-01
1.144234314560890198e-01
-9.195888042449951172e-02
2.103119790554046631e-01
-1.170058548450469971e-02
-7.098166644573211670e-02
-1.550762206315994263e-01
-8.424069732427597046e-02
-1.222858130931854248e-01
1.161798089742660522e-01
7.611989974975585938e-02
-9.700863808393478394e-02
-1.993067935109138489e-02
5.120658315718173981e-03
7.096653431653976440e-02
-2.406525192782282829e-03
-2.403910271823406219e-02
-7.191062718629837036e-02
1.733497483655810356e-03
1.209385544061660767e-01
1.353827565908432007e-01
5.164698883891105652e-02
-3.848954662680625916e-02
-9.947012364864349365e-02
-8.586730808019638062e-02
2.820373326539993286e-02
1.773105934262275696e-02
1.478999014943838120e-02
1.301734447479248047e-01
-1.568882465362548828e-01
-1.844080835580825806e-01
-4.694305732846260071e-02
5.859044939279556274e-02
-8.713649213314056396e-02
-6.249781325459480286e-02
7.454764842987060547e-02
5.536711588501930237e-02
-1.848994940519332886e-01
-4.461933299899101257e-02
5.042638629674911499e-02
1.095658317208290100e-01
-6.143540143966674805e-02
-1.354513019323348999e-01
-6.497175246477127075e-02
-5.534074455499649048e-02
-1.353776920586824417e-02
6.405671685934066772e-02
-4.651074856519699097e-02
6.365912407636642456e-02
1.099467799067497253e-01
1.121923550963401794e-01
1.031927242875099182e-01
7.352789491415023804e-02
6.360452622175216675e-02
1.223972439765930176e-02
-5.684930831193923950e-02
1.658310294151306152e-01
8.214967697858810425e-02
-2.815517596900463104e-02
8.004307001829147339e-02
3.938077948987483978e-03
-1.279451549053192139e-01
-1.001634150743484497e-01
1.071961373090744019e-01
2.139004170894622803e-01
-7.536748796701431274e-02
3.849584981799125671e-02
-5.195954442024230957e-02
-4.990973696112632751e-02
7.839108258485794067e-02
9.366759657859802246e-02
-1.332544814795255661e-02
2.550040185451507568e-02
-3.020293451845645905e-02
-1.055461615324020386e-01
2.500030696392059326e-01
-4.926457628607749939e-02
5.981850624084472656e-02
-1.172613874077796936e-01
-2.410271205008029938e-02
3.873186884447932243e-03
-1.936016380786895752e-01
2.148712240159511566e-02
-8.209273219108581543e-02
-2.724107354879379272e-02
2.908354066312313080e-02
1.608864031732082367e-02
1.119959577918052673e-01
8.933070302009582520e-02
2.098389118909835815e-01
-1.481589227914810181e-01
1.532503068447113037e-01
-9.571340680122375488e-02
-1.706600338220596313e-01
-1.060149371623992920e-01
3.043503686785697937e-02
1.472715884447097778e-01
1.694165468215942383e-01
-1.461991965770721436e-01
2.418895310256630182e-04
9.556891024112701416e-02
-3.684043511748313904e-02
-5.982981994748115540e-02
1.058899611234664917e-01
-6.361274514347314835e-03
-1.548439860343933105e-01
-2.097824774682521820e-02
2.552443742752075195e-02
-2.252940274775028229e-02
2.014899440109729767e-02
1.183509305119514465e-01
6.654642522335052490e-02
-4.636726807802915573e-04
1.531671583652496338e-01
2.713757753372192383e-02
-1.181267946958541870e-01
-1.812696605920791626e-01
-7.710947841405868530e-02
-1.728485971689224243e-01
4.341763257980346680e-02
-1.613108515739440918e-01
-4.415072873234748840e-02
1.670913025736808777e-02
-1.967193372547626495e-02
-1.477801799774169922e-01
7.323230151087045670e-03
-2.021272480487823486e-01
6.898721680045127869e-03
2.146732062101364136e-03
6.578762084245681763e-02
-8.532344549894332886e-02
1.213418915867805481e-01
2.022541463375091553e-01
9.249897301197052002e-02
1.738742925226688385e-02
4.224979784339666367e-03
5.129515379667282104e-02
-7.263313978910446167e-02
2.231423556804656982e-01
-3.622499480843544006e-02
-7.101228088140487671e-02
-1.225843355059623718e-01
9.754503518342971802e-02
-1.753155724145472050e-03
9.010476619005203247e-02
5.068451166152954102e-02
1.426414251327514648e-01
-7.756942417472600937e-03
6.946846842765808105e-03
-1.073590293526649475e-01
-1.790324300527572632e-01
-1.133685652166604996e-02
7.048106193542480469e-02
1.932489685714244843e-02
-6.927868723869323730e-02
-1.641177833080291748e-01
9.409269690513610840e-02
-5.954404547810554504e-02
1.149534136056900024e-01
-1.970435827970504761e-01
-7.182416319847106934e-02
2.598933875560760498e-03
-9.447679668664932251e-02
-1.225451231002807617e-01
-8.314026147127151489e-02
5.962044745683670044e-02
4.094545543193817139e-02
-2.690317109227180481e-03
5.731147900223731995e-02
-6.729967892169952393e-02
6.847862387076020241e-04
9.695824235677719116e-02
1.087357848882675171e-01
2.711872197687625885e-02
5.478377267718315125e-02
1.458099335432052612e-01
-1.397400349378585815e-01
-1.426278948783874512e-01
-3.871827200055122375e-02
3.504838421940803528e-02
9.736371040344238281e-02
1.766366139054298401e-02
-9.446882456541061401e-02
7.191489636898040771e-02
1.274562627077102661e-01
3.865679353475570679e-02
-1.357287764549255371e-01
1.355191022157669067e-01
1.052048876881599426e-01
4.211651906371116638e-02
7.532463967800140381e-02
4.420932848006486893e-03
1.079620420932769775e-01
1.109334826469421387e-01
6.703020632266998291e-02
1.236852407455444336e-01
4.027846455574035645e-02
3.220945224165916443e-02
1.492544859647750854e-01
-2.609124965965747833e-02
6.837255507707595825e-02
-1.548729091882705688e-01
1.364222466945648193e-01
1.565269082784652710e-01
-1.389378029853105545e-02
-9.500164538621902466e-03
-4.914258792996406555e-02
-5.901090800762176514e-02
1.397361010313034058e-01
-7.103843986988067627e-02
5.497157573699951172e-03
3.482429683208465576e-02
6.414692848920822144e-02
2.447044998407363892e-01
4.247281327843666077e-02
3.169647231698036194e-02
2.909273281693458557e-02
9.358447045087814331e-02
6.487020105123519897e-02
-3.976350277662277222e-02
-1.276729106903076172e-01
-8.726782351732254028e-02
-7.283596694469451904e-02
6.656762212514877319e-02
-1.432428210973739624e-01
1.698362231254577637e-01
-4.650819301605224609e-02
-8.931902050971984863e-02
-9.417954087257385254e-02
-6.069578975439071655e-02
1.728106588125228882e-01
6.944160908460617065e-02
1.150111854076385498e-01
1.879871189594268799e-01
-1.078113913536071777e-01
-9.787655435502529144e-03
4.390726611018180847e-02
5.091903731226921082e-02
-5.975151434540748596e-02
-1.242547184228897095e-01
-5.224908143281936646e-02
1.622030138969421387e-01
-1.267980188131332397e-01
-6.348288059234619141e-02
6.984367221593856812e-02
4.284540191292762756e-02
3.949717059731483459e-02
1.329852733761072159e-02
-1.111518144607543945e-01
-4.072003439068794250e-02
1.221658438444137573e-01
-1.080983653664588928e-01
1.004528328776359558e-01
6.238241121172904968e-02
1.164659857749938965e-01
4.572063684463500977e-02
-8.797305822372436523e-02
-1.413445323705673218e-01
1.359292212873697281e-02
1.399916708469390869e-01
1.258844286203384399e-01
1.351036429405212402e-01
-6.682776659727096558e-02
2.011926379054784775e-03
-4.207933321595191956e-03
-1.640277206897735596e-01
1.180738732218742371e-01
-2.926263026893138885e-02
-7.903815060853958130e-02
-2.411847710609436035e-01
3.710494190454483032e-02
-1.048792824149131775e-01
8.185385167598724365e-02
1.817080974578857422e-01
-9.711531922221183777e-03
-1.553793400526046753e-01
-7.562739402055740356e-02
6.019948795437812805e-02
4.563645925372838974e-04
-5.926288291811943054e-02
7.831704616546630859e-02
5.471736937761306763e-02
-9.522643685340881348e-02
2.891447953879833221e-02
1.157790571451187134e-01
-2.192480675876140594e-02
-1.250556111335754395e-02
-9.435728192329406738e-02
-1.448959019035100937e-02
4.814768210053443909e-02
-1.752991974353790283e-01
-5.970206856727600098e-02
-1.092598438262939453e-01
2.560892701148986816e-01
-6.958064436912536621e-02
5.421732738614082336e-02
3.111456148326396942e-02
6.340678781270980835e-02
6.751056760549545288e-02
1.911110132932662964e-01
-1.928895595483481884e-03
-3.508083149790763855e-02
-8.247591555118560791e-03
1.450730562210083008e-01
9.399786591529846191e-03
-6.305185705423355103e-02
-1.250895857810974121e-02
-1.004693657159805298e-01
-3.666859865188598633e-02
-9.186985902488231659e-03
-3.938610106706619263e-02
-1.219191774725914001e-01
4.928674921393394470e-02
-1.791784726083278656e-02
1.112867817282676697e-01
-8.122949860990047455e-03
1.263310015201568604e-01
-5.903154239058494568e-02
-9.447637945413589478e-02
-9.516246616840362549e-02
1.105330884456634521e-01
1.155419126152992249e-01
-4.038072377443313599e-02
-3.089914098381996155e-02
2.765971934422850609e-03
-1.276782900094985962e-01
-6.028870120644569397e-02
1.556959003210067749e-01
4.523302614688873291e-02
1.296746879816055298e-01
9.056451171636581421e-02
2.905151573941111565e-03
-1.060255393385887146e-01
6.062024459242820740e-02
1.218201965093612671e-02
-4.386175796389579773e-02
-1.187985241413116455e-01
-1.125836521387100220e-01
2.586744911968708038e-02
-2.214438840746879578e-02
1.685235500335693359e-01
-2.084780186414718628e-01
-1.635495275259017944e-01
-2.901566587388515472e-02
1.397177577018737793e-01
-9.174747020006179810e-02
-2.561937086284160614e-03
-1.648406237363815308e-01
7.338491827249526978e-02
5.739238858222961426e-02
1.771124303340911865e-01
1.343212425708770752e-01
5.500438064336776733e-02
1.963286846876144409e-01
-7.292696088552474976e-02
4.138030484318733215e-02
6.571807712316513062e-02
-1.324382983148097992e-02
1.511390507221221924e-01
-1.846628449857234955e-02
-1.561670750379562378e-01
1.643235981464385986e-01
6.481620669364929199e-02
2.107706665992736816e-01
-8.352793008089065552e-02
-2.636290341615676880e-02
-7.086004316806793213e-02
-5.662020668387413025e-02
1.889120936393737793e-01
-7.233712077140808105e-02
3.555047884583473206e-02
-1.251516304910182953e-02
4.968509078025817871e-02
9.729854762554168701e-02
1.728965193033218384e-01
7.819571346044540405e-02
-9.608737379312515259e-02
1.306978911161422729e-01
-7.670526951551437378e-02
-1.516981516033411026e-02
-1.253175288438796997e-01
-2.228867411613464355e-01
-4.739810526371002197e-02
-1.152457594871520996e-01
-1.308335214853286743e-01
-2.878334932029247284e-02
8.681829273700714111e-02
-1.157810539007186890e-01
3.919588774442672729e-02
-1.840430311858654022e-02
1.096725687384605408e-01
6.378726661205291748e-02
5.041896179318428040e-02
-2.750618755817413330e-01
5.664800852537155151e-02
-1.544352173805236816e-01
1.324667036533355713e-01
9.060333669185638428e-02
2.713091671466827393e-02
-2.357352338731288910e-02
-6.848673801869153976e-03
8.740001171827316284e-02
4.570424184203147888e-02
3.021496348083019257e-02
1.516467630863189697e-01
-1.165367960929870605e-01
-1.329295933246612549e-01
-1.912658847868442535e-02
-2.815921977162361145e-02
-1.073255240917205811e-01
-1.177474856376647949e-01
-3.763945400714874268e-02
-5.886655300855636597e-02
1.340354532003402710e-01
1.582068055868148804e-01
-1.676271669566631317e-02
-2.174595929682254791e-02
-4.699477925896644592e-02
2.433538809418678284e-02
7.725194562226533890e-03
6.497930735349655151e-03
-2.262502210214734077e-03
6.573949009180068970e-02
1.855781115591526031e-02
1.867304556071758270e-02
-8.607885986566543579e-02
-1.080140992999076843e-01
1.702769659459590912e-02
-9.320867806673049927e-02
-4.089701920747756958e-02
-3.623497113585472107e-02
9.908381849527359009e-02
7.396452128887176514e-04
1.016005054116249084e-01
-6.014019623398780823e-02
-2.044293731451034546e-01
-2.034676633775234222e-02
3.930623829364776611e-02
1.196370422840118408e-01
2.707021310925483704e-02
-8.709328249096870422e-03
1.844600141048431396e-01
2.597369952127337456e-03
-2.809935249388217926e-02
-1.480774581432342529e-01
7.413823157548904419e-02
-8.675989508628845215e-02
-7.911600172519683838e-02
1.866541606432292610e-05
-1.249621585011482239e-01
-3.622473031282424927e-02
-4.979959130287170410e-02
3.664645599201321602e-03
-1.548292785882949829e-01
1.217354312539100647e-01
5.188368633389472961e-02
9.544461220502853394e-02
-1.620998680591583252e-01
-6.603413820266723633e-02
-6.239623576402664185e-02
1.592107117176055908e-01
-3.241940634325146675e-03
-7.964465767145156860e-02
5.657580122351646423e-02
-1.260259933769702911e-02
-1.120433062314987183e-01
-4.111704975366592407e-02
-8.738322556018829346e-02
8.141598105430603027e-02
-5.586458370089530945e-02
4.300774261355400085e-02
-7.432927191257476807e-02
-6.305009126663208008e-02
-3.273218497633934021e-02
1.287359595298767090e-01
-1.878660023212432861e-01
5.701140686869621277e-02
1.025301069021224976e-01
-2.070013135671615601e-01
1.835912019014358521e-01
1.444016816094517708e-03
9.936574101448059082e-02
4.541866481304168701e-02
3.610251843929290771e-02
-7.013020664453506470e-02
-1.022967547178268433e-01
-5.323412269353866577e-02
4.991890117526054382e-02
-8.085085451602935791e-02
1.657321900129318237e-01
-1.178587228059768677e-02
-1.618064939975738525e-02
-7.752121239900588989e-02
2.552700340747833252e-01
1.663079671561717987e-02
-4.649827256798744202e-02
-7.598703354597091675e-02
1.045359671115875244e-01
8.565030992031097412e-02
-3.553500864654779434e-03
4.466278012841939926e-03
-1.507356166839599609e-01
-6.096379086375236511e-02
-1.976821571588516235e-01
1.451747864484786987e-01
6.116424873471260071e-02
-2.683583879843354225e-03
-2.002726495265960693e-02
1.315272748470306396e-01
3.708527237176895142e-02
-1.113451942801475525e-01
6.780473887920379639e-02
6.955676525831222534e-02
6.553060561418533325e-02
-4.081480950117111206e-02
1.585388928651809692e-01
-9.985187649726867676e-02
3.833564743399620056e-02
1.349494606256484985e-01
-4.048003256320953369e-02
-1.275836974382400513e-01
5.687091965228319168e-03
-9.242922812700271606e-02
6.605034321546554565e-02
1.012269314378499985e-02
9.245922788977622986e-03
-9.018325060606002808e-02
2.069938369095325470e-02
-1.240525674074888229e-02
-2.947994880378246307e-02
7.363586872816085815e-02
1.302049905061721802e-01
1.405467744916677475e-02
1.209902614355087280e-01
-6.739410571753978729e-03
-5.157324299216270447e-02
-2.112621814012527466e-02
6.724671274423599243e-02
1.496955845504999161e-02
6.044771522283554077e-02
-1.414812505245208740e-01
1.495849490165710449e-01
9.970317035913467407e-02
-1.506125461310148239e-02
-3.565437346696853638e-02
-9.066372364759445190e-02
5.569616705179214478e-02
6.002249941229820251e-02
6.515805423259735107e-02
2.860250324010848999e-02
4.801104776561260223e-03
8.183616399765014648e-02
1.258772909641265869e-01
2.568584680557250977e-01
2.311293408274650574e-02
-2.114603109657764435e-02
-5.055239424109458923e-02
-9.284633561037480831e-04
-2.406244911253452301e-02
3.257505968213081360e-02
1.025726422667503357e-01
-7.459764182567596436e-02
1.063642129302024841e-01
4.234362021088600159e-02
-5.691061913967132568e-02
-3.705599159002304077e-02
-1.098829880356788635e-01
-7.881061732769012451e-02
-2.672990038990974426e-02
4.486243054270744324e-02
-2.209547311067581177e-01
-8.978396654129028320e-02
3.336438164114952087e-02
-2.860418707132339478e-02
-7.828794419765472412e-02
-2.181624434888362885e-02
5.054372921586036682e-02
7.655674964189529419e-02
-1.423713713884353638e-01
-1.563708484172821045e-02
1.584777981042861938e-01
4.252565279603004456e-02
2.263385802507400513e-02
-3.945049270987510681e-02
-1.560013554990291595e-02
1.073754802346229553e-01
-1.076435204595327377e-02
-9.788738936185836792e-02
6.330537050962448120e-02
-1.114473771303892136e-02
7.679227273911237717e-03
7.723198831081390381e-02
5.824144184589385986e-02
-1.585696637630462646e-01
4.800249636173248291e-02
1.046593021601438522e-02
-8.342873305082321167e-02
-1.875091493129730225e-01
8.128771930932998657e-02
3.391559049487113953e-02
-1.188304647803306580e-02
1.091860607266426086e-02
-1.038846448063850403e-01
3.644631803035736084e-02
5.618516728281974792e-02
-2.317078411579132080e-01
2.105505019426345825e-02
1.577933579683303833e-01
-1.398677527904510498e-01
1.161355376243591309e-01
-1.797500252723693848e-01
2.912264876067638397e-02
-1.157906800508499146e-01
4.511706903576850891e-02
-6.199746578931808472e-02
-1.439066976308822632e-01
-5.090979486703872681e-02
7.863851636648178101e-02
-6.032444536685943604e-02
-5.041436478495597839e-02
2.844812907278537750e-02
-2.268320694565773010e-02
1.273253858089447021e-01
-2.060526907444000244e-01
3.925690054893493652e-02
-1.743550645187497139e-03
-1.093915179371833801e-01
-8.764935284852981567e-02
3.881096839904785156e-02
-1.915645413100719452e-02
4.417851194739341736e-02
-1.244392991065979004e-02
-1.271806359291076660e-01
6.451497972011566162e-02
1.424460904672741890e-03
-1.873565278947353363e-02
1.368038654327392578e-01
1.415132731199264526e-01
-8.082954585552215576e-02
-1.090100109577178955e-01
1.478538215160369873e-01
6.717433035373687744e-02
1.751283556222915649e-02
-8.614780753850936890e-02
7.418585568666458130e-02
-1.653521507978439331e-01
1.073124334216117859e-01
1.545669436454772949e-01
-2.018130384385585785e-02
1.450193822383880615e-01
1.185302715748548508e-02
5.908882245421409607e-03
2.733787149190902710e-02
-6.494853645563125610e-03
-6.975390715524554253e-04
4.107562359422445297e-03
5.350114405155181885e-02
1.795774139463901520e-02
3.783305361866950989e-02
-1.183620542287826538e-01
5.992843210697174072e-02
-1.120673492550849915e-01
1.470018271356821060e-02
-4.727578163146972656e-02
-7.860092073678970337e-02
1.570516526699066162e-01
1.661557704210281372e-02
-1.861220002174377441e-01
1.278923302888870239e-01
2.620488870888948441e-03
1.729272902011871338e-01
1.059767827391624451e-01
1.376603096723556519e-01
-9.765026718378067017e-02
9.098852984607219696e-03
-5.457288026809692383e-02
2.056078240275382996e-02
9.889803081750869751e-02
-8.504997938871383667e-02
-7.265989482402801514e-02
-1.073134317994117737e-01
-8.999162912368774414e-02
3.229148313403129578e-02
-2.000347711145877838e-02
-4.780948907136917114e-02
7.472508400678634644e-02
-1.418915390968322754e-01
-1.136712431907653809e-01
-6.518562138080596924e-02
1.281361877918243408e-01
-1.205141469836235046e-02
5.704766884446144104e-02
4.350956156849861145e-02
-1.296889036893844604e-01
1.137879937887191772e-01
-7.314091920852661133e-02
1.124969124794006348e-01
-6.944222748279571533e-02
-2.768436260521411896e-02
9.742018580436706543e-02
-8.778396248817443848e-02
1.471524685621261597e-01
-7.516391575336456299e-02
-6.879663467407226562e-02
1.793620586395263672e-01
-1.396071761846542358e-01
1.092701032757759094e-01
-3.515168325975537300e-03
5.044339969754219055e-02
-1.194106414914131165e-01
-6.327330134809017181e-03
-2.279895916581153870e-02
-6.232037022709846497e-02
-2.064799517393112183e-01
-1.255811899900436401e-01
-3.642621636390686035e-02
7.944715209305286407e-03
3.124326840043067932e-02
5.077897757291793823e-02
-6.353072822093963623e-02
-6.332471966743469238e-02
-1.200723424553871155e-01
5.777345597743988037e-02
9.716975688934326172e-02
-1.933172577992081642e-03
-1.912640482187271118e-01
7.480323314666748047e-02
-2.448845505714416504e-01
7.252869755029678345e-02
-1.196207180619239807e-01
-9.165736287832260132e-02
1.403602063655853271e-01
-3.437934070825576782e-02
-1.397805213928222656e-01
8.468026667833328247e-02
1.276240916922688484e-03
7.390768080949783325e-02
3.350736945867538452e-02
-1.152087002992630005e-01
-3.098328225314617157e-02
-4.264035727828741074e-03
2.738658711314201355e-02
-4.658996686339378357e-02
8.387363702058792114e-02
1.861956156790256500e-02
1.662761270999908447e-01
1.526110339909791946e-02
-1.086936444044113159e-01
1.564569189213216305e-03
-8.064741641283035278e-02
-3.645884990692138672e-02
-1.005406528711318970e-01
-1.767251491546630859e-01
1.215235516428947449e-01
-1.070553213357925415e-01
-1.788745820522308350e-02
-2.027934044599533081e-02
1.262219697237014771e-01
-6.361759454011917114e-02
1.134896725416183472e-01
-6.354167312383651733e-02
-3.954996913671493530e-02
8.729580044746398926e-02
-1.413276046514511108e-02
1.056160628795623779e-01
9.033094975166022778e-04
-4.708095267415046692e-02
1.978537067770957947e-02
3.018122166395187378e-02
2.530585415661334991e-02
-1.623736135661602020e-02
1.161670684814453125e-01
-1.084218919277191162e-01
-1.152272149920463562e-01
1.005197539925575256e-01
-1.121248397976160049e-02
2.836090326309204102e-01
7.345109432935714722e-02
-9.285327047109603882e-02
-1.098313033580780029e-01
8.329890668392181396e-02
-1.141537427902221680e-01
-3.296030685305595398e-02
-5.647049844264984131e-02
-1.306572109460830688e-01
1.736554875969886780e-02
1.129285171627998352e-01
-3.849412128329277039e-02
-1.604678779840469360e-01
-3.693777695298194885e-02
4.147015884518623352e-02
-2.128202281892299652e-02
4.249218106269836426e-02
2.246416173875331879e-02
9.306288510560989380e-02
3.834487125277519226e-02
9.941580146551132202e-02
-2.782615774776786566e-04
-3.726239129900932312e-02
-1.510416865348815918e-01
4.640230163931846619e-02
2.103176712989807129e-02
8.770902454853057861e-02
-2.977726794779300690e-02
-4.665915854275226593e-03
-6.020521372556686401e-02
-9.382098913192749023e-02
1.724856942892074585e-01
-1.901618950068950653e-02
1.689936383627355099e-03
-2.235731482505798340e-02
-9.008966386318206787e-02
1.007896140217781067e-01
-1.250381469726562500e-01
8.932024240493774414e-02
-9.451986849308013916e-02
-8.914359845221042633e-03
5.653586611151695251e-02
-1.271903049200773239e-02
1.039632111787796021e-01
6.514932960271835327e-02
-7.279945164918899536e-02
1.522025838494300842e-02
3.344834968447685242e-02
-8.894888311624526978e-02
-1.082691326737403870e-01
-1.285506635904312134e-01
-1.581982970237731934e-01
-5.408805981278419495e-02
-1.077117584645748138e-02
-1.848946958780288696e-01
3.280244022607803345e-02
1.088491976261138916e-01
2.873092889785766602e-02
-1.173731759190559387e-01
-1.462499499320983887e-01
6.674691289663314819e-02
5.639334022998809814e-02
-3.981146588921546936e-02
-1.955037564039230347e-01
4.804200306534767151e-02
-1.865212470293045044e-01
5.586252361536026001e-02
-6.947140395641326904e-02
6.699708104133605957e-02
1.051707342267036438e-01
4.249617084860801697e-02
-5.790294334292411804e-02
3.339419141411781311e-02
8.669247478246688843e-02
1.442700773477554321e-01
1.587300449609756470e-01
-9.553684853017330170e-03
-1.588516384363174438e-01
-9.599765390157699585e-02
3.773700818419456482e-02
-1.013123840093612671e-01
-1.436266601085662842e-01
1.570788770914077759e-02
5.499741435050964355e-02
1.432146579027175903e-01
3.678743913769721985e-02
-2.025864720344543457e-01
9.943825006484985352e-02
-9.360688179731369019e-02
4.119595512747764587e-02
2.837943099439144135e-02
-3.101478330790996552e-02
-3.428242355585098267e-02
1.035716161131858826e-01
-1.733943633735179901e-02
1.326241716742515564e-02
-1.256618350744247437e-01
2.764995582401752472e-02
5.686141550540924072e-02
-1.228900700807571411e-01
1.415515970438718796e-02
-4.543913155794143677e-02
-1.273200511932373047e-01
1.057066842913627625e-01
-5.688042193651199341e-02
-1.481049321591854095e-02
-1.236690860241651535e-02
5.471145734190940857e-02
9.877169877290725708e-02
-1.925993859767913818e-01
1.052547842264175415e-01
1.788061484694480896e-02
1.054105162620544434e-01
-8.565442264080047607e-02
-4.144353419542312622e-02
1.540040671825408936e-01
1.523499470204114914e-02
1.369485855102539062e-01
-1.359055042266845703e-01
-9.208551794290542603e-02
-3.119050338864326477e-02
-8.716229349374771118e-02
1.084201931953430176e-01
-1.627591252326965332e-01
-5.401283502578735352e-02
1.571822911500930786e-01
6.146680191159248352e-02
4.321379959583282471e-02
1.760769486427307129e-01
1.004662141203880310e-01
-2.341556362807750702e-03
-9.311760962009429932e-02
-1.018068343400955200e-01
4.447090625762939453e-02
-1.860741525888442993e-01
2.503803931176662445e-02
-3.629818931221961975e-02
-1.312885731458663940e-01
-8.646840602159500122e-02
8.709984272718429565e-02
-6.403598934412002563e-02
-2.707544900476932526e-02
8.401042222976684570e-02
2.505560964345932007e-02
2.242938131093978882e-01
9.553388692438602448e-03
8.807202428579330444e-02
2.831200696527957916e-02
-1.122692376375198364e-01
1.451061666011810303e-01
-4.959260299801826477e-02
-8.475442975759506226e-02
5.523930117487907410e-02
-1.311928182840347290e-01
-1.060696318745613098e-01
-1.300885677337646484e-01
8.990361541509628296e-02
-8.842342346906661987e-02
-9.191188029944896698e-03
6.729114055633544922e-02
1.410045027732849121e-01
4.850003868341445923e-03
1.607060581445693970e-01
9.711537510156631470e-02
-1.141773611307144165e-01
9.232205152511596680e-02
-9.788282960653305054e-02
1.232095360755920410e-01
-1.647285670042037964e-01
9.215259552001953125e-02
-3.358061239123344421e-02
-1.229488179087638855e-01
-6.700086593627929688e-02
6.030338350683450699e-03
-2.135184826329350471e-03
3.244248405098915100e-02
-5.923413857817649841e-02
1.007520221173763275e-02
-5.833842605352401733e-02
6.482856720685958862e-02
2.208475582301616669e-02
6.577640026807785034e-02
4.992839694023132324e-02
8.073140680789947510e-02
-2.272607982158660889e-01
2.420546673238277435e-02
-1.704945713281631470e-01
-9.209633618593215942e-02
4.301351681351661682e-02
-1.208280771970748901e-02
6.551347672939300537e-02
4.319290816783905029e-02
1.205854192376136780e-01
6.595991551876068115e-02
1.134771406650543213e-01
-1.369631141424179077e-01
-5.628108605742454529e-02
-1.711588501930236816e-01
6.593205034732818604e-02
-2.172895520925521851e-02
-6.691398471593856812e-02
1.382954511791467667e-02
1.380997747182846069e-01
-1.097081303596496582e-01
8.551066368818283081e-02
-2.405306138098239899e-02
3.464518487453460693e-02
-5.193090438842773438e-02
2.515269517898559570e-01
-2.843422889709472656e-01
1.739277690649032593e-01
-1.938637532293796539e-02
7.452570647001266479e-02
1.072655096650123596e-01
6.466337293386459351e-02
1.078017894178628922e-02
-3.362623974680900574e-02
-1.400421839207410812e-03
8.383488655090332031e-02
1.889028958976268768e-02
1.206929609179496765e-02
-8.595121651887893677e-02
4.166364297270774841e-02
-1.253706067800521851e-01
1.353852748870849609e-01
-1.193256024271249771e-02
-1.085515599697828293e-02
2.449749736115336418e-03
-3.097505122423171997e-02
-1.462514847517013550e-01
-1.456379611045122147e-02
-3.675146400928497314e-02
8.518252521753311157e-02
4.300969094038009644e-02
6.702789664268493652e-02
8.194877207279205322e-02
-1.621358096599578857e-01
-6.841857731342315674e-02
-7.666731625795364380e-02
-8.526111952960491180e-03
-1.111852377653121948e-01
-5.746631324291229248e-02
4.255785048007965088e-02
-1.138419210910797119e-01
2.412186004221439362e-02
-5.995522066950798035e-02
-1.665114313364028931e-01
1.492319814860820770e-02
-5.664711818099021912e-02
1.291334778070449829e-01
1.003896743059158325e-01
-7.533651590347290039e-02
-6.747598946094512939e-02
1.582364886999130249e-01
8.945660293102264404e-02
1.320480257272720337e-01
-2.834617160260677338e-02
-9.779915213584899902e-03
-6.737674772739410400e-02
2.027287632226943970e-01
-1.923204362392425537e-01
-7.915132492780685425e-02
3.366970643401145935e-02
3.154533728957176208e-02
1.323170661926269531e-01
-6.447689235210418701e-02
1.377132236957550049e-01
-3.753779083490371704e-02
-6.576070934534072876e-02
-1.265071518719196320e-02
3.229612857103347778e-02
6.833738088607788086e-02
-4.610380157828330994e-02
-3.526972606778144836e-02
-4.211617168039083481e-03
5.420176312327384949e-02
2.844188129529356956e-03
-9.980836510658264160e-02
-6.282480061054229736e-02
-5.339455232024192810e-02
1.917523890733718872e-01
-1.048975214362144470e-01
6.747302412986755371e-02
-1.769805848598480225e-01
4.206951335072517395e-02
-1.297744214534759521e-01
1.904205232858657837e-01
-1.386911720037460327e-01
5.779322236776351929e-02
-1.590952873229980469e-01
1.245786622166633606e-01
-7.203272730112075806e-02
6.736213713884353638e-02
-1.075112372636795044e-01
-1.895336210727691650e-01
1.612502895295619965e-02
-3.552468866109848022e-02
7.982686907052993774e-02
1.129452511668205261e-02
1.727009750902652740e-02
5.333612207323312759e-03
3.609308972954750061e-02
-4.784698411822319031e-02
1.074986085295677185e-01
-1.073845475912094116e-01
-2.132474817335605621e-02
2.823502756655216217e-02
5.177143588662147522e-02
-6.329532712697982788e-02
-5.281403660774230957e-02
-6.857533007860183716e-02
-1.517691463232040405e-01
-1.786470785737037659e-02
-3.955404460430145264e-02
1.780255138874053955e-01
3.904461115598678589e-02
2.298087999224662781e-02
-1.021841242909431458e-01
1.842252016067504883e-01
9.374181926250457764e-02
6.113687902688980103e-02
-1.814823597669601440e-01
-1.097041666507720947e-01
4.392118752002716064e-02
1.282122880220413208e-01
2.136572264134883881e-02
1.036846712231636047e-01
1.340359896421432495e-01
9.395759552717208862e-02
-7.431343197822570801e-02
3.556541725993156433e-02
-7.957059144973754883e-02
5.156212672591209412e-02
-1.140528321266174316e-01
-2.652165852487087250e-02
-1.706702634692192078e-02
2.981912903487682343e-02
1.664607375860214233e-01
9.995048493146896362e-02
4.359804093837738037e-02
-1.296808719635009766e-01
1.250152941793203354e-02
1.830009520053863525e-01
8.656812459230422974e-02
-1.602605432271957397e-01
-1.234924271702766418e-01
2.325933873653411865e-01
8.773742616176605225e-02
-6.336565315723419189e-02
-1.887638308107852936e-02
-1.250612139701843262e-01
3.513555740937590599e-03
1.655516214668750763e-02
-8.727832138538360596e-02
-1.513959765434265137e-01
-1.088957935571670532e-01
1.728001236915588379e-01
1.171486824750900269e-02
4.822937771677970886e-02
9.568382054567337036e-03
2.317481487989425659e-01
-2.106549032032489777e-02
-2.738258801400661469e-02
1.499605923891067505e-02
-3.114302176982164383e-03
1.366047114133834839e-01
6.028982624411582947e-02
1.867354214191436768e-01
6.631786236539483070e-04
6.079284101724624634e-02
8.180076628923416138e-02
-5.866423249244689941e-02
-2.968545258045196533e-02
1.733333617448806763e-01
-4.431964084506034851e-02
1.516971439123153687e-01
-2.009057067334651947e-02
-5.522698163986206055e-02
8.438851684331893921e-02
-1.633962392807006836e-01
8.478226512670516968e-02
4.405870288610458374e-02
-1.206640750169754028e-01
-8.269900083541870117e-02
-5.150138586759567261e-02
-1.052137613296508789e-01
1.706562042236328125e-01
6.261742115020751953e-02
-9.309440851211547852e-03
-1.045337021350860596e-01
-9.615034610033035278e-02
-6.487886607646942139e-02
1.693660765886306763e-01
1.600083708763122559e-02
4.051525145769119263e-02
-1.346456110477447510e-01
8.629832416772842407e-02
-2.827796526253223419e-02
1.040955036878585815e-01
-9.163627028465270996e-02
-3.712094947695732117e-02
-6.480953097343444824e-02
1.255958825349807739e-01
-1.455391943454742432e-02
6.083172559738159180e-02
-7.277470082044601440e-02
-4.904907569289207458e-02
1.908321492373943329e-02
-2.261978574097156525e-02
2.002985775470733643e-02
1.131842955946922302e-01
-1.169147267937660217e-01
-3.679616376757621765e-02
-1.133225187659263611e-01
7.390119601041078568e-03
-1.936614066362380981e-01
-1.023421064019203186e-01
1.776543408632278442e-01
1.816364675760269165e-01
-9.017404168844223022e-02
9.245895594358444214e-02
-3.729496896266937256e-02
-9.617339819669723511e-02
9.429290145635604858e-02
-1.413220018148422241e-01
-7.153385877609252930e-02
-4.285711050033569336e-02
-2.570279873907566071e-02
1.065963357686996460e-01
-4.368151724338531494e-02
-3.298136591911315918e-02
1.452197507023811340e-02
2.529370412230491638e-02
1.983392424881458282e-02
1.184435188770294189e-02
8.799331635236740112e-02
-1.123990640044212341e-01
-1.016135327517986298e-02
3.196264430880546570e-02
-5.380992591381072998e-02
-2.660830970853567123e-03
8.781028911471366882e-03
-7.871675491333007812e-02
-7.203338295221328735e-02
3.825272992253303528e-02
1.162455510348081589e-02
-1.379361376166343689e-02
-1.596066914498806000e-02
-4.258791729807853699e-02
-1.224604025483131409e-01
2.416810691356658936e-01
9.447255730628967285e-02
-1.602038294076919556e-01
7.949286699295043945e-02
-6.766299717128276825e-03
-8.250128477811813354e-02
-9.435513615608215332e-02
5.620251595973968506e-02
-2.303504012525081635e-02
-5.241797491908073425e-02
6.240309029817581177e-02
3.938045725226402283e-02
8.983744308352470398e-03
-8.606318384408950806e-02
-9.226608276367187500e-02
-5.298667401075363159e-02
-9.081120789051055908e-02
-2.191179431974887848e-02
-1.056160852313041687e-01
1.182753592729568481e-01
2.719792537391185760e-02
-3.890523314476013184e-02
-1.650878787040710449e-02
-2.481564879417419434e-02
1.799479573965072632e-01
1.106040254235267639e-01
-2.287126611918210983e-03
1.643384248018264771e-02
2.552929148077964783e-02
-3.837005421519279480e-02
1.019656937569379807e-02
1.198300570249557495e-01
-1.850093156099319458e-01
1.169762089848518372e-01
-1.288550943136215210e-01
-1.200911253690719604e-01
3.230167552828788757e-02
-1.148385629057884216e-01
4.410763084888458252e-02
-8.329970389604568481e-02
5.705020856112241745e-03
-1.281423568725585938e-01
9.267785400152206421e-02
3.204524517059326172e-02
1.474505513906478882e-01
-8.754742890596389771e-02
-1.226097196340560913e-01
4.047420620918273926e-02
-1.405960600823163986e-02
-4.598121158778667450e-03
4.081011191010475159e-02
1.466263830661773682e-01
1.976250410079956055e-01
1.985798329114913940e-01
5.229593440890312195e-02
6.596460938453674316e-02
-4.782402142882347107e-02
6.836558133363723755e-02
1.758801341056823730e-01
1.119050756096839905e-01
-8.833611011505126953e-02
-3.324950858950614929e-02
1.383876353502273560e-01
-2.159945815801620483e-01
-8.509176969528198242e-02
8.732516318559646606e-02
-1.658516004681587219e-03
1.306012868881225586e-01
2.417272515594959259e-02
-1.179784536361694336e-01
-1.718480605632066727e-03
8.580285310745239258e-02
9.335312992334365845e-02
1.611850261688232422e-01
3.567058220505714417e-02
-1.274097710847854614e-01
1.377128511667251587e-01
6.005894765257835388e-02
-4.096144810318946838e-02
-7.403163611888885498e-02
1.523123830556869507e-01
-2.428659424185752869e-02
-2.612762153148651123e-02
-9.118000417947769165e-02
-2.013086713850498199e-02
-5.605814233422279358e-02
-6.499712914228439331e-02
4.305840656161308289e-02
-1.234402880072593689e-01
4.578855633735656738e-02
8.776578307151794434e-02
1.283343695104122162e-02
1.716318167746067047e-02
2.213600091636180878e-02
8.589063584804534912e-02
-3.523046616464853287e-04
8.119671791791915894e-02
1.896728873252868652e-01
5.165655538439750671e-02
9.958172589540481567e-02
-5.150739476084709167e-02
4.656571522355079651e-02
1.646249294281005859e-01
-5.819131061434745789e-02
-8.545697480440139771e-02
1.116902530193328857e-01
4.552845656871795654e-02
2.298600673675537109e-01
-9.332007728517055511e-03
-1.552579402923583984e-01
-1.244598701596260071e-01
1.559424493461847305e-02
-1.817559301853179932e-01
-1.062692925333976746e-01
-1.203672140836715698e-01
-3.761508688330650330e-02
-1.636482328176498413e-01
-6.564661860466003418e-02
1.062314212322235107e-01
-1.505107730627059937e-01
-4.857845604419708252e-02
8.370533585548400879e-02
1.997742503881454468e-01
-6.221568211913108826e-02
-8.033301681280136108e-02
-5.195489153265953064e-03
-3.063025139272212982e-02
4.985990747809410095e-02
5.441056564450263977e-03
1.057561486959457397e-01
8.895441144704818726e-02
8.439049869775772095e-02
-2.405656874179840088e-02
3.908202424645423889e-02
-8.262009173631668091e-02
8.246520161628723145e-02
2.256972342729568481e-02
-3.047854825854301453e-02
6.457091867923736572e-02
-1.573418229818344116e-01
3.446954488754272461e-02
-4.333331808447837830e-02
6.557909399271011353e-02
8.428141474723815918e-02
-9.138877689838409424e-02
-5.697728320956230164e-02
-4.194490239024162292e-02
-5.226908251643180847e-02
1.031508222222328186e-01
3.950965031981468201e-02
-8.163257688283920288e-02
4.577348008751869202e-02
-1.207899525761604309e-01
7.356812059879302979e-02
-8.357672393321990967e-02
8.351204544305801392e-02
-1.881639361381530762e-01
6.878152489662170410e-02
-4.676105454564094543e-02
8.008410781621932983e-02
-1.584289781749248505e-02
1.404729336500167847e-01
-6.616855412721633911e-02
-1.106796562671661377e-01
-1.493360400199890137e-01
9.451668709516525269e-02
-1.015700958669185638e-02
-2.394549548625946045e-01
7.594470679759979248e-02
-1.535776406526565552e-01
1.183827966451644897e-01
6.459803134202957153e-02
4.809741675853729248e-02
-7.318758964538574219e-02
-9.698173403739929199e-02
-6.427102535963058472e-02
1.558083295822143555e-02
-1.544289141893386841e-01
-1.027614157646894455e-02
9.976556897163391113e-02
-1.209773272275924683e-01
-1.535645872354507446e-02
1.980214267969131470e-01
8.724638074636459351e-02
1.809725016355514526e-01
1.916958093643188477e-01
2.056110203266143799e-01
6.655770540237426758e-02
1.228306517004966736e-01
-1.537809818983078003e-01
7.504011690616607666e-02
8.936439640820026398e-03
-3.568446636199951172e-02
-5.069835111498832703e-02
3.753638267517089844e-02
-4.024915024638175964e-02
-4.430732503533363342e-02
-2.288257330656051636e-01
-1.136763021349906921e-01
-4.759792238473892212e-02
-6.869406253099441528e-02
-5.436239019036293030e-02
7.885222882032394409e-02
-9.151344001293182373e-02
3.602863848209381104e-02
-1.618251949548721313e-02
-1.211891621351242065e-01
-2.325921319425106049e-02
-1.296738833189010620e-01
1.831842362880706787e-01
6.796525418758392334e-02
-4.585569724440574646e-02
-1.432753205299377441e-01
-5.945906043052673340e-02
-1.404283344745635986e-01
1.599274948239326477e-02
3.299212083220481873e-02
-2.666944824159145355e-02
1.954511106014251709e-01
2.005903422832489014e-01
1.919831335544586182e-02
-1.054651662707328796e-01
5.304278433322906494e-02
-1.658042334020137787e-02
2.092182263731956482e-02
-2.929936163127422333e-02
4.918748140335083008e-02
1.486772894859313965e-01
8.028326183557510376e-02
3.923030197620391846e-02
3.308396786451339722e-02
-2.127381116151809692e-01
6.352362781763076782e-02
-1.121387332677841187e-01
6.205445528030395508e-02
-2.248726636171340942e-01
2.163161337375640869e-01
1.166944429278373718e-01
-6.057076156139373779e-02
4.832127597182989120e-03
4.042657464742660522e-02
6.959820538759231567e-02
5.707621574401855469e-02
-1.162529811263084412e-01
1.098970398306846619e-01
-1.126506477594375610e-01
5.515843629837036133e-02
-5.563956126570701599e-02
-1.581828147172927856e-01
1.759114563465118408e-01
-7.272395491600036621e-02
-6.036832928657531738e-02
1.183124780654907227e-01
-1.343270391225814819e-01
2.737974748015403748e-02
-2.045232616364955902e-02
6.733240187168121338e-02
4.103568568825721741e-02
2.510395646095275879e-01
-5.998311191797256470e-02
-1.308234129101037979e-02
-1.197536811232566833e-01
9.739913791418075562e-02
1.200128495693206787e-01
-1.412431616336107254e-02
-6.367827951908111572e-02
2.143805176019668579e-01
-5.480640381574630737e-02
-4.908566921949386597e-02
1.683390289545059204e-01
-8.055631071329116821e-02
-9.882380068302154541e-02
-6.714954040944576263e-03
-1.069476548582315445e-02
-7.303261756896972656e-02
1.632412225008010864e-01
-1.314475089311599731e-01
-1.632901132106781006e-01
1.656520515680313110e-01
1.631830930709838867e-01
1.302905678749084473e-01
5.206408444792032242e-03
1.899380236864089966e-01
-3.584619238972663879e-02
1.407029479742050171e-01
-4.855222627520561218e-02
-3.113397955894470215e-02
7.511131465435028076e-02
9.484150260686874390e-02
-6.877305358648300171e-02
-1.841370612382888794e-01
-2.575849741697311401e-02
6.512396037578582764e-02
3.132499009370803833e-02
-5.395694449543952942e-02
-7.094942033290863037e-02
1.140039488673210144e-01
-5.670984275639057159e-03
-5.098376795649528503e-02
2.673654854297637939e-01
1.183115616440773010e-01
3.793713077902793884e-02
1.547374995425343513e-03
-2.277679275721311569e-03
5.160783603787422180e-02
6.103717535734176636e-02
-7.869952917098999023e-02
-1.415548324584960938e-01
-2.529653720557689667e-02
-7.714483141899108887e-02
-2.361835539340972900e-02
-1.108620688319206238e-01
-9.278835356235504150e-02
1.698668114840984344e-02
7.362668984569609165e-04
-3.339557722210884094e-02
-8.240367472171783447e-02
1.342663820832967758e-02
-6.403681635856628418e-02
7.635196298360824585e-02
-3.261841088533401489e-02
-1.460314840078353882e-01
4.460454732179641724e-02
5.296919867396354675e-02
-4.247755184769630432e-02
7.325175404548645020e-02
