-3.732764720916748047e-01
-2.155435271561145782e-02
-8.695077896118164062e-02
1.426887214183807373e-01
2.576448023319244385e-02
2.460986673831939697e-01
1.792839169502258301e-01
3.770906329154968262e-01
2.893554866313934326e-01
9.861674159765243530e-02
4.158430993556976318e-01
1.691730469465255737e-01
-2.664791643619537354e-01
1.018937826156616211e-01
1.879293620586395264e-01
7.630991935729980469e-02
-1.604724675416946411e-01
2.317323088645935059e-01
-2.104414105415344238e-01
2.668141424655914307e-01
1.539425849914550781e-01
8.919545263051986694e-02
-5.658134073019027710e-02
2.941714525222778320e-01
2.897684834897518158e-02
2.397770136594772339e-01
2.636887729167938232e-01
5.910807102918624878e-02
-7.832472771406173706e-02
3.804702460765838623e-01
-1.781097985804080963e-02
4.676831513643264771e-02
-1.316841393709182739e-01
1.018029451370239258e-01
5.459005385637283325e-02
1.350272148847579956e-01
-2.018463052809238434e-02
1.874455362558364868e-01
-4.544352740049362183e-02
7.614814490079879761e-02
1.037391647696495056e-01
-8.525592833757400513e-02
-2.997094690799713135e-01
1.434023678302764893e-01
9.054439514875411987e-02
-1.090867295861244202e-01
1.613827496767044067e-01
6.093198060989379883e-02
-9.050539880990982056e-02
1.014426648616790771e-01
2.970986664295196533e-01
2.011400274932384491e-02
-3.883333504199981689e-02
2.472961843013763428e-01
-7.424554973840713501e-02
3.454146385192871094e-01
2.499569058418273926e-01
-4.990567266941070557e-02
5.620073527097702026e-03
1.465572565793991089e-01
-1.421139687299728394e-01
2.326545119285583496e-01
-1.542246043682098389e-01
2.180045992136001587e-01
-8.631298691034317017e-02
3.290567398071289062e-01
1.047899201512336731e-01
1.481226980686187744e-01
1.436912268400192261e-01
2.817357778549194336e-01
5.463182926177978516e-02
-2.464561909437179565e-01
7.736557722091674805e-02
-3.028797209262847900e-01
-9.734114259481430054e-02
9.785129129886627197e-02
3.912296295166015625e-01
2.523651421070098877e-01
1.656669229269027710e-01
-1.540803313255310059e-01
1.808443292975425720e-02
1.106317639350891113e-01
2.519446611404418945e-01
-5.149552226066589355e-01
1.354187577962875366e-01
1.842564642429351807e-01
-4.254648834466934204e-02
-5.801097303628921509e-02
9.701103717088699341e-02
1.700878515839576721e-02
-3.884244263172149658e-01
1.146023720502853394e-01
1.340431720018386841e-01
1.868344545364379883e-01
-2.271307110786437988e-01
1.067791692912578583e-02
-1.509468108415603638e-01
3.116289079189300537e-01
2.339421361684799194e-01
1.748999059200286865e-01
-4.860836640000343323e-02
4.798355996608734131e-01
1.643237918615341187e-01
-1.111709550023078918e-01
6.246777996420860291e-02
-3.021670877933502197e-01
-1.358226239681243896e-01
1.213093698024749756e-01
2.587483227252960205e-01
2.468507438898086548e-01
2.704260125756263733e-02
-2.689989209175109863e-01
2.834929227828979492e-01
6.682170927524566650e-02
1.042695194482803345e-01
-1.930808424949645996e-01
6.156161427497863770e-02
8.880415558815002441e-02
-2.713844776153564453e-01
-5.094305053353309631e-02
-2.495064437389373779e-01
5.475811194628477097e-03
-2.122600376605987549e-01
2.015728354454040527e-01
1.375984698534011841e-01
-9.028721600770950317e-02
-6.203174963593482971e-02
-1.417010743170976639e-02
-1.987826377153396606e-01
1.203743293881416321e-01
1.233813390135765076e-01
6.548433750867843628e-02
-7.963464409112930298e-02
2.856606841087341309e-01
4.176823496818542480e-01
1.200394034385681152e-01
1.437218338251113892e-01
-1.165986508131027222e-01
-4.387115314602851868e-02
2.695412337779998779e-01
2.690444141626358032e-02
-9.926863759756088257e-02
-1.264824420213699341e-01
-5.377703346312046051e-03
2.256636023521423340e-01
-7.000278681516647339e-02
1.884441673755645752e-01
3.844470158219337463e-02
-7.010318338871002197e-02
-7.797252386808395386e-02
-1.332118511199951172e-01
8.335405588150024414e-02
-2.854945138096809387e-02
1.072754338383674622e-02
-1.077174469828605652e-01
1.067893058061599731e-01
1.873520761728286743e-02
7.087346911430358887e-02
2.305417060852050781e-01
-3.279910236597061157e-02
2.216753736138343811e-02
5.474981293082237244e-02
2.033289372920989990e-01
1.932782083749771118e-01
-6.563203781843185425e-02
-1.662085950374603271e-01
4.018539935350418091e-02
2.387876063585281372e-01
1.539677679538726807e-01
6.346377730369567871e-02
3.681466281414031982e-01
-7.731354236602783203e-02
-1.667694002389907837e-01
2.143656313419342041e-01
1.126861497759819031e-01
-8.504818379878997803e-02
4.903820157051086426e-02
1.454956680536270142e-01
1.972331479191780090e-02
-7.812723517417907715e-02
-1.226364821195602417e-01
-2.207989105954766273e-03
-4.306694120168685913e-02
2.073938995599746704e-01
1.093641817569732666e-01
1.356164962053298950e-01
2.238868921995162964e-01
2.551894485950469971e-01
-1.082931831479072571e-01
-5.747751891613006592e-02
3.564050197601318359e-01
-2.306006997823715210e-01
7.789158076047897339e-02
5.395585903897881508e-04
1.370316594839096069e-01
-1.592671573162078857e-01
8.708770573139190674e-02
5.602885037660598755e-02
1.772847026586532593e-01
9.294609539210796356e-03
-1.256561577320098877e-01
4.899113178253173828e-01
-3.624022603034973145e-01
-2.474486269056797028e-02
5.493215918540954590e-01
-7.943771779537200928e-02
-8.221568912267684937e-02
-1.297280192375183105e-01
-9.118302166461944580e-02
-2.738576941192150116e-02
5.340018272399902344e-01
-3.278933465480804443e-01
-2.289845347404479980e-01
1.922586262226104736e-01
-4.196736589074134827e-02
1.128527801483869553e-02
5.127169564366340637e-02
1.137856319546699524e-01
1.564082801342010498e-01
2.525587007403373718e-02
-2.528455257415771484e-01
-1.366948485374450684e-01
9.680539369583129883e-02
4.811782836914062500e-01
3.580299019813537598e-02
7.244119793176651001e-02
-1.901671476662158966e-02
-1.055984646081924438e-01
1.487127095460891724e-01
7.497818022966384888e-02
-2.076988480985164642e-02
-1.806323379278182983e-01
-2.062347829341888428e-01
1.893000453710556030e-01
1.255455613136291504e-01
-4.152170196175575256e-02
5.010021105408668518e-02
1.737937703728675842e-02
5.395223200321197510e-02
-3.592753410339355469e-02
3.413107395172119141e-01
1.127572655677795410e-01
-1.486640125513076782e-01
-8.767919614911079407e-03
6.935485452413558960e-02
-8.257237821817398071e-02
2.097244560718536377e-01
-1.282474249601364136e-01
-1.843274384737014771e-01
1.659585833549499512e-01
-1.265640836209058762e-02
-1.105635836720466614e-01
-1.637386679649353027e-01
-3.987033665180206299e-02
1.311057955026626587e-01
-2.132600992918014526e-01
-1.829045414924621582e-01
1.142389401793479919e-01
1.074194684624671936e-01
-1.443183328956365585e-02
2.485176324844360352e-01
5.679883435368537903e-02
-5.064761266112327576e-03
1.402236819267272949e-01
-4.474760219454765320e-02
4.661785904318094254e-03
1.988203637301921844e-02
-1.486569046974182129e-01
-1.106790676712989807e-01
-3.134965896606445312e-01
4.612175822257995605e-01
-3.609137535095214844e-01
1.498845368623733521e-01
8.532182127237319946e-02
-1.890090703964233398e-01
6.824778914451599121e-01
2.726085186004638672e-01
3.282710164785385132e-02
1.076869666576385498e-01
-8.376861922442913055e-03
7.160702347755432129e-02
3.477720022201538086e-01
-1.507922410964965820e-01
-2.303191274404525757e-02
1.709394752979278564e-01
5.089148879051208496e-02
1.214553341269493103e-01
-3.495478928089141846e-01
-3.002393245697021484e-01
-1.851171441376209259e-02
4.365132749080657959e-02
8.610522001981735229e-02
-2.752244174480438232e-01
2.205297909677028656e-02
1.577725857496261597e-01
1.915276199579238892e-01
4.865347594022750854e-02
-1.945958733558654785e-01
4.541916400194168091e-02
2.250547707080841064e-02
3.714002296328544617e-02
-2.544243037700653076e-01
1.659850925207138062e-01
-3.000340163707733154e-01
-1.494523435831069946e-01
-4.894312471151351929e-02
4.455723986029624939e-02
2.399207055568695068e-01
4.237875714898109436e-02
-1.682925969362258911e-01
3.584925830364227295e-01
-7.245416194200515747e-02
1.642893403768539429e-01
3.674916028976440430e-01
-5.313066765666007996e-02
4.138573631644248962e-02
1.458990275859832764e-01
7.013234496116638184e-02
2.001269906759262085e-01
4.165264591574668884e-02
-1.844571530818939209e-01
-9.904101490974426270e-02
2.313838005065917969e-01
1.273095421493053436e-02
-9.319663047790527344e-03
-2.735253274440765381e-01
1.102902367711067200e-01
1.949671059846878052e-01
1.037285011261701584e-02
-1.743257045745849609e-01
1.926350146532058716e-01
-6.441969424486160278e-02
-1.047920659184455872e-01
6.422482430934906006e-02
-5.468555539846420288e-02
2.174739986658096313e-01
-6.093024462461471558e-02
-3.389655845239758492e-03
-3.707328438758850098e-02
-1.257334463298320770e-02
-4.147533774375915527e-01
-7.413908839225769043e-03
-2.307306602597236633e-02
8.992354571819305420e-02
2.372672557830810547e-01
1.935512423515319824e-01
1.968547105789184570e-01
1.583119928836822510e-01
-1.676296144723892212e-01
-4.451199248433113098e-02
1.442930847406387329e-01
-3.114541769027709961e-01
-3.385122399777173996e-03
-7.969355583190917969e-02
1.508719101548194885e-02
-2.399585768580436707e-02
-1.205951557494699955e-03
-3.178407549858093262e-01
9.553747624158859253e-02
5.621101334691047668e-02
-9.151186048984527588e-02
-1.135461553931236267e-01
-1.549687385559082031e-01
-2.450586482882499695e-02
5.284085869789123535e-01
1.642936021089553833e-01
1.369528286159038544e-02
1.214866563677787781e-01
1.877679675817489624e-01
-3.417980074882507324e-01
4.849285352975130081e-03
2.823340892791748047e-01
2.739562839269638062e-02
2.313454598188400269e-01
9.441369771957397461e-02
-2.907954156398773193e-01
-2.644814252853393555e-01
-6.040830537676811218e-02
3.436957597732543945e-01
6.297786533832550049e-02
-1.133403182029724121e-01
9.039948880672454834e-02
-8.389926515519618988e-03
4.375970661640167236e-01
5.989162996411323547e-02
-2.035136669874191284e-01
7.766836881637573242e-02
-6.018295884132385254e-02
5.218616500496864319e-02
-3.114772140979766846e-01
-1.360452324151992798e-01
1.325676403939723969e-02
-1.163767948746681213e-01
1.758184283971786499e-01
-9.745705127716064453e-02
-1.436382085084915161e-01
-3.194809556007385254e-01
2.053063958883285522e-01
4.738925397396087646e-02
7.564157247543334961e-01
1.509395837783813477e-01
-3.155206143856048584e-01
-4.122703373432159424e-01
4.836150407791137695e-01
2.966865301132202148e-01
-7.174801826477050781e-02
-8.270008862018585205e-02
-1.605308353900909424e-01
-2.498023211956024170e-01
-5.610193312168121338e-02
-1.328366696834564209e-01
-4.166901856660842896e-02
-8.316159248352050781e-02
-2.435121536254882812e-01
-2.339231520891189575e-01
4.333211779594421387e-01
-4.959650337696075439e-02
2.184935361146926880e-01
6.389739364385604858e-02
7.870183140039443970e-02
2.237596064805984497e-01
-3.892005980014801025e-01
-1.763072758913040161e-01
1.690727472305297852e-01
-2.246236614882946014e-02
1.521912217140197754e-01
-1.241722926497459412e-01
-2.485635578632354736e-01
-4.814839735627174377e-02
-9.344955533742904663e-02
-3.437674045562744141e-01
3.961113095283508301e-01
-2.327840924263000488e-01
3.623419627547264099e-02
-2.024660408496856689e-01
-1.438499093055725098e-01
-1.236234381794929504e-01
-1.104429289698600769e-01
2.437909394502639771e-01
-2.026750147342681885e-02
2.140488177537918091e-01
-2.403151541948318481e-01
-2.049992084503173828e-01
-7.178395241498947144e-02
1.976802349090576172e-01
2.365042641758918762e-02
1.395760774612426758e-01
-2.922048866748809814e-01
-1.335598826408386230e-01
1.456376910209655762e-01
1.597853600978851318e-01
1.423929184675216675e-01
-9.837500005960464478e-02
-1.471768766641616821e-01
9.516543149948120117e-02
-1.259117424488067627e-01
1.653422564268112183e-01
-1.498469859361648560e-01
1.684153378009796143e-01
-8.695369586348533630e-03
1.463979631662368774e-01
-1.179150938987731934e-01
-1.167254373431205750e-01
8.914741687476634979e-03
-1.137519776821136475e-01
9.295839071273803711e-02
2.395622432231903076e-02
-2.366538345813751221e-01
1.575719118118286133e-01
-8.371579460799694061e-04
2.910214066505432129e-01
6.210281047970056534e-03
2.427539378404617310e-01
1.343770325183868408e-01
-1.522121280431747437e-01
1.571566164493560791e-01
6.285050511360168457e-02
2.254704982042312622e-01
1.657096296548843384e-01
1.496021635830402374e-02
4.198703914880752563e-02
-1.185507997870445251e-01
1.709314286708831787e-01
5.092290416359901428e-02
-9.717065840959548950e-02
-8.567067235708236694e-02
3.742157220840454102e-01
1.986937224864959717e-01
-1.301578879356384277e-01
-9.698641300201416016e-02
1.682271361351013184e-01
-2.489785663783550262e-02
1.197381913661956787e-01
-7.294096797704696655e-02
1.624303907155990601e-01
9.477430582046508789e-02
-1.541390419006347656e-01
-1.904493719339370728e-01
-7.093251682817935944e-03
4.422400891780853271e-01
-2.853751480579376221e-01
9.577228873968124390e-02
-3.667860478162765503e-02
1.300167758017778397e-02
3.041545152664184570e-01
1.604470163583755493e-01
3.154899179935455322e-01
9.200701862573623657e-02
-6.962108612060546875e-02
-9.373088926076889038e-02
3.492557257413864136e-02
-4.139274060726165771e-01
-7.008764147758483887e-02
-1.077096313238143921e-01
1.512998640537261963e-01
2.679803222417831421e-02
-7.709677517414093018e-02
-1.228410601615905762e-01
-6.865204125642776489e-02
2.815212607383728027e-01
-1.024532839655876160e-01
-2.147893607616424561e-01
2.027102857828140259e-01
-1.897272616624832153e-01
1.508923470973968506e-01
-9.777603670954704285e-03
-1.189564466476440430e-01
-3.353377580642700195e-01
2.934159934520721436e-01
-1.437449902296066284e-01
2.980703674256801605e-02
7.757753133773803711e-02
5.035760998725891113e-01
3.309246003627777100e-01
2.204503268003463745e-01
-1.323284804821014404e-01
-2.845251746475696564e-02
-9.815664589405059814e-02
-1.323344744741916656e-02
-1.572397351264953613e-01
-2.155994623899459839e-02
-1.819620877504348755e-01
9.343786537647247314e-02
-2.404177561402320862e-02
-1.214048713445663452e-01
1.971971839666366577e-01
1.376559883356094360e-01
3.339450061321258545e-02
-5.775744467973709106e-02
-1.372684538364410400e-01
-1.588887423276901245e-01
-3.047213256359100342e-01
9.192103892564773560e-02
-1.220338344573974609e-01
9.983100742101669312e-02
-1.217726320028305054e-01
-2.687077224254608154e-01
3.480679392814636230e-01
-2.663166821002960205e-01
-2.312991917133331299e-01
-1.735308021306991577e-01
2.085289955139160156e-01
-7.224082201719284058e-02
-4.307771027088165283e-01
-7.597228884696960449e-02
2.089337557554244995e-01
-1.763679236173629761e-01
-1.051820665597915649e-01
-9.046453982591629028e-02
-1.856913566589355469e-01
4.671514406800270081e-02
5.194230377674102783e-02
-8.713109046220779419e-02
-1.604382842779159546e-01
9.119883924722671509e-02
4.427163600921630859e-01
3.563404455780982971e-02
3.979300260543823242e-01
3.775986284017562866e-02
-9.148215502500534058e-02
4.189000427722930908e-01
-2.361091226339340210e-01
-2.470821142196655273e-01
-2.700569629669189453e-01
8.051477372646331787e-02
2.388080060482025146e-01
-4.027324914932250977e-02
4.194224998354911804e-02
-9.533343464136123657e-02
2.291344851255416870e-01
-3.490519821643829346e-01
2.507599890232086182e-01
-1.525935083627700806e-01
1.806609034538269043e-01
-5.948129296302795410e-02
-2.119363248348236084e-01
-1.577146351337432861e-01
-9.917386621236801147e-02
-1.987008005380630493e-01
-1.117774378508329391e-02
1.227971464395523071e-01
-9.047923237085342407e-02
-2.313614040613174438e-01
8.257351070642471313e-02
3.631945326924324036e-02
1.568120867013931274e-01
1.622253507375717163e-01
6.346211582422256470e-02
2.013682872056961060e-01
-4.532350599765777588e-02
5.298814177513122559e-02
8.714758604764938354e-02
2.726597487926483154e-01
-6.733801215887069702e-02
1.040865480899810791e-01
-2.338324338197708130e-01
1.566436737775802612e-01
-7.169844955205917358e-02
1.430340707302093506e-01
3.044845759868621826e-01
-6.350135803222656250e-02
1.676816642284393311e-01
1.136428937315940857e-01
-2.105970121920108795e-02
-2.355861105024814606e-02
5.590520799160003662e-02
1.104827970266342163e-01
-1.073429174721240997e-02
1.437856703996658325e-01
3.178161382675170898e-01
-9.360733628273010254e-02
-4.646590352058410645e-02
3.058553300797939301e-02
-1.340013146400451660e-01
-8.397679030895233154e-02
2.632843255996704102e-01
1.158955618739128113e-01
7.170139998197555542e-02
-5.211874470114707947e-02
-1.296493411064147949e-01
1.765968650579452515e-01
-1.336227636784315109e-02
2.905208989977836609e-02
1.102061346173286438e-01
1.190608888864517212e-01
4.223087057471275330e-02
2.184750884771347046e-01
-8.724095672369003296e-02
2.400159388780593872e-01
-7.123054563999176025e-02
8.073415607213973999e-02
-1.701195724308490753e-02
2.110037058591842651e-01
-3.735795244574546814e-02
-1.257499903440475464e-01
-3.760938718914985657e-02
-6.075277552008628845e-02
-3.083291696384549141e-03
1.001066863536834717e-01
3.979735076427459717e-03
2.766328752040863037e-01
-2.718118019402027130e-02
1.425503790378570557e-01
4.192802906036376953e-01
1.520930379629135132e-01
3.294928669929504395e-01
3.635586500167846680e-01
-2.155341058969497681e-01
2.029651403427124023e-01
5.594797432422637939e-02
-1.310751587152481079e-01
-3.104442656040191650e-01
3.591863811016082764e-01
5.309954285621643066e-02
9.253433346748352051e-02
-8.596338331699371338e-02
1.032804176211357117e-01
-1.819554343819618225e-02
1.127749159932136536e-01
3.203038275241851807e-01
1.642875075340270996e-01
6.930527836084365845e-02
2.364123053848743439e-02
1.653960556723177433e-03
2.137306928634643555e-01
-8.531410992145538330e-02
-2.406874597072601318e-01
-1.970092952251434326e-01
3.362629413604736328e-01
2.038958668708801270e-01
2.742935717105865479e-01
-1.678399294614791870e-01
3.521302640438079834e-01
1.088295038789510727e-02
3.070963025093078613e-01
2.957081496715545654e-01
-1.073152851313352585e-02
4.773960262537002563e-02
-1.581076234579086304e-01
3.387825563549995422e-03
1.834608912467956543e-01
1.690197549760341644e-02
8.879566937685012817e-02
-1.684079132974147797e-02
1.278903931379318237e-01
2.956150770187377930e-01
3.232859307900071144e-03
-1.002747565507888794e-01
-3.037880063056945801e-01
1.156467050313949585e-01
-1.203288286924362183e-01
2.483560740947723389e-01
1.772968024015426636e-01
3.129852563142776489e-02
1.249140948057174683e-01
2.628097236156463623e-01
1.824626922607421875e-01
-1.501325070858001709e-01
-3.486083447933197021e-02
-2.940355539321899414e-01
1.212477609515190125e-01
2.152362167835235596e-01
3.195173144340515137e-01
-1.715650111436843872e-01
-1.497538983821868896e-01
9.865961223840713501e-02
4.077434167265892029e-02
1.546902805566787720e-01
5.874239373952150345e-03
-3.908662497997283936e-02
-1.256469264626502991e-02
-6.056225299835205078e-02
4.407717287540435791e-01
2.769463509321212769e-02
2.953950166702270508e-01
9.585273265838623047e-02
-2.516376785933971405e-02
8.864077925682067871e-02
8.582355082035064697e-02
-3.993333876132965088e-02
-2.228748351335525513e-01
1.703132390975952148e-01
-8.957441151142120361e-02
3.166851997375488281e-01
2.167938500642776489e-01
-3.079201094806194305e-02
1.642763800919055939e-02
2.424138635396957397e-01
-5.954417586326599121e-02
6.180217489600181580e-02
1.905857920646667480e-01
-1.289109438657760620e-01
6.043296679854393005e-02
-9.912423044443130493e-02
3.861978352069854736e-01
7.251557707786560059e-02
1.494009792804718018e-01
7.597277313470840454e-02
-6.358830258250236511e-03
1.766047626733779907e-01
-1.083629503846168518e-01
-8.394405245780944824e-02
-4.620918631553649902e-02
-5.446025729179382324e-02
2.290285825729370117e-01
9.732257574796676636e-02
-1.610970795154571533e-01
1.309156566858291626e-01
4.665396213531494141e-01
-2.954499423503875732e-01
8.903832174837589264e-03
1.898770481348037720e-01
2.323149442672729492e-01
1.726978272199630737e-01
1.023706886917352676e-02
1.971427947282791138e-01
6.417205184698104858e-02
1.215006783604621887e-01
1.539957374334335327e-01
2.092889845371246338e-01
1.448997408151626587e-01
2.661174535751342773e-01
3.436442017555236816e-01
2.559301257133483887e-02
6.216212362051010132e-02
-5.130545049905776978e-02
-5.180488526821136475e-02
1.977388262748718262e-01
6.297668069601058960e-02
1.369712948799133301e-01
-7.786171138286590576e-02
9.586608409881591797e-02
3.870183601975440979e-03
6.576944142580032349e-02
-1.419788319617509842e-02
8.474471420049667358e-02
2.701438032090663910e-02
1.366399675607681274e-01
7.630683481693267822e-02
1.665811836719512939e-01
