1.933308839797973633e-01
-3.969731926918029785e-02
-1.372897922992706299e-01
-5.411161854863166809e-02
-8.788017183542251587e-02
-1.155039519071578979e-01
-5.416464805603027344e-02
-1.452708691358566284e-01
-6.845928728580474854e-02
-1.211269348859786987e-01
-7.594297826290130615e-02
-1.426891535520553589e-01
1.029890999197959900e-01
-6.767609715461730957e-02
4.982326552271842957e-02
3.394546732306480408e-02
-1.793558523058891296e-02
-3.514378145337104797e-02
-1.442420929670333862e-01
-1.073281094431877136e-01
7.199038565158843994e-02
-6.304998695850372314e-02
2.551152184605598450e-02
-8.488626033067703247e-02
1.012265495955944061e-02
-1.047405302524566650e-01
-1.298896819353103638e-01
1.073985248804092407e-01
-3.830909356474876404e-02
-2.784343957901000977e-01
1.588194072246551514e-02
1.293735951185226440e-01
-2.877100557088851929e-02
-1.693455278873443604e-01
7.798051927238702774e-03
9.839687496423721313e-02
-1.907444745302200317e-02
1.622998900711536407e-02
-1.794395446777343750e-01
-8.483918011188507080e-02
-8.991608768701553345e-02
1.156591698527336121e-01
-5.712329223752021790e-02
5.027912184596061707e-02
-1.109601780772209167e-01
-9.724111855030059814e-02
8.329539000988006592e-02
-2.269813790917396545e-02
1.357404738664627075e-01
-1.045837625861167908e-02
6.225041579455137253e-03
1.067818235605955124e-02
-9.563922882080078125e-02
2.269143164157867432e-01
-1.317920684814453125e-01
7.023905962705612183e-02
-1.170682311058044434e-01
-2.069247364997863770e-01
-1.472796201705932617e-01
-1.686161160469055176e-01
8.379033952951431274e-02
-5.145753920078277588e-02
4.849472641944885254e-02
-5.153416842222213745e-02
2.204305231571197510e-01
-2.385231405496597290e-01
-1.716232299804687500e-02
-4.769914224743843079e-02
-1.615280471742153168e-02
-4.787917062640190125e-02
-1.507632285356521606e-01
8.104356378316879272e-02
-8.757627010345458984e-02
1.420643478631973267e-01
1.213193461298942566e-01
-1.347016543149948120e-01
-1.398673951625823975e-01
-4.490281268954277039e-02
1.516324132680892944e-01
-7.964859157800674438e-02
-4.543476272374391556e-03
1.212362870573997498e-01
-1.308055408298969269e-02
6.513179093599319458e-02
2.679812535643577576e-02
1.732530742883682251e-01
4.539332166314125061e-02
-1.733611710369586945e-02
-1.040908694267272949e-01
-5.363740399479866028e-02
9.574038535356521606e-02
-1.447721868753433228e-01
1.315849423408508301e-01
-1.866326108574867249e-02
9.239068627357482910e-02
5.503273010253906250e-02
-7.125177234411239624e-02
6.365145742893218994e-02
2.720038779079914093e-02
-4.999794811010360718e-02
1.638171672821044922e-01
-1.238677501678466797e-01
1.332050561904907227e-01
5.387632921338081360e-02
-2.622511982917785645e-02
9.479100257158279419e-02
2.367625236511230469e-01
9.640783071517944336e-02
8.361889421939849854e-02
-1.467969864606857300e-01
6.101777404546737671e-02
-8.458090573549270630e-02
-5.163527280092239380e-02
9.019806049764156342e-03
1.416824571788311005e-02
1.503634005784988403e-01
3.319378197193145752e-02
-1.113216876983642578e-01
-6.558758020401000977e-02
-1.567178219556808472e-02
4.321739822626113892e-02
4.590542521327733994e-03
1.703064292669296265e-01
-9.097159653902053833e-02
1.502209305763244629e-01
3.030170314013957977e-02
2.160640619695186615e-02
1.379841119050979614e-01
-8.262461982667446136e-03
6.981667131185531616e-02
-6.711714714765548706e-02
-5.255720764398574829e-02
-5.648482963442802429e-02
-3.000274067744612694e-03
2.599502168595790863e-02
-7.011304050683975220e-02
5.835427902638912201e-03
-8.509486913681030273e-02
1.699623316526412964e-01
2.704049460589885712e-02
-1.121297851204872131e-01
1.811387836933135986e-01
-1.848740279674530029e-01
1.040010377764701843e-01
4.481863975524902344e-02
1.687153875827789307e-01
4.164296016097068787e-02
2.823663130402565002e-02
-4.182206466794013977e-03
-1.373848766088485718e-01
1.498060375452041626e-01
5.432127043604850769e-02
-1.781214028596878052e-01
-8.515435270965099335e-03
-1.897960305213928223e-01
-1.664730310440063477e-01
1.017956957221031189e-01
2.043453417718410492e-02
-6.820361316204071045e-02
1.570013761520385742e-01
-2.951400168240070343e-02
-1.960654556751251221e-02
-1.009821444749832153e-01
-3.192163631319999695e-02
4.952155798673629761e-02
6.371989846229553223e-02
7.849842309951782227e-02
-1.340050846338272095e-01
3.711049258708953857e-02
-9.095169603824615479e-03
1.563768386840820312e-01
-1.882136464118957520e-01
-4.826431348919868469e-02
-7.815086841583251953e-02
2.129449322819709778e-02
-3.786463290452957153e-02
6.662230193614959717e-02
-8.282180875539779663e-02
-1.725498139858245850e-01
-7.925286144018173218e-02
3.765596821904182434e-02
-1.239908710122108459e-01
-1.588136106729507446e-01
6.863470189273357391e-03
3.894880786538124084e-02
1.062959134578704834e-01
6.463165581226348877e-02
-6.642626225948333740e-02
-1.832839846611022949e-02
8.810744434595108032e-02
1.282812654972076416e-01
5.190313979983329773e-02
1.449852138757705688e-01
3.398537263274192810e-02
9.845945239067077637e-02
-2.118181437253952026e-02
6.861412525177001953e-02
-5.373935028910636902e-02
8.257722854614257812e-02
-2.030458487570285797e-02
-2.837422676384449005e-02
-1.446797400712966919e-01
-1.519459336996078491e-01
-6.368440389633178711e-02
-3.672339394688606262e-02
-4.952346906065940857e-02
1.063865050673484802e-01
7.473140209913253784e-02
-1.464460045099258423e-01
-1.073957532644271851e-01
-1.001790985465049744e-01
-1.565267741680145264e-01
1.373102962970733643e-01
1.318558864295482635e-02
-5.003717541694641113e-02
-5.481941625475883484e-02
5.414104834198951721e-02
-1.376141309738159180e-01
-1.329907495528459549e-02
9.264550317311659455e-05
6.241053342819213867e-02
-3.376133739948272705e-02
-3.708098083734512329e-02
1.451426446437835693e-01
-1.006966978311538696e-01
-2.254274487495422363e-02
-1.289016306400299072e-01
-4.769973456859588623e-02
-7.728225737810134888e-02
-1.568840816617012024e-02
3.897690400481224060e-02
-8.539280295372009277e-02
9.051206707954406738e-02
-1.986719220876693726e-01
-1.434744298458099365e-01
-1.667374074459075928e-01
-8.568491786718368530e-02
8.479563146829605103e-02
6.100188568234443665e-02
-6.726878229528665543e-03
-7.809926755726337433e-03
-8.317782729864120483e-02
-6.355382502079010010e-02
9.103857725858688354e-02
1.045969501137733459e-01
-3.516842797398567200e-02
-9.372414648532867432e-02
-1.250416487455368042e-01
-7.536745816469192505e-02
9.436535090208053589e-02
-1.817772239446640015e-01
2.413625270128250122e-02
9.271872788667678833e-02
7.644519209861755371e-02
-1.242613494396209717e-01
-3.520192950963973999e-02
-7.027026265859603882e-02
-3.868733346462249756e-02
6.674854457378387451e-02
4.628527909517288208e-02
5.845876783132553101e-02
-3.689197078347206116e-02
8.081601560115814209e-02
1.109181717038154602e-01
1.492050588130950928e-01
-8.646317571401596069e-02
2.701933030039072037e-03
4.986372590065002441e-02
-2.814699709415435791e-02
-2.594076842069625854e-02
8.893291652202606201e-02
-1.658750921487808228e-01
-8.276684209704399109e-03
-7.031647861003875732e-02
-1.681280508637428284e-02
8.351807482540607452e-03
-2.815015614032745361e-02
4.592209681868553162e-02
3.552217781543731689e-02
1.123808771371841431e-01
1.001140996813774109e-01
-1.992397308349609375e-01
-4.050379991531372070e-02
3.394762799143791199e-02
4.141605272889137268e-02
-4.437794163823127747e-02
-6.201061978936195374e-02
2.315373532474040985e-02
-1.479123681783676147e-01
4.330896586179733276e-02
-1.467397660017013550e-01
4.223220795392990112e-02
3.634232282638549805e-02
-7.009432464838027954e-02
-3.650534898042678833e-03
8.476248383522033691e-02
-1.751201972365379333e-02
-8.359120786190032959e-02
2.041419297456741333e-01
8.831530809402465820e-03
-2.279276102781295776e-01
7.086864858865737915e-02
5.645874515175819397e-02
9.540337324142456055e-02
-2.766694501042366028e-02
9.129811823368072510e-02
-1.847211569547653198e-01
-1.494071334600448608e-01
3.294442594051361084e-02
1.947988122701644897e-01
-6.786755751818418503e-03
-1.159904301166534424e-01
-2.042470686137676239e-02
3.416446223855018616e-02
-1.770556569099426270e-01
2.235794253647327423e-02
2.836018055677413940e-02
-6.713405996561050415e-02
-3.491953760385513306e-02
-6.889694929122924805e-02
9.509058296680450439e-02
-1.409353315830230713e-01
-7.505618780851364136e-02
1.333677768707275391e-01
-7.015344500541687012e-02
-1.647196710109710693e-02
-1.290912926197052002e-01
1.160379964858293533e-02
6.297677755355834961e-02
1.060997471213340759e-01
-3.585707023739814758e-02
-1.099785938858985901e-01
-5.970441736280918121e-03
-1.386455725878477097e-02
4.986975342035293579e-02
7.466218620538711548e-02
5.210469942539930344e-03
1.347878277301788330e-01
-1.281129121780395508e-01
-3.398599848151206970e-02
-9.762949496507644653e-02
-1.076992601156234741e-01
-1.644262298941612244e-02
-2.116408571600914001e-02
-1.098511815071105957e-01
-4.713816195726394653e-02
1.024472117424011230e-01
-1.825896501541137695e-01
-1.695661246776580811e-01
-4.721223562955856323e-02
3.975664451718330383e-02
-1.477914899587631226e-01
5.250311270356178284e-02
1.419803407043218613e-02
1.683939807116985321e-02
-1.552745848894119263e-01
5.519033223390579224e-02
-6.959702819585800171e-02
3.214546665549278259e-02
-9.550741314888000488e-02
-5.669841915369033813e-02
2.688018418848514557e-02
-1.585728675127029419e-02
-1.117171570658683777e-01
1.115262955427169800e-01
7.033968716859817505e-02
-1.517057139426469803e-02
1.781944185495376587e-02
-1.156750693917274475e-01
1.769367903470993042e-01
-4.922984167933464050e-02
-4.266524314880371094e-02
-3.199310600757598877e-02
2.284455448389053345e-01
-2.101819962263107300e-01
8.602142333984375000e-02
-2.706428058445453644e-03
2.136066742241382599e-02
-6.470014899969100952e-02
-5.052757915109395981e-04
1.257822513580322266e-01
5.124181136488914490e-02
1.296691298484802246e-01
1.092072110623121262e-02
2.060739398002624512e-01
-7.460111379623413086e-02
-7.353581488132476807e-02
-5.623659119009971619e-02
-8.456738293170928955e-02
-2.427293732762336731e-02
-1.305025629699230194e-02
1.402901113033294678e-02
9.075754880905151367e-02
-8.166920393705368042e-02
-5.670639872550964355e-02
1.667159348726272583e-01
1.050563231110572815e-01
-2.461786381900310516e-02
5.050088837742805481e-02
-9.473367594182491302e-03
8.527015894651412964e-02
8.183644711971282959e-02
-3.119814582169055939e-02
1.093954369425773621e-01
8.897812664508819580e-02
-6.729374825954437256e-02
-2.536008693277835846e-02
-5.052770674228668213e-02
9.817291796207427979e-02
-3.105473006144165993e-03
3.502247855067253113e-02
8.422648161649703979e-02
1.254887282848358154e-01
1.902350224554538727e-02
-4.671369679272174835e-03
-1.989487856626510620e-01
1.979663036763668060e-02
3.399788960814476013e-02
-8.421266824007034302e-02
5.724884197115898132e-02
6.605715304613113403e-02
-9.241706132888793945e-02
-3.959476575255393982e-02
2.325521409511566162e-02
-3.613167256116867065e-02
-7.430473715066909790e-02
1.405104715377092361e-02
2.316293306648731232e-03
-6.665731221437454224e-02
-6.643166393041610718e-02
9.365262836217880249e-02
5.815893784165382385e-02
4.078220226801931858e-04
-3.630159795284271240e-02
-7.390379905700683594e-02
-1.101701334118843079e-01
6.375403702259063721e-02
-1.014393270015716553e-01
-1.053479537367820740e-01
-5.661647021770477295e-02
-6.404022872447967529e-02
-7.678395509719848633e-02
-1.048284117132425308e-02
-8.795176446437835693e-02
2.475568652153015137e-02
-4.781639575958251953e-02
-3.323448449373245239e-02
1.780050247907638550e-02
-2.000368982553482056e-01
2.162721157073974609e-01
-8.298765122890472412e-02
1.019250880926847458e-02
-1.406935155391693115e-01
-6.508155912160873413e-02
-4.162329062819480896e-02
-1.068750098347663879e-01
1.610386669635772705e-01
-4.661831259727478027e-02
2.280633710324764252e-02
8.977202326059341431e-02
-5.073893442749977112e-02
3.179838135838508606e-02
7.707812357693910599e-03
1.487455815076828003e-01
4.129407182335853577e-02
-7.331398129463195801e-02
-3.738697705557569861e-05
-6.238544825464487076e-03
-1.588662862777709961e-01
-1.492350250482559204e-01
9.697394445538520813e-03
-1.702996790409088135e-01
1.924912035465240479e-01
2.221553772687911987e-02
1.389695098623633385e-03
-3.006459474563598633e-01
-1.369247287511825562e-01
-5.922104045748710632e-02
-1.867292448878288269e-02
1.056057401001453400e-02
-1.845965981483459473e-01
9.008309803903102875e-03
7.662431150674819946e-02
5.267077684402465820e-02
-4.588125739246606827e-03
1.627821102738380432e-02
-1.233089938759803772e-01
-3.706912696361541748e-02
1.469522416591644287e-01
1.723159104585647583e-01
3.598676249384880066e-02
-1.065965648740530014e-02
-8.732943981885910034e-02
-9.826269745826721191e-02
5.679315328598022461e-02
3.445177525281906128e-02
-2.082046121358871460e-01
-1.189411208033561707e-01
-7.148303091526031494e-02
-4.151167720556259155e-02
-7.244010269641876221e-02
1.430093892849981785e-03
5.183880031108856201e-02
-6.168482452630996704e-02
-8.135761320590972900e-02
3.799904882907867432e-02
9.715701639652252197e-02
4.691466316580772400e-02
6.867408007383346558e-02
3.498001024127006531e-02
-2.818133123219013214e-02
1.449730619788169861e-02
-1.641365438699722290e-01
-6.680306047201156616e-02
-8.789351582527160645e-02
-1.983972042798995972e-01
-4.353346675634384155e-02
-8.770693838596343994e-02
7.995271682739257812e-02
-1.127522438764572144e-02
-1.362663228064775467e-03
8.165259659290313721e-02
-6.518491078168153763e-03
-1.506474763154983521e-01
-3.568539395928382874e-02
9.711810201406478882e-02
-6.860839575529098511e-02
9.430436044931411743e-02
-3.806164488196372986e-02
1.513911187648773193e-01
-6.165811046957969666e-02
5.600069463253021240e-02
3.806219995021820068e-02
-1.108400989323854446e-02
-7.596296072006225586e-02
-6.426742672920227051e-02
-9.548760205507278442e-02
-1.529873311519622803e-01
-8.103219419717788696e-02
-6.312659382820129395e-02
-1.953329145908355713e-02
-1.439528614282608032e-01
-1.510318964719772339e-01
-2.861345373094081879e-02
6.957895122468471527e-03
-1.473326683044433594e-01
-1.670459359884262085e-01
-5.426567047834396362e-02
-1.020018383860588074e-01
1.757516339421272278e-02
9.162484109401702881e-02
-1.805242709815502167e-02
4.203987866640090942e-02
1.600443944334983826e-02
-1.020500212907791138e-01
5.336377024650573730e-02
-5.302529782056808472e-02
7.216017693281173706e-02
4.971156641840934753e-02
-9.616586565971374512e-02
-1.672179698944091797e-01
-2.060981690883636475e-01
-2.657355926930904388e-02
1.268828809261322021e-01
-9.676814079284667969e-02
-9.834065288305282593e-02
-3.203110396862030029e-02
-1.134970318526029587e-02
1.367339864373207092e-03
6.898512691259384155e-02
3.046441264450550079e-02
-7.685389369726181030e-02
-1.570474803447723389e-01
5.673290044069290161e-02
-6.797644495964050293e-02
4.825036227703094482e-02
1.480796486139297485e-01
5.135251209139823914e-02
-1.330551356077194214e-01
-4.542931169271469116e-02
-1.051260903477668762e-01
-2.216216921806335449e-02
1.629910618066787720e-02
6.136015802621841431e-02
-4.849676042795181274e-02
-3.140150569379329681e-03
1.597627624869346619e-02
-1.266338378190994263e-01
-8.945289254188537598e-02
-6.506855785846710205e-02
-3.869380056858062744e-02
-9.855182468891143799e-02
3.813416138291358948e-02
-3.892685845494270325e-02
9.779670275747776031e-03
-1.662193834781646729e-01
4.031204059720039368e-02
-8.257979154586791992e-02
4.943890869617462158e-02
1.166828814893960953e-02
-1.820293813943862915e-02
-3.911196067929267883e-02
-1.152851358056068420e-01
-4.023255035281181335e-02
5.681888759136199951e-02
-1.321550905704498291e-01
1.351525075733661652e-02
3.891378268599510193e-02
-8.473069965839385986e-02
-6.083907186985015869e-02
-4.708962142467498779e-02
-1.027002185583114624e-01
-8.739136159420013428e-02
-6.816883571445941925e-03
1.063852291554212570e-02
-5.792950838804244995e-02
-1.222181990742683411e-01
3.068105690181255341e-02
-9.163112938404083252e-02
-4.888181388378143311e-02
-9.373448044061660767e-02
-1.553587317466735840e-01
7.852938724681735039e-04
-1.269559282809495926e-02
3.250051662325859070e-02
-2.514829102437943220e-04
-3.124904073774814606e-02
5.023787543177604675e-02
3.581471741199493408e-02
8.358476310968399048e-02
-1.457101553678512573e-01
-5.515061691403388977e-02
2.036029100418090820e-02
4.037778079509735107e-02
-5.581929162144660950e-02
-1.392071843147277832e-01
-2.227830141782760620e-02
-1.537263691425323486e-01
-9.850329905748367310e-02
-4.941422492265701294e-03
-3.230978921055793762e-02
1.943129929713904858e-03
2.911440469324588776e-02
1.302505433559417725e-01
-2.781265228986740112e-02
-4.546646773815155029e-02
1.264668852090835571e-01
9.883724898099899292e-02
-5.783233419060707092e-02
-3.089413791894912720e-02
1.586269773542881012e-02
-1.443203538656234741e-02
-2.936445921659469604e-02
-2.407648600637912750e-02
-5.248206853866577148e-02
-4.182233661413192749e-02
6.388182938098907471e-02
-8.279341459274291992e-02
4.504001140594482422e-02
-2.398941479623317719e-02
-8.285804837942123413e-02
-3.021836467087268829e-02
1.734401099383831024e-02
9.924017637968063354e-02
-1.555045414716005325e-02
8.961199223995208740e-02
-1.068226099014282227e-01
-2.079514861106872559e-01
-7.651468366384506226e-02
2.993119880557060242e-02
-1.158525571227073669e-01
1.512284129858016968e-01
3.227520361542701721e-02
3.888900391757488251e-03
-1.424802094697952271e-01
5.174237862229347229e-02
4.824939742684364319e-02
1.043627485632896423e-01
-5.637948215007781982e-02
4.586074873805046082e-02
-7.255227118730545044e-02
-1.218275632709264755e-02
3.294498473405838013e-02
-3.422219678759574890e-02
-8.422397077083587646e-02
-1.369590610265731812e-01
-1.106861755251884460e-01
1.489971131086349487e-01
1.374678872525691986e-02
-5.638803914189338684e-02
-8.332406729459762573e-02
-1.285407096147537231e-01
-1.293932199478149414e-01
1.486566513776779175e-01
-9.924484044313430786e-02
-1.668557077646255493e-01
-6.078017875552177429e-02
-3.542819991707801819e-02
-1.171709522604942322e-01
5.356837809085845947e-02
3.020116873085498810e-02
2.065065503120422363e-02
-7.172625511884689331e-02
1.447729533538222313e-03
-1.707719080150127411e-02
4.967376589775085449e-02
-1.524790078401565552e-01
-1.059372946619987488e-01
-2.815206907689571381e-02
-1.988806277513504028e-01
-4.576753708533942699e-04
-8.109772950410842896e-02
-8.111895620822906494e-02
-3.655744716525077820e-02
-6.156719848513603210e-02
4.043912142515182495e-02
-1.002193614840507507e-01
1.522317379713058472e-01
-4.898113384842872620e-02
-1.370477825403213501e-01
9.070978313684463501e-02
1.131131965667009354e-02
-6.407511979341506958e-02
-1.546867042779922485e-01
1.105794534087181091e-01
-9.189224243164062500e-02
-5.149419605731964111e-02
7.487197965383529663e-02
1.854501962661743164e-01
-1.945341937243938446e-02
8.269321173429489136e-02
2.479787729680538177e-02
-6.684007495641708374e-02
-9.581393748521804810e-02
-5.195445194840431213e-02
-1.711552590131759644e-01
-8.738549798727035522e-02
2.490011975169181824e-02
2.514803595840930939e-02
2.557635679841041565e-02
1.130043417215347290e-01
-1.764400899410247803e-01
-1.395881175994873047e-01
-1.032210290431976318e-01
-7.358910143375396729e-02
1.640835031867027283e-02
-6.103065796196460724e-03
6.502677500247955322e-02
8.054676651954650879e-02
-1.497324854135513306e-01
2.240202762186527252e-02
-3.448310494422912598e-02
-8.692149817943572998e-02
-1.007138937711715698e-01
3.290624544024467468e-02
1.809769496321678162e-02
-9.299129992723464966e-02
3.363511338829994202e-02
-5.315493419766426086e-02
-1.263227611780166626e-01
-1.093333885073661804e-01
-6.345289200544357300e-02
8.295458555221557617e-02
-1.164009124040603638e-01
4.938150942325592041e-02
1.519075781106948853e-02
-4.294376820325851440e-03
1.242527738213539124e-01
6.132577732205390930e-02
-2.103822082281112671e-01
-3.413656726479530334e-02
-4.088951274752616882e-02
-1.042651478201150894e-02
-1.080629080533981323e-01
-5.897507071495056152e-02
-6.221408396959304810e-02
3.113232366740703583e-02
2.981937117874622345e-02
-1.287467628717422485e-01
1.061907596886157990e-02
4.258669540286064148e-02
1.313156187534332275e-01
8.159945905208587646e-02
-8.652240037918090820e-02
-1.066538095474243164e-01
1.771082580089569092e-01
-1.134862075559794903e-03
-4.137512296438217163e-02
-4.379171505570411682e-02
1.263331472873687744e-01
-5.332320183515548706e-02
6.237595155835151672e-02
-1.236071139574050903e-01
1.507511734962463379e-01
-1.412991881370544434e-01
-2.311559468507766724e-01
6.174902617931365967e-02
3.430644422769546509e-02
9.294164180755615234e-02
-6.324684619903564453e-02
8.678083866834640503e-02
-9.926208108663558960e-02
-8.320644497871398926e-02
-9.757339954376220703e-02
-7.002283632755279541e-02
-6.263095885515213013e-02
-1.224607750773429871e-01
6.672152131795883179e-02
1.274759024381637573e-01
-1.775036193430423737e-02
-1.171438246965408325e-01
-2.445782907307147980e-02
2.294235825538635254e-01
-1.277865190058946609e-02
-4.271009936928749084e-02
-1.496030837297439575e-01
-1.075616329908370972e-01
-1.029555499553680420e-01
-2.178010158240795135e-02
-6.538543850183486938e-02
-1.105760782957077026e-01
-1.517746895551681519e-01
-1.749740839004516602e-01
-1.070961356163024902e-01
1.222834289073944092e-01
9.985338896512985229e-02
-2.487093657255172729e-01
4.173979908227920532e-02
-9.627518057823181152e-02
-9.874477237462997437e-02
-1.417536884546279907e-01
-1.485443562269210815e-01
-2.730536460876464844e-02
1.165063977241516113e-01
-1.207167655229568481e-01
7.095075398683547974e-02
-1.295263618230819702e-01
-5.451915785670280457e-02
-1.667111366987228394e-02
6.993736326694488525e-02
-3.459423407912254333e-02
-5.143331363797187805e-02
-1.150364801287651062e-02
-5.969958007335662842e-02
-4.271461442112922668e-02
-1.164554711431264877e-02
-3.500714525580406189e-02
-7.719758898019790649e-02
-3.819825127720832825e-02
6.600096821784973145e-02
-7.416286319494247437e-02
-1.436031889170408249e-02
-1.576321125030517578e-01
1.589644402265548706e-01
2.557338029146194458e-02
1.083985790610313416e-01
7.500400766730308533e-03
-8.267507702112197876e-02
6.614699214696884155e-02
-4.587648808956146240e-02
5.826006829738616943e-02
7.646979391574859619e-02
-1.477279365062713623e-01
7.687392085790634155e-02
-6.971014291048049927e-02
-1.277191042900085449e-01
2.435186877846717834e-03
-2.088444828987121582e-01
2.941821329295635223e-02
-6.026906147599220276e-02
-1.539322733879089355e-01
-6.799405068159103394e-02
1.170322392135858536e-02
8.028642088174819946e-02
-7.135951425880193710e-03
-3.170514851808547974e-02
-8.640436083078384399e-02
-3.096730448305606842e-02
4.052250087261199951e-02
2.359187602996826172e-02
-1.542180329561233521e-01
-1.198357939720153809e-01
-5.399139598011970520e-02
-4.314582794904708862e-02
-1.491801142692565918e-01
-1.173933297395706177e-01
-4.796632006764411926e-02
-6.463843584060668945e-02
-1.218322515487670898e-01
9.946311265230178833e-02
-1.254083663225173950e-01
-5.351371318101882935e-02
9.341169893741607666e-02
1.276481747627258301e-01
-9.394557774066925049e-02
-5.035071074962615967e-02
-1.390160620212554932e-02
9.637882560491561890e-02
1.311262696981430054e-01
-1.158729568123817444e-01
2.177240513265132904e-02
8.405371010303497314e-02
3.428154438734054565e-02
4.904028773307800293e-02
-4.385557025671005249e-02
5.927842482924461365e-02
-1.241043880581855774e-01
-5.140411108732223511e-02
-7.035640627145767212e-02
1.586678624153137207e-01
1.613665185868740082e-02
-3.247750923037528992e-02
1.492224447429180145e-02
-4.206584766507148743e-02
6.038232147693634033e-02
-3.293897211551666260e-02
9.312764555215835571e-02
-1.456859409809112549e-01
4.594577476382255554e-02
-6.599624454975128174e-02
6.607857346534729004e-02
-9.505458176136016846e-02
4.039775580167770386e-02
-1.719284653663635254e-01
-4.569431021809577942e-02
-1.169640719890594482e-01
-1.147627551108598709e-02
2.701106108725070953e-02
-1.448961813002824783e-02
6.199284270405769348e-02
1.125470250844955444e-01
-1.831998117268085480e-02
-8.632861822843551636e-02
-2.980495058000087738e-02
8.767684921622276306e-03
-8.341936767101287842e-02
-7.517773658037185669e-02
-7.769640535116195679e-03
5.688333840225823224e-05
-1.971844770014286041e-02
-7.883804291486740112e-02
-4.124175384640693665e-02
-1.336153298616409302e-01
-6.783288717269897461e-02
-5.181787908077239990e-02
-7.406131178140640259e-02
-2.590714395046234131e-02
7.618149369955062866e-02
-4.448396340012550354e-02
4.795976728200912476e-02
-4.180840402841567993e-02
1.640253812074661255e-01
-5.002200230956077576e-02
2.149291336536407471e-02
-7.664199918508529663e-02
1.263276189565658569e-01
1.371442228555679321e-01
7.775293290615081787e-02
-1.089566666632890701e-02
1.411961913108825684e-01
1.700597256422042847e-02
2.096196077764034271e-02
-1.539440006017684937e-01
1.127840280532836914e-01
-5.714945867657661438e-02
-4.930247366428375244e-02
-8.931670337915420532e-02
4.323964938521385193e-02
2.397289127111434937e-02
-5.076040327548980713e-02
1.313355416059494019e-01
-2.060667872428894043e-01
1.441339999437332153e-01
-2.398160658776760101e-02
4.961909726262092590e-02
-5.782318115234375000e-02
-7.788760215044021606e-02
1.051749363541603088e-01
-1.538464725017547607e-01
9.017347544431686401e-02
-5.515581369400024414e-02
-1.040038093924522400e-01
-4.315692558884620667e-02
-5.971083417534828186e-02
-9.003212302923202515e-02
2.133758738636970520e-02
1.367931626737117767e-02
4.019848257303237915e-02
-9.162275237031280994e-04
-3.981470130383968353e-03
1.741006970405578613e-03
8.669779449701309204e-02
7.441586256027221680e-02
-2.054335549473762512e-02
1.439232565462589264e-02
-7.469958811998367310e-02
4.391110502183437347e-03
-3.879536641761660576e-03
3.126314282417297363e-02
2.100009769201278687e-01
-5.972521379590034485e-02
-1.094822883605957031e-01
4.308715462684631348e-02
7.326906919479370117e-02
-7.174348831176757812e-02
-2.954532206058502197e-02
-1.166798025369644165e-01
2.642484568059444427e-02
-1.261336058378219604e-01
9.021952748298645020e-03
-1.651407778263092041e-02
-2.273675240576267242e-02
1.755034551024436951e-02
2.917148470878601074e-01
-6.715918332338333130e-02
-1.020298078656196594e-01
1.009946987032890320e-01
-8.814617991447448730e-02
-5.931679904460906982e-02
-5.970139801502227783e-02
3.810663893818855286e-02
-7.332628965377807617e-02
1.242075636982917786e-01
6.884882599115371704e-02
-1.148431375622749329e-01
-4.134682938456535339e-02
-6.122766807675361633e-02
6.838168203830718994e-02
-1.035963278263807297e-02
8.124370872974395752e-02
7.754813879728317261e-02
1.525643914937973022e-01
1.062609255313873291e-01
-2.297357283532619476e-02
-4.365032538771629333e-02
-5.615155771374702454e-02
4.304059967398643494e-02
4.570694640278816223e-02
1.029393896460533142e-01
3.954228013753890991e-02
-6.189465522766113281e-02
1.177495419979095459e-01
-3.524271771311759949e-02
4.065763205289840698e-02
1.656505614519119263e-01
-5.085003748536109924e-02
-6.530395895242691040e-02
-8.286510407924652100e-02
-6.599297374486923218e-02
-8.221887052059173584e-02
1.085806190967559814e-01
-2.239360101521015167e-02
-9.425276517868041992e-02
-1.688046902418136597e-01
6.567697227001190186e-02
3.025273978710174561e-02
-9.484001994132995605e-02
1.797032542526721954e-02
-6.031174585223197937e-02
1.341404765844345093e-01
-1.265658885240554810e-01
-1.098954528570175171e-01
-6.366218626499176025e-02
1.148209720849990845e-02
-5.104775074869394302e-03
6.258916109800338745e-02
-1.611626334488391876e-02
-5.100388452410697937e-02
5.801716819405555725e-02
-9.498332440853118896e-02
-1.795385330915451050e-01
-4.457174241542816162e-02
-7.748138887109234929e-05
2.795584499835968018e-02
-3.855523094534873962e-02
2.287051640450954437e-02
-1.124565210193395615e-02
-9.622205048799514771e-02
2.024552784860134125e-02
-9.099805355072021484e-02
-8.620032109320163727e-03
-3.099886886775493622e-02
6.302190944552421570e-03
1.399234980344772339e-01
-2.633197605609893799e-02
-4.792318120598793030e-02
-9.943655878305435181e-02
-3.641412034630775452e-02
5.363022908568382263e-02
9.052441269159317017e-02
-1.512867864221334457e-02
-7.634746283292770386e-02
8.855110965669155121e-03
-2.960223145782947540e-02
5.984880775213241577e-02
4.301494732499122620e-02
-3.121145814657211304e-02
1.029215455055236816e-01
-4.567762091755867004e-02
-2.555454149842262268e-02
3.250147029757499695e-02
-7.573982328176498413e-02
9.700142592191696167e-02
-4.423314239829778671e-03
-4.570369422435760498e-02
-1.823051869869232178e-01
-1.988435350358486176e-02
8.554387837648391724e-02
7.429938018321990967e-02
-2.088919468224048615e-02
-1.132586598396301270e-01
-4.184031859040260315e-02
9.969157725572586060e-02
-1.845289021730422974e-01
-5.830091983079910278e-02
-5.357471480965614319e-02
2.337986975908279419e-02
8.243716508150100708e-02
-4.842429608106613159e-02
-7.331033051013946533e-02
3.707749396562576294e-02
5.045448616147041321e-02
4.557767137885093689e-02
3.323305025696754456e-02
1.093713045120239258e-01
-1.859331876039505005e-01
-1.486155986785888672e-01
1.002784725278615952e-02
-1.064148619771003723e-01
1.560796983540058136e-02
-9.514769539237022400e-03
-2.006886154413223267e-02
-4.844360426068305969e-02
4.106344655156135559e-02
-1.238021068274974823e-02
-5.129627510905265808e-02
-1.027529165148735046e-01
-4.582121223211288452e-02
9.296268224716186523e-02
-7.849127799272537231e-02
-5.051554366946220398e-02
-4.409079905599355698e-03
4.681521654129028320e-02
2.689914964139461517e-02
-7.941267639398574829e-02
1.065232828259468079e-01
1.632078886032104492e-01
7.819765806198120117e-02
2.056201547384262085e-02
1.574899256229400635e-01
1.866597533226013184e-01
-7.280842214822769165e-02
-6.458557397127151489e-02
-2.892259322106838226e-02
6.462999433279037476e-02
-1.369304955005645752e-01
-1.441711001098155975e-02
-7.210409641265869141e-02
-1.603343710303306580e-02
8.962455205619335175e-03
-6.596815586090087891e-02
-4.590766876935958862e-02
1.020162366330623627e-02
-7.603782415390014648e-02
9.363016486167907715e-02
-9.115513414144515991e-03
6.160183809697628021e-03
-1.445528566837310791e-01
1.930757239460945129e-02
-1.324146613478660583e-02
3.886874765157699585e-02
5.181802064180374146e-02
5.944356322288513184e-03
-1.336375176906585693e-01
7.743304222822189331e-02
1.603848114609718323e-02
-2.227945812046527863e-02
-1.185971405357122421e-02
1.974215731024742126e-02
-2.128789722919464111e-01
-6.055140867829322815e-02
-3.097528591752052307e-02
-5.157777294516563416e-02
-9.227447211742401123e-02
1.278566848486661911e-02
-1.037954315543174744e-01
1.411894615739583969e-02
-1.412753164768218994e-01
-4.746820405125617981e-02
-4.586610570549964905e-02
1.299486309289932251e-01
3.779610991477966309e-02
4.671315103769302368e-02
-5.311142653226852417e-03
7.321684807538986206e-02
-5.760349333286285400e-02
-1.410593837499618530e-01
-1.412344537675380707e-02
7.545291632413864136e-02
1.082009077072143555e-01
6.622398644685745239e-02
6.802499294281005859e-02
-9.432400017976760864e-02
-1.781330560334026814e-03
-9.282255172729492188e-02
3.336644172668457031e-02
-7.663179188966751099e-02
1.456356346607208252e-01
-1.654523313045501709e-01
-1.024192571640014648e-02
-5.301607400178909302e-02
-6.912957876920700073e-02
9.518175572156906128e-02
-9.520388394594192505e-02
-9.259977377951145172e-03
9.549864381551742554e-02
-1.830981224775314331e-01
2.875320240855216980e-02
-1.044401749968528748e-01
-1.273123268038034439e-02
-6.252861768007278442e-02
-2.149910852313041687e-02
2.465809509158134460e-02
-2.658361569046974182e-02
-1.125476732850074768e-01
-9.058812283910810947e-04
-1.053020060062408447e-01
-8.363740146160125732e-02
-1.427915394306182861e-01
-7.448014616966247559e-02
-3.117996267974376678e-02
-5.055068992078304291e-03
3.465408459305763245e-02
-1.502623260021209717e-01
-1.709550805389881134e-02
-1.019141264259815216e-02
-3.879062831401824951e-02
-5.386615917086601257e-02
-1.759610325098037720e-01
1.510521583259105682e-02
-1.760251969099044800e-01
-1.369042694568634033e-01
9.115414321422576904e-02
-8.638387918472290039e-02
-2.963500283658504486e-02
-1.581669002771377563e-01
1.281859725713729858e-01
5.069655179977416992e-02
-6.714101880788803101e-02
3.506923839449882507e-02
1.937231570482254028e-01
9.112870693206787109e-02
-1.556735187768936157e-01
-1.589157432317733765e-01
1.208413243293762207e-01
2.383475378155708313e-02
3.618218377232551575e-02
-5.070085823535919189e-02
1.062060967087745667e-01
-2.617589011788368225e-02
-1.458700839430093765e-02
1.035223156213760376e-01
3.136275708675384521e-02
-6.667645275592803955e-02
-4.589153919368982315e-03
-6.709232926368713379e-02
1.120154280215501785e-03
-1.801663488149642944e-01
-2.484522573649883270e-02
1.971259713172912598e-01
-1.960706114768981934e-01
1.158431917428970337e-01
-8.485547453165054321e-02
3.805650025606155396e-02
5.085520446300506592e-02
-2.556424215435981750e-02
-1.897579282522201538e-01
-6.722467392683029175e-02
-1.795342713594436646e-01
-3.287012688815593719e-03
1.611737720668315887e-02
7.007635384798049927e-02
3.973816335201263428e-02
9.395058453083038330e-02
-5.923747085034847260e-03
-1.258155913092195988e-03
8.824352174997329712e-02
1.927055045962333679e-02
-4.396852850914001465e-02
5.875408276915550232e-02
1.786816567182540894e-01
-1.182281672954559326e-01
5.057141557335853577e-02
1.341844499111175537e-01
-5.860008299350738525e-02
-2.687709033489227295e-02
-3.102428279817104340e-02
1.703744232654571533e-01
-1.372178941965103149e-01
-1.166879665106534958e-03
-1.204115618020296097e-02
-4.099970310926437378e-02
-1.841719299554824829e-01
1.799941249191761017e-02
2.452529780566692352e-02
4.098104685544967651e-02
-4.404707998037338257e-02
-5.043585784733295441e-03
5.972473323345184326e-02
-1.478106081485748291e-01
-1.034167632460594177e-01
-3.204468265175819397e-02
-2.792773023247718811e-02
3.498143702745437622e-02
-5.613252054899930954e-03
-1.584798246622085571e-01
5.524567142128944397e-02
-2.847976051270961761e-02
2.018188685178756714e-02
2.126999013125896454e-02
1.452313363552093506e-01
-1.319423764944076538e-01
-1.400559116154909134e-02
-1.097960099577903748e-01
-5.044283811002969742e-03
9.926021844148635864e-02
-1.628054864704608917e-02
-6.867830455303192139e-02
4.378134757280349731e-02
-2.845634147524833679e-02
3.968429565429687500e-02
-3.559738770127296448e-02
-4.437611252069473267e-02
-1.998999388888478279e-03
3.622630238533020020e-02
-1.010722517967224121e-01
6.087231263518333435e-02
-5.551642552018165588e-02
9.449466131627559662e-03
-1.142706423997879028e-01
8.303020894527435303e-02
-1.098462566733360291e-01
5.271471291780471802e-02
-1.112877726554870605e-01
-6.309077143669128418e-02
1.066593173891305923e-02
-9.996742010116577148e-02
5.920420959591865540e-02
1.434682961553335190e-02
-9.319220483303070068e-02
-4.442878440022468567e-02
-5.006999522447586060e-02
4.208530113101005554e-02
-8.407684415578842163e-02
9.173185378313064575e-02
-1.548546403646469116e-01
7.403854280710220337e-02
-1.308177113533020020e-01
-3.936977311968803406e-02
4.058828577399253845e-02
-2.880552892747800797e-05
8.913542330265045166e-02
6.583750247955322266e-02
-9.686778485774993896e-02
-3.531755879521369934e-02
-3.785812109708786011e-02
-1.518072634935379028e-01
-1.020964533090591431e-01
-6.161744520068168640e-02
1.275005098432302475e-02
-1.594334654510021210e-02
-1.030226424336433411e-01
-1.199955195188522339e-01
-5.295797437429428101e-02
2.924199216067790985e-02
-5.628300830721855164e-02
-1.161440163850784302e-01
-5.261007323861122131e-02
2.370990067720413208e-02
6.274236738681793213e-02
-2.699835784733295441e-02
-7.743633538484573364e-02
2.059116773307323456e-02
5.281871557235717773e-02
-4.206545650959014893e-02
9.833430498838424683e-02
-3.351732343435287476e-02
1.605221629142761230e-02
-6.366831064224243164e-02
-1.917167939245700836e-02
-1.088611483573913574e-01
-3.136792778968811035e-02
1.576508022844791412e-02
-9.021029621362686157e-02
-3.185023739933967590e-02
-1.001787558197975159e-01
-6.924989167600870132e-03
1.580021530389785767e-01
1.064829602837562561e-01
-1.924607306718826294e-01
-1.187119707465171814e-01
-7.494615018367767334e-02
6.453356891870498657e-02
5.746839568018913269e-02
-1.469524949789047241e-02
-3.164880350232124329e-02
-6.126030161976814270e-02
-1.250726431608200073e-01
5.711924657225608826e-02
8.560314774513244629e-02
-5.461796373128890991e-02
-4.506348073482513428e-02
8.709292113780975342e-02
1.568891853094100952e-02
1.832896769046783447e-01
9.785994142293930054e-02
-8.752304315567016602e-02
1.016237437725067139e-01
4.770807921886444092e-02
-8.656471222639083862e-02
-9.886796586215496063e-03
3.056387417018413544e-02
-7.658363133668899536e-02
2.368483506143093109e-02
6.451276689767837524e-02
1.002205610275268555e-01
-9.302409738302230835e-02
-7.184493541717529297e-02
-4.538614675402641296e-02
-7.575117982923984528e-03
-4.832889139652252197e-02
2.945553325116634369e-02
-1.488880664110183716e-01
-2.628624439239501953e-02
1.159000545740127563e-01
4.965707659721374512e-03
-3.150654584169387817e-02
-1.665000021457672119e-01
1.206484623253345490e-02
6.860584765672683716e-02
-1.066694855690002441e-01
-7.614754140377044678e-02
-9.283575415611267090e-02
1.037964150309562683e-01
-1.086324974894523621e-01
1.041628420352935791e-01
-8.121492713689804077e-02
-1.074024736881256104e-01
-1.768874228000640869e-01
1.990315271541476250e-03
1.396715492010116577e-01
1.106688845902681351e-02
-1.043377518653869629e-01
1.121109444648027420e-02
-6.805153936147689819e-02
-1.837081760168075562e-01
-1.757865846157073975e-01
1.762752234935760498e-02
2.570289559662342072e-02
1.151507943868637085e-01
2.594134956598281860e-02
1.533897668123245239e-01
-9.227891266345977783e-02
-6.017271801829338074e-02
-9.991138428449630737e-02
-2.552717179059982300e-02
7.591444998979568481e-02
-3.137406334280967712e-02
8.601943962275981903e-03
-5.563862621784210205e-02
-1.981095224618911743e-02
1.514824852347373962e-02
-2.875128202140331268e-02
-1.042374297976493835e-01
5.191499367356300354e-02
-6.439149379730224609e-02
1.127236783504486084e-01
1.966727375984191895e-01
9.627620875835418701e-02
1.963553018867969513e-02
-5.842356383800506592e-02
-1.145246773958206177e-01
1.703326404094696045e-01
-9.193740040063858032e-02
5.220082402229309082e-02
-1.243706271052360535e-01
1.553629487752914429e-01
7.245770096778869629e-02
-1.118715703487396240e-01
3.218480944633483887e-02
-2.135414630174636841e-02
-9.556084871292114258e-03
4.363908618688583374e-02
1.239677891135215759e-01
1.048519164323806763e-01
8.490658551454544067e-02
-3.020718134939670563e-02
-1.158410161733627319e-01
8.505591750144958496e-02
-1.463301777839660645e-01
-1.122547313570976257e-01
2.212975621223449707e-01
1.057010143995285034e-01
-7.372811669483780861e-04
-7.554683834314346313e-02
1.696852147579193115e-01
-6.517126411199569702e-02
-5.444455146789550781e-02
-4.309384152293205261e-02
9.768877923488616943e-02
4.402842838317155838e-03
-1.806215196847915649e-01
2.558232471346855164e-02
8.804059028625488281e-02
1.052377521991729736e-01
-1.114509403705596924e-01
-7.490444183349609375e-02
8.895687758922576904e-03
6.678201258182525635e-02
8.072397112846374512e-02
-5.339822173118591309e-02
-4.175209626555442810e-02
-1.349625643342733383e-02
-8.994763344526290894e-02
-4.091177135705947876e-02
-7.443787902593612671e-02
1.306895613670349121e-01
5.979411676526069641e-02
-7.748287171125411987e-02
7.206088304519653320e-02
6.899851560592651367e-02
5.446371436119079590e-02
-6.449206918478012085e-02
-1.316215991973876953e-01
-6.844443827867507935e-02
-9.586368501186370850e-02
-2.589758718386292458e-03
-1.724260151386260986e-01
5.041909590363502502e-02
6.223640218377113342e-02
5.414345115423202515e-02
4.704946652054786682e-02
-4.870500788092613220e-02
-1.180140078067779541e-01
5.868923664093017578e-02
-1.571439057588577271e-01
-7.201556116342544556e-02
-1.110586225986480713e-01
-7.835894078016281128e-02
1.168307214975357056e-01
9.676674008369445801e-02
-2.401593886315822601e-02
1.153879091143608093e-01
6.764034181833267212e-02
-3.006299957633018494e-02
5.517093837261199951e-02
-5.651724711060523987e-02
-5.575189739465713501e-02
7.897521555423736572e-02
7.785188965499401093e-03
-1.087668538093566895e-01
-1.542435884475708008e-01
-4.031708091497421265e-02
-4.395426809787750244e-02
-8.484880439937114716e-03
-1.241395995020866394e-01
-6.665096431970596313e-02
1.157506406307220459e-01
-1.417597979307174683e-01
1.018921844661235809e-02
-2.246227674186229706e-02
-8.680486679077148438e-02
-2.687612175941467285e-02
6.014590710401535034e-02
6.668637972325086594e-03
4.376745596528053284e-02
-9.833705425262451172e-02
7.368694245815277100e-02
1.232352294027805328e-02
1.415740847587585449e-01
6.913592666387557983e-02
6.928658485412597656e-02
7.222600281238555908e-02
-6.235064938664436340e-02
7.827711850404739380e-02
-1.110325381159782410e-01
1.250098347663879395e-01
-3.411819040775299072e-02
3.780825063586235046e-02
6.751367449760437012e-02
4.422535002231597900e-02
-3.300664573907852173e-02
-1.501044631004333496e-01
-2.825034409761428833e-02
-1.317524313926696777e-01
1.692553982138633728e-02
-1.592121422290802002e-01
-2.118548750877380371e-02
-1.215996369719505310e-01
1.429842710494995117e-01
5.411773547530174255e-02
-1.015627756714820862e-01
-8.758516609668731689e-02
-9.193954616785049438e-02
-1.482712626457214355e-01
-2.090397663414478302e-02
1.325292438268661499e-01
-4.002606123685836792e-02
9.169999510049819946e-02
-3.706371411681175232e-02
2.353413775563240051e-02
1.193988770246505737e-01
-1.111961305141448975e-01
9.424850344657897949e-02
-2.871499769389629364e-02
5.502554029226303101e-02
-5.486715212464332581e-02
2.483334951102733612e-02
-9.516116231679916382e-02
5.931248888373374939e-02
7.833741605281829834e-02
-3.091863542795181274e-02
5.546617880463600159e-02
4.062306508421897888e-02
1.952849328517913818e-02
-6.819008849561214447e-04
-7.941507548093795776e-02
-8.034677058458328247e-02
-1.413469854742288589e-02
1.615607063286006451e-03
1.119785532355308533e-01
-7.733742892742156982e-02
1.544158011674880981e-01
-2.121287689078599215e-04
1.402377486228942871e-01
6.165267899632453918e-03
8.058921992778778076e-02
8.986002951860427856e-02
3.423624485731124878e-02
2.488968335092067719e-02
6.823443621397018433e-02
3.297872468829154968e-02
1.236067116260528564e-01
6.000956147909164429e-02
1.777852885425090790e-02
-1.032284796237945557e-01
-4.989743605256080627e-02
1.186041310429573059e-01
-7.065729703754186630e-03
1.429521739482879639e-01
2.827809192240238190e-02
-1.627362915314733982e-03
-8.563590049743652344e-02
-8.554173633456230164e-03
-1.770461350679397583e-01
-7.086448837071657181e-03
-2.265628427267074585e-02
1.836099661886692047e-02
-6.035399436950683594e-02
1.461118459701538086e-02
4.452992975711822510e-02
1.734430715441703796e-02
3.496119379997253418e-02
-3.466792032122612000e-02
-5.371716246008872986e-02
-9.810798615217208862e-02
5.022085830569267273e-02
7.092360407114028931e-03
-1.336836069822311401e-01
1.080191507935523987e-01
-4.053678736090660095e-02
-1.095010265707969666e-01
4.573196172714233398e-02
-6.187945976853370667e-02
-5.116600543260574341e-02
5.226823315024375916e-02
3.102993778884410858e-02
-8.882257342338562012e-02
-9.996376931667327881e-02
4.797003790736198425e-02
-6.853869557380676270e-02
3.470427170395851135e-02
-1.325982660055160522e-01
7.268326729536056519e-02
-9.914951771497726440e-02
-3.437625616788864136e-02
-7.912169396877288818e-02
4.095636680722236633e-02
3.223697468638420105e-02
-1.225068718194961548e-01
-8.822940289974212646e-02
-2.009142637252807617e-01
-6.835701409727334976e-03
3.756350278854370117e-02
5.751213431358337402e-02
2.211020886898040771e-02
1.914792135357856750e-02
-1.132473722100257874e-01
-5.750866234302520752e-02
-9.109782055020332336e-03
7.464672625064849854e-02
5.780843272805213928e-02
-2.555771917104721069e-02
-3.690230473875999451e-02
6.342611461877822876e-02
-4.000984597951173782e-03
1.044691354036331177e-01
8.061515539884567261e-02
-1.635429263114929199e-01
-7.110553793609142303e-03
-1.601834408938884735e-02
5.304683744907379150e-02
-1.060822978615760803e-01
2.131703682243824005e-02
-1.129416450858116150e-01
3.983941674232482910e-02
3.868502750992774963e-02
-2.928272262215614319e-02
-8.896053582429885864e-02
-4.198010638356208801e-02
-1.309409439563751221e-01
4.662171378731727600e-02
-1.612141281366348267e-01
-1.279528439044952393e-01
9.860541671514511108e-02
-5.566619336605072021e-02
4.365137219429016113e-02
-8.263751119375228882e-02
-7.912018895149230957e-02
-1.142440550029277802e-02
-4.659708961844444275e-02
-1.226136982440948486e-01
-6.482934951782226562e-02
5.440736189484596252e-02
-1.316078379750251770e-02
-4.805563390254974365e-02
-2.508396469056606293e-02
-6.749945133924484253e-02
7.797864824533462524e-02
5.058702081441879272e-02
-6.264646351337432861e-02
8.540488779544830322e-02
1.074218675494194031e-01
-6.771629303693771362e-02
9.178438037633895874e-02
-1.583803817629814148e-02
-9.349180757999420166e-02
9.957558661699295044e-02
-1.680099219083786011e-01
1.108606159687042236e-02
-1.022291854023933411e-01
-1.084881871938705444e-01
5.702057853341102600e-03
-3.321621939539909363e-02
-5.461440607905387878e-02
-1.269452273845672607e-01
6.534937769174575806e-02
-7.652168720960617065e-02
2.937692962586879730e-02
6.577017158269882202e-02
-2.687473967671394348e-02
-4.824389237910509109e-03
1.797437667846679688e-03
-3.456654399633407593e-02
-3.214314207434654236e-02
-6.358567625284194946e-02
-1.036414504051208496e-01
-1.406805664300918579e-01
-1.006526499986648560e-02
-6.697461754083633423e-02
1.660995036363601685e-01
-4.680314287543296814e-02
-1.675904989242553711e-01
-1.318273395299911499e-01
6.560911983251571655e-02
9.264991432428359985e-02
-9.173619002103805542e-02
-1.179494857788085938e-01
-5.696853622794151306e-03
-6.277091801166534424e-02
1.287852227687835693e-01
4.732755478471517563e-03
4.208604618906974792e-02
-9.294098615646362305e-02
-2.062251791357994080e-02
-1.667151302099227905e-01
2.015782520174980164e-02
1.558597236871719360e-01
-4.507518187165260315e-02
1.235153619199991226e-02
3.382944688200950623e-02
-6.248218938708305359e-02
1.069738417863845825e-01
-2.483851611614227295e-01
-1.542606651782989502e-01
-9.254939854145050049e-02
-1.090548336505889893e-01
-7.645692676305770874e-02
-3.509535267949104309e-02
-1.536047160625457764e-01
6.799708306789398193e-02
-7.564795017242431641e-02
5.233495309948921204e-02
-4.533724114298820496e-02
2.967240102589130402e-02
-1.503099650144577026e-01
-1.643455922603607178e-01
4.183775931596755981e-02
1.071483083069324493e-02
-3.182108700275421143e-02
9.087810665369033813e-02
-9.015277773141860962e-02
2.018821537494659424e-01
-1.124985814094543457e-01
-2.588379941880702972e-02
-1.764623224735260010e-01
4.530105739831924438e-02
-7.740554213523864746e-02
2.941182628273963928e-02
-1.668525300920009613e-02
-1.817499697208404541e-01
4.487146809697151184e-02
-1.464897990226745605e-01
2.916995668783783913e-03
-2.043042480945587158e-01
3.894719108939170837e-02
-2.451291084289550781e-01
-1.294452250003814697e-01
-3.499021753668785095e-02
-9.603020548820495605e-02
2.150778658688068390e-02
-1.621229387819766998e-02
2.614117227494716644e-02
-6.721897423267364502e-02
-1.489967852830886841e-01
-1.115684509277343750e-01
-3.252363204956054688e-02
5.251778289675712585e-02
-1.726280301809310913e-01
7.298345118761062622e-02
-1.216044127941131592e-01
-1.162338256835937500e-01
8.773021399974822998e-03
-5.883144959807395935e-02
-7.462850213050842285e-02
9.570841677486896515e-03
-1.564048081636428833e-01
-5.393963307142257690e-02
-1.149011030793190002e-01
-3.455586358904838562e-02
2.326435223221778870e-02
1.090006064623594284e-02
-1.418257206678390503e-01
-8.951999992132186890e-02
1.819748245179653168e-02
-5.628317221999168396e-02
-1.866713911294937134e-01
-1.166577264666557312e-01
-2.265883795917034149e-02
-1.942991316318511963e-01
-1.567570567131042480e-01
-2.187088578939437866e-01
-1.477990020066499710e-02
1.880906522274017334e-01
1.964312745258212090e-03
-6.638190150260925293e-02
-7.316402345895767212e-02
-1.490238308906555176e-01
9.037232398986816406e-02
5.420960485935211182e-02
-2.104299217462539673e-01
-1.265354007482528687e-01
2.926006540656089783e-02
1.171663999557495117e-01
9.109166264533996582e-02
-1.079347431659698486e-01
-4.169032722711563110e-02
-1.107884049415588379e-01
-2.759752050042152405e-02
-5.570260435342788696e-02
-5.040349066257476807e-02
1.407377421855926514e-01
-1.183280572295188904e-01
-1.098190471529960632e-01
-1.775206178426742554e-01
-3.837926685810089111e-02
2.619027346372604370e-02
-5.161338672041893005e-02
-6.466978788375854492e-02
-6.819685548543930054e-02
-1.337360963225364685e-02
3.792690485715866089e-02
-1.280182003974914551e-01
-1.372749954462051392e-01
3.758604079484939575e-02
9.902415797114372253e-03
-1.104893609881401062e-01
9.894085675477981567e-02
1.568280011415481567e-01
7.414726912975311279e-02
-1.263595670461654663e-01
-2.602839469909667969e-02
-1.389365047216415405e-01
1.003117859363555908e-02
-1.656259596347808838e-01
-2.013728767633438110e-01
6.218414008617401123e-02
-5.442075058817863464e-02
3.613589331507682800e-02
-5.348735302686691284e-02
-6.638362258672714233e-02
-8.761955797672271729e-02
5.221003293991088867e-02
-9.323781728744506836e-02
3.438502550125122070e-02
-1.828717440366744995e-01
-1.099408045411109924e-01
3.018230199813842773e-02
8.356066793203353882e-02
1.145992726087570190e-01
1.107170879840850830e-01
2.560424506664276123e-01
-8.126849681138992310e-02
2.955022640526294708e-02
-6.605659425258636475e-02
-5.613711848855018616e-02
1.125204712152481079e-01
1.140336096286773682e-01
-8.394986391067504883e-02
-3.908001258969306946e-02
-9.846494346857070923e-02
-4.438075702637434006e-03
-1.001531723886728287e-02
3.534991701599210501e-04
-2.412387542426586151e-02
9.297826141119003296e-02
-5.449943244457244873e-03
5.054153129458427429e-02
-3.434247523546218872e-02
8.417740464210510254e-02
3.147172927856445312e-02
-7.694417238235473633e-02
-3.297727182507514954e-02
-4.349219053983688354e-02
-3.997146338224411011e-02
-9.788113087415695190e-02
6.538855284452438354e-02
-2.301887422800064087e-02
7.557499408721923828e-02
-3.952070139348506927e-03
-2.680081687867641449e-02
-1.017254367470741272e-01
-1.752853542566299438e-01
-1.207778081297874451e-01
1.860108226537704468e-01
1.019757986068725586e-01
-1.996354199945926666e-02
-1.016017645597457886e-01
-5.167070310562849045e-03
-4.121571406722068787e-02
1.108473241329193115e-01
-2.639596350491046906e-02
5.507884174585342407e-02
5.203729867935180664e-02
-1.025727093219757080e-01
-2.387712895870208740e-02
-6.542283296585083008e-02
-2.047203667461872101e-02
-3.617036622017621994e-03
4.356366023421287537e-02
-1.381733566522598267e-01
-8.433150500059127808e-02
6.422731559723615646e-03
-3.077786415815353394e-02
-4.706746712327003479e-02
-1.532968729734420776e-01
-1.544479131698608398e-01
1.465134043246507645e-02
-2.951153786852955818e-03
7.722841948270797729e-02
9.639982879161834717e-02
8.908588439226150513e-02
1.421178877353668213e-01
1.222487166523933411e-01
4.722769930958747864e-02
7.764016091823577881e-02
-4.305705428123474121e-03
-4.981141164898872375e-02
3.829117119312286377e-02
-1.075064949691295624e-02
1.026785075664520264e-01
4.503491893410682678e-02
-1.539081521332263947e-02
-5.101558566093444824e-02
-3.294573724269866943e-02
-1.525424420833587646e-01
7.770404964685440063e-02
-2.736248075962066650e-02
7.009296678006649017e-03
-7.048352062702178955e-02
-1.632259190082550049e-01
-1.114266812801361084e-01
8.806648850440979004e-02
7.919190824031829834e-02
-5.899849161505699158e-02
-1.847907751798629761e-01
-5.188768357038497925e-02
3.525923565030097961e-02
1.478852778673171997e-01
1.024340167641639709e-01
4.237445071339607239e-03
-1.827243715524673462e-01
-2.376623451709747314e-02
-9.456641227006912231e-02
6.692668050527572632e-02
1.563229858875274658e-01
1.259353160858154297e-01
1.759806275367736816e-02
3.420771332457661629e-03
-6.554672122001647949e-02
-3.444428741931915283e-02
2.381500042974948883e-02
8.231385797262191772e-02
1.224606856703758240e-02
-5.338052287697792053e-02
1.322316229343414307e-01
-7.987664639949798584e-02
9.438224136829376221e-02
-1.146958582103252411e-02
1.457649003714323044e-02
6.432350724935531616e-02
-1.235682796686887741e-02
-1.592095009982585907e-02
1.390635035932064056e-02
-4.071635380387306213e-02
5.502166226506233215e-03
1.308293268084526062e-02
-3.656546026468276978e-02
-2.052886039018630981e-01
-1.236317902803421021e-01
-5.677600856870412827e-04
1.896037720143795013e-02
1.200768649578094482e-01
4.336804896593093872e-02
4.097585380077362061e-02
7.491318881511688232e-02
-1.479417234659194946e-01
5.547301378101110458e-03
-4.108959436416625977e-02
4.011178971268236637e-04
-3.929102793335914612e-02
-4.131674766540527344e-02
-4.259348288178443909e-02
-8.601333945989608765e-02
6.572820991277694702e-02
1.313863992691040039e-01
1.186667606234550476e-01
8.139365166425704956e-02
-2.704041264951229095e-02
3.754239901900291443e-02
3.987558931112289429e-02
-3.140890598297119141e-02
1.173561960458755493e-01
-1.464617699384689331e-01
1.096635498106479645e-02
6.357012689113616943e-02
-1.455592066049575806e-01
-1.085230335593223572e-01
-3.736050426959991455e-02
7.844629581086337566e-04
-6.911277770996093750e-02
1.334072556346654892e-02
-1.956957392394542694e-02
-1.764156818389892578e-01
-5.849563051015138626e-03
8.824186772108078003e-02
-9.160330891609191895e-02
-3.296327590942382812e-02
-4.357812181115150452e-02
8.170264959335327148e-02
6.073454022407531738e-02
-9.859257936477661133e-02
4.982499405741691589e-03
4.260284453630447388e-02
-3.907338157296180725e-02
-1.235379874706268311e-01
-6.562287360429763794e-02
-6.630048900842666626e-02
-4.046699777245521545e-02
6.192659959197044373e-02
-9.908135980367660522e-02
-1.145084276795387268e-01
-1.059837117791175842e-01
-8.442397415637969971e-02
-4.007107391953468323e-02
1.072758063673973083e-01
-1.122362837195396423e-01
-8.551453053951263428e-02
2.821217849850654602e-02
-4.235095158219337463e-02
-8.558867871761322021e-02
1.608421951532363892e-01
-1.873292028903961182e-01
-7.922245189547538757e-03
-3.245832398533821106e-02
-1.519075781106948853e-01
8.020611852407455444e-02
-1.206577718257904053e-01
-4.368111863732337952e-02
-1.279589533805847168e-02
-1.202725917100906372e-01
-1.129731908440589905e-01
-4.733616486191749573e-02
-2.154318988323211670e-01
-6.822248455137014389e-03
-5.235814303159713745e-02
1.900341175496578217e-02
-7.061252743005752563e-02
4.053713753819465637e-02
-1.637540161609649658e-01
-1.446549594402313232e-01
-1.653715074062347412e-01
9.844060987234115601e-03
1.002294197678565979e-01
-2.520332485437393188e-02
6.104594469070434570e-02
-4.549929872155189514e-02
-1.669738888740539551e-01
9.668327122926712036e-02
-5.689880345016717911e-03
-5.330817401409149170e-02
8.486555516719818115e-02
9.504868835210800171e-02
-9.454412013292312622e-02
7.440852373838424683e-02
4.771855846047401428e-02
-1.213640794157981873e-01
3.272152692079544067e-02
-6.854508817195892334e-02
-4.115972667932510376e-02
-2.973494865000247955e-02
5.681000277400016785e-02
-2.744295261800289154e-02
-2.172295702621340752e-03
1.101153418421745300e-01
3.325749188661575317e-02
-3.862331807613372803e-02
-2.410203590989112854e-02
-1.033194735646247864e-01
-1.291259676218032837e-01
-2.744331210851669312e-02
-1.230549663305282593e-01
-1.714192479848861694e-01
-8.670464158058166504e-02
-6.198590621352195740e-02
-1.519656479358673096e-01
-1.605050414800643921e-01
-1.836369931697845459e-01
4.117466509342193604e-03
-6.421125680208206177e-02
-1.134770214557647705e-01
-4.597213864326477051e-02
5.492030084133148193e-02
-1.148887351155281067e-01
-6.552500277757644653e-02
-1.792346127331256866e-02
-1.550055295228958130e-01
-7.719159871339797974e-02
-9.219030290842056274e-02
-5.846872925758361816e-02
1.373730152845382690e-01
1.347943544387817383e-01
-1.000964045524597168e-01
2.136858180165290833e-02
5.493211373686790466e-02
-8.646506816148757935e-02
7.220200449228286743e-02
-6.984426081180572510e-02
1.647301465272903442e-01
2.256635390222072601e-02
-1.464519053697586060e-01
-2.748789265751838684e-02
-1.403719484806060791e-01
3.330545127391815186e-02
-8.067717403173446655e-02
-6.020849198102951050e-02
-1.048677489161491394e-01
6.859690696001052856e-02
-2.073683775961399078e-02
8.407779969274997711e-03
-6.999990344047546387e-02
3.336510621011257172e-03
3.165024146437644958e-02
-8.989630639553070068e-02
3.013269044458866119e-02
-8.945507556200027466e-02
9.252716600894927979e-02
-1.343133598566055298e-01
1.479399669915437698e-02
-9.118371643126010895e-03
7.882698439061641693e-03
-4.872917383909225464e-02
-3.376481309533119202e-02
2.145819067955017090e-01
-2.427388355135917664e-02
1.372243613004684448e-01
1.690181531012058258e-02
-1.279057860374450684e-01
-7.140237092971801758e-02
3.196056932210922241e-02
1.390876919031143188e-01
1.274187415838241577e-01
-1.597060561180114746e-01
-6.941837072372436523e-02
1.634157299995422363e-01
1.408427953720092773e-01
5.956895276904106140e-02
1.428086012601852417e-01
-1.954670250415802002e-01
-2.093935012817382812e-02
-4.323495179414749146e-02
-8.625765889883041382e-02
-6.423986703157424927e-02
-5.719676613807678223e-02
1.309512257575988770e-01
-4.292191192507743835e-02
-1.134116873145103455e-01
-6.421518325805664062e-02
4.082556068897247314e-02
-1.362333744764328003e-01
-1.199961900711059570e-01
-7.723719626665115356e-02
-8.802789263427257538e-03
1.164344921708106995e-01
7.513307034969329834e-02
-4.840521141886711121e-02
-5.055927205830812454e-03
-6.949420273303985596e-02
1.069419085979461670e-01
-7.747562974691390991e-02
6.598582863807678223e-02
1.026060804724693298e-01
1.329409331083297729e-01
-1.351743787527084351e-01
1.188789904117584229e-01
-7.928023487329483032e-02
4.294613003730773926e-02
-1.800559759140014648e-01
-8.687212131917476654e-03
5.408448725938796997e-02
8.659955114126205444e-02
2.301894426345825195e-01
-1.293800622224807739e-01
-5.835541337728500366e-02
1.375874504446983337e-02
-6.868610531091690063e-02
-6.764965504407882690e-02
-2.985575422644615173e-02
2.547332458198070526e-02
-7.488565146923065186e-02
-4.211059585213661194e-02
3.571802005171775818e-02
-5.183997377753257751e-02
1.596346646547317505e-01
5.054335668683052063e-02
-4.426772519946098328e-02
-4.940797016024589539e-02
-5.511847883462905884e-02
-1.358695924282073975e-01
3.754175081849098206e-02
1.317882537841796875e-01
-3.098561055958271027e-02
-5.034068226814270020e-02
-8.010744303464889526e-02
5.666748434305191040e-02
-1.403105854988098145e-01
1.803656481206417084e-02
2.787482738494873047e-02
4.321003332734107971e-02
2.139225415885448456e-02
1.762222796678543091e-01
-8.751226216554641724e-02
1.167051419615745544e-01
-3.319603949785232544e-02
-8.839150518178939819e-02
-9.508804976940155029e-02
1.049249172210693359e-01
3.086718730628490448e-02
-6.223584339022636414e-02
-1.002953574061393738e-02
-1.571779549121856689e-01
-1.610365062952041626e-01
6.878858059644699097e-02
4.574833810329437256e-02
-1.225033998489379883e-01
-5.771835893392562866e-02
-4.124323278665542603e-02
8.387998491525650024e-02
2.665779553353786469e-03
3.075319342315196991e-02
8.384057879447937012e-02
-1.913676969707012177e-02
1.045631617307662964e-01
-1.501677036285400391e-01
1.681151092052459717e-01
1.506162583827972412e-01
2.554402314126491547e-02
-1.033055409789085388e-01
-7.557917386293411255e-02
4.629596695303916931e-02
6.795910745859146118e-02
4.386608302593231201e-02
-6.993617117404937744e-02
-1.040325760841369629e-01
-1.132382899522781372e-01
4.624772351235151291e-03
1.886323839426040649e-02
1.037346422672271729e-01
1.298535801470279694e-02
-6.586764752864837646e-02
-5.303185060620307922e-02
-6.220854446291923523e-02
-1.234697178006172180e-02
-1.600172966718673706e-01
-5.672259256243705750e-02
-1.934415549039840698e-01
-3.853939473628997803e-02
1.488744318485260010e-01
-6.039542332291603088e-02
1.419869661331176758e-01
-6.889867782592773438e-02
-4.798669368028640747e-02
-7.061882317066192627e-02
-2.581879496574401855e-02
-1.039290800690650940e-01
-1.684033125638961792e-01
8.024544268846511841e-02
-4.699904099106788635e-02
6.638718396425247192e-02
3.360226377844810486e-02
1.325293183326721191e-01
5.252908915281295776e-02
5.463253334164619446e-02
9.181642532348632812e-02
1.291529387235641479e-01
-9.661652147769927979e-02
-8.883117884397506714e-02
-1.233220323920249939e-01
-1.970678865909576416e-01
-7.289079576730728149e-02
1.139605790376663208e-01
-5.030286498367786407e-03
-7.800380885601043701e-02
-9.300403296947479248e-02
-4.711779579520225525e-02
6.876035034656524658e-02
9.277402609586715698e-02
-3.415126353502273560e-02
2.504150010645389557e-02
1.116945594549179077e-01
-1.118736639618873596e-01
-3.710789838805794716e-03
1.776850037276744843e-02
-1.460735406726598740e-02
-7.120978087186813354e-02
1.331332623958587646e-01
2.259382419288158417e-02
-1.494452357292175293e-01
6.904885172843933105e-02
-2.566821128129959106e-02
-7.297796756029129028e-02
-9.492429345846176147e-02
7.446605712175369263e-03
1.260709613561630249e-01
-1.403814107179641724e-01
-1.433233618736267090e-01
4.844631999731063843e-02
-1.401675045490264893e-01
1.795004308223724365e-02
-3.851081430912017822e-02
2.188615314662456512e-02
-2.960761263966560364e-02
-6.101356074213981628e-02
-5.957594513893127441e-02
3.909133747220039368e-02
-1.469627618789672852e-01
8.950369060039520264e-02
-1.728449016809463501e-02
6.065692007541656494e-02
-2.128767408430576324e-02
-4.231954924762248993e-03
8.889384567737579346e-03
8.375092409551143646e-03
1.815687566995620728e-01
1.325762867927551270e-01
-6.805156171321868896e-02
-1.665784860961139202e-03
-1.168253198266029358e-01
3.074707835912704468e-02
-3.597406297922134399e-02
-7.190638035535812378e-02
1.115292459726333618e-01
-8.488257974386215210e-02
3.748475387692451477e-02
-2.118841372430324554e-02
-9.924592450261116028e-03
-1.242170035839080811e-01
2.315289340913295746e-02
1.364065799862146378e-02
-1.263385917991399765e-02
-8.429791778326034546e-03
-6.501302868127822876e-02
-4.803917557001113892e-02
-3.492003679275512695e-02
-5.299602821469306946e-02
-7.192749530076980591e-02
1.226096227765083313e-01
9.841994941234588623e-02
-3.376762196421623230e-02
1.221871450543403625e-01
3.697341680526733398e-02
6.454656273126602173e-02
-1.340570598840713501e-01
-4.390678182244300842e-02
-3.068665042519569397e-02
-6.467641144990921021e-02
9.415525197982788086e-02
5.233650654554367065e-02
7.225567847490310669e-02
1.789437979459762573e-02
-2.572241937741637230e-03
-7.760889828205108643e-02
1.576696522533893585e-02
2.666323073208332062e-02
-2.395731955766677856e-02
1.315313670784235001e-02
-9.892541915178298950e-02
-5.230950564146041870e-02
-1.009651049971580505e-01
-5.870784074068069458e-02
3.594525530934333801e-02
-7.980147749185562134e-02
-1.611793041229248047e-02
7.547730114310979843e-03
-1.243613436818122864e-01
-1.238644216209650040e-02
3.883237764239311218e-02
2.349918149411678314e-02
1.771155185997486115e-02
1.910963058471679688e-01
-4.775310307741165161e-02
-9.888950735330581665e-02
-1.708318106830120087e-02
-7.286048680543899536e-02
-6.306421011686325073e-03
1.652497798204421997e-02
-1.912908852100372314e-01
1.729509830474853516e-01
-2.221594564616680145e-02
1.713673472404479980e-01
2.251309528946876526e-02
-3.720775246620178223e-02
-7.436584681272506714e-02
4.124339669942855835e-02
4.655411839485168457e-02
-1.048609167337417603e-01
-5.702000483870506287e-02
4.403113201260566711e-02
5.627009645104408264e-02
8.557374775409698486e-02
-5.521551147103309631e-02
6.616985052824020386e-02
-8.313557133078575134e-03
-1.125036329030990601e-01
1.309661120176315308e-01
2.359239943325519562e-02
-1.176930665969848633e-01
-8.702366054058074951e-02
1.588830202817916870e-01
1.479136347770690918e-01
-3.125260816887021065e-03
-4.643992707133293152e-02
-5.220191925764083862e-02
-1.513109505176544189e-01
2.566577494144439697e-02
2.394273690879344940e-02
3.224998340010643005e-02
-1.534138917922973633e-01
-7.406412065029144287e-02
5.144092068076133728e-02
-1.643468253314495087e-02
3.800154849886894226e-02
4.386746732052415609e-04
-1.449232101440429688e-01
7.607211172580718994e-02
-1.012372039258480072e-02
-4.591901972889900208e-02
5.325445532798767090e-02
-1.893815845251083374e-01
-2.681924402713775635e-02
4.844661056995391846e-02
5.045640096068382263e-02
9.770309180021286011e-02
-1.753479093313217163e-01
-2.390208281576633453e-02
-1.033585965633392334e-01
4.498573765158653259e-02
-7.034854590892791748e-02
2.196027897298336029e-02
-5.763854458928108215e-02
9.897538460791110992e-03
1.837158016860485077e-02
-9.644399583339691162e-02
-5.479472503066062927e-02
6.786955636925995350e-04
-1.544709205627441406e-01
-3.759644180536270142e-02
-1.544240415096282959e-01
3.766969963908195496e-02
-6.001067161560058594e-02
-3.447319567203521729e-02
-6.276140362024307251e-02
5.072037223726511002e-03
-8.431112766265869141e-02
2.163236588239669800e-02
1.209913007915019989e-02
-2.770963497459888458e-02
1.685193777084350586e-01
6.340813636779785156e-02
-6.990532577037811279e-02
-6.053882464766502380e-02
-3.558619692921638489e-02
-1.221361532807350159e-01
-6.415444612503051758e-02
1.762302964925765991e-02
6.400162726640701294e-02
9.859635680913925171e-02
-7.584908604621887207e-02
1.187730729579925537e-01
-1.355773806571960449e-01
-1.737051606178283691e-01
-1.327729523181915283e-01
9.562721103429794312e-02
-1.643914729356765747e-01
-2.751971594989299774e-02
-1.009468883275985718e-01
-4.775365442037582397e-02
-6.866911053657531738e-02
3.236426413059234619e-02
-6.384196877479553223e-02
-1.033838465809822083e-01
-1.752689480781555176e-02
-1.533004492521286011e-01
-3.963555023074150085e-02
-5.568234715610742569e-03
3.983727097511291504e-02
-3.992487862706184387e-02
-7.680674549192190170e-03
6.574283540248870850e-02
1.661281473934650421e-02
-3.671917319297790527e-02
-4.726461321115493774e-02
5.254643037915229797e-02
5.739688500761985779e-02
-3.340763971209526062e-02
-5.563823878765106201e-02
-7.489315420389175415e-02
1.925241202116012573e-01
1.449985355138778687e-01
-2.598737552762031555e-02
-4.525948688387870789e-02
-1.623074524104595184e-02
4.059168696403503418e-02
1.441089659929275513e-01
-9.065556526184082031e-02
-6.006839871406555176e-02
-5.071895942091941833e-02
-1.390851885080337524e-01
-1.355795096606016159e-02
5.719824880361557007e-02
-8.925530314445495605e-02
4.313241224735975266e-03
7.376229763031005859e-02
-7.434610277414321899e-02
9.034999459981918335e-02
-2.744119986891746521e-02
1.011070087552070618e-01
-1.620281673967838287e-02
5.486722290515899658e-02
-2.659168466925621033e-02
6.433310452848672867e-03
-1.027963403612375259e-02
1.526836007833480835e-01
-3.163931518793106079e-02
8.056638389825820923e-02
-1.072147563099861145e-01
-9.099178016185760498e-03
-1.123527809977531433e-01
3.187794610857963562e-02
-2.402442507445812225e-02
-2.263145148754119873e-02
-1.068346854299306870e-02
3.217572346329689026e-02
7.133287936449050903e-02
-6.569740176200866699e-02
4.024011641740798950e-02
8.883447200059890747e-02
-1.257158815860748291e-01
-7.848726958036422729e-02
7.078763097524642944e-02
2.402073517441749573e-02
-7.828720659017562866e-02
-6.840641796588897705e-02
7.938981056213378906e-03
7.880342751741409302e-02
-1.100053936243057251e-01
-2.907504141330718994e-02
-2.276016212999820709e-02
5.949476733803749084e-02
-3.468178957700729370e-02
-9.513846784830093384e-02
-7.271706312894821167e-02
1.414559595286846161e-02
-9.285413473844528198e-02
-3.585814312100410461e-02
1.884486079216003418e-01
-5.396847054362297058e-02
2.451115660369396210e-02
2.832893282175064087e-02
-5.445566773414611816e-02
3.058316186070442200e-02
-5.912112817168235779e-02
-6.389124691486358643e-02
4.485606402158737183e-02
2.193952165544033051e-02
-1.795455515384674072e-01
1.206749305129051208e-01
-4.183569550514221191e-02
-1.467327624559402466e-01
5.656097829341888428e-02
-1.293348968029022217e-01
-5.968149751424789429e-02
4.618811234831809998e-02
5.848930776119232178e-02
-1.958376616239547729e-01
-1.543025858700275421e-02
-3.359857946634292603e-02
1.320716366171836853e-02
-1.516227275133132935e-01
5.033645778894424438e-02
5.866129323840141296e-02
1.415947973728179932e-01
-7.924987375736236572e-02
-1.629024147987365723e-01
-7.685141265392303467e-02
2.514905110001564026e-02
-1.179063767194747925e-01
-1.108551621437072754e-01
1.410159617662429810e-01
-1.935263397172093391e-03
3.369989618659019470e-02
-2.557647414505481720e-02
-2.409110777080059052e-03
7.005515694618225098e-02
1.641080901026725769e-02
-6.632816046476364136e-02
-7.671911269426345825e-02
-4.126138985157012939e-02
1.759620755910873413e-02
-1.009361371397972107e-01
9.878202527761459351e-02
5.572832189500331879e-03
-6.757439672946929932e-02
-6.318105012178421021e-02
-1.895329505205154419e-01
-6.197295337915420532e-02
-5.085304006934165955e-02
-1.254911869764328003e-01
9.410742670297622681e-02
3.816928341984748840e-02
-1.263221800327301025e-01
-1.029787957668304443e-01
-1.082375198602676392e-01
4.497135058045387268e-02
2.823488553985953331e-03
-4.388317838311195374e-02
-1.036462560296058655e-01
-3.840343654155731201e-02
-8.352588117122650146e-02
1.137982606887817383e-01
1.535426825284957886e-01
-6.857427209615707397e-02
-8.291407674551010132e-02
-9.491130709648132324e-02
1.333245635032653809e-01
-1.715315282344818115e-01
-5.989141017198562622e-02
-4.266999289393424988e-02
8.618153631687164307e-02
-7.798486948013305664e-02
3.398628532886505127e-02
-2.401489997282624245e-03
8.514238893985748291e-02
3.284992277622222900e-02
4.994427040219306946e-02
-1.664327457547187805e-03
1.887194230221211910e-03
-1.643109172582626343e-01
1.214138604700565338e-02
-3.364784410223364830e-03
-2.744186203926801682e-03
6.869685649871826172e-02
2.180680446326732635e-02
-1.081423251889646053e-03
-4.137273877859115601e-03
-1.084594503045082092e-01
-1.323756724596023560e-01
2.068289928138256073e-02
-2.504456043243408203e-02
2.930374443531036377e-02
6.018799543380737305e-02
3.863181918859481812e-02
-1.189132407307624817e-01
1.445727329701185226e-02
-1.173931509256362915e-01
-1.178800463676452637e-01
-1.013675630092620850e-01
-3.205551952123641968e-02
4.925872758030891418e-02
1.260867714881896973e-01
-1.213553100824356079e-01
-3.808457031846046448e-02
8.404839783906936646e-03
-1.206746771931648254e-01
3.697232902050018311e-02
-1.018585860729217529e-01
-1.249303594231605530e-01
-1.147952303290367126e-01
2.865002863109111786e-02
-5.381256714463233948e-02
-3.408180549740791321e-02
-1.974444463849067688e-02
7.198917865753173828e-02
-1.022994220256805420e-01
7.399458438158035278e-02
-5.311417579650878906e-02
-8.495782315731048584e-02
-1.496030986309051514e-01
1.069214120507240295e-01
1.859778314828872681e-01
1.923566870391368866e-02
2.455188892781734467e-02
-2.951099351048469543e-02
1.447670459747314453e-01
3.479277715086936951e-02
1.571138799190521240e-01
-1.122594624757766724e-01
-6.710562109947204590e-02
6.172112002968788147e-02
-7.390532176941633224e-03
-5.290098115801811218e-02
-1.105583012104034424e-01
-9.121525101363658905e-03
-6.618472188711166382e-02
2.581235021352767944e-03
1.136328577995300293e-01
4.835414886474609375e-02
7.614561822265386581e-03
1.401118189096450806e-02
-1.227818652987480164e-01
4.653178155422210693e-02
-6.687891483306884766e-02
6.184065341949462891e-02
-3.945938497781753540e-02
-6.966429203748703003e-02
1.784521155059337616e-02
-1.425280123949050903e-01
6.144375726580619812e-02
-2.419763803482055664e-02
-3.004157356917858124e-02
-4.477573093026876450e-04
-5.339409690350294113e-03
7.455143332481384277e-02
-6.595782190561294556e-02
2.913275174796581268e-02
-1.168639119714498520e-02
-2.286477386951446533e-02
-3.039880096912384033e-02
6.172049045562744141e-02
1.898891329765319824e-01
2.945867367088794708e-02
-1.248718947172164917e-01
-4.425714910030364990e-02
1.083172112703323364e-01
1.424544006586074829e-01
1.475357413291931152e-01
-5.057892948389053345e-02
-4.034932702779769897e-02
-4.788861051201820374e-02
-3.049617074429988861e-02
2.229093015193939209e-01
-3.995345905423164368e-02
-5.631037428975105286e-02
-2.158792875707149506e-02
-1.361273974180221558e-01
-1.958410739898681641e-01
-6.341201812028884888e-02
2.018837630748748779e-02
2.458397112786769867e-02
-4.406348243355751038e-02
-9.194646775722503662e-02
-8.902289904654026031e-03
2.699389122426509857e-02
5.520913377404212952e-02
8.792896568775177002e-02
6.664143502712249756e-02
-8.380466699600219727e-02
-1.258406341075897217e-01
2.416943199932575226e-02
1.352212578058242798e-01
5.760953202843666077e-02
3.634466230869293213e-02
-3.540734946727752686e-02
2.219356596469879150e-03
7.575504481792449951e-02
-9.050608426332473755e-02
1.313539315015077591e-02
-1.161173731088638306e-01
-3.081092797219753265e-02
2.665684185922145844e-02
9.177431464195251465e-02
7.978413999080657959e-02
1.133110672235488892e-01
3.993708640336990356e-02
-1.772456318140029907e-01
-4.597330838441848755e-02
-7.937599718570709229e-02
1.060740649700164795e-01
-8.769422024488449097e-02
-1.276160180568695068e-01
5.058313906192779541e-02
-9.559697471559047699e-03
-1.902669966220855713e-01
6.349451094865798950e-02
3.048568777740001678e-02
-5.420156195759773254e-02
8.388216793537139893e-02
-1.090811565518379211e-02
-5.299860984086990356e-02
1.640257537364959717e-01
-3.356372565031051636e-02
-1.101663112640380859e-01
1.933407597243785858e-02
2.619796060025691986e-02
-3.703627735376358032e-03
-3.152769058942794800e-02
-3.989865258336067200e-02
-1.548784598708152771e-02
3.308234363794326782e-02
-7.461542636156082153e-02
1.176824346184730530e-01
-1.313566416501998901e-02
-1.033931002020835876e-01
1.183297112584114075e-01
1.615344732999801636e-01
7.182853668928146362e-02
1.244161576032638550e-01
-4.290634766221046448e-02
3.828115388751029968e-02
-1.248397827148437500e-01
-3.078199923038482666e-01
1.584492251276969910e-02
3.018120490014553070e-02
1.523281796835362911e-03
-5.043425783514976501e-02
-1.989446207880973816e-02
-7.782027870416641235e-02
-1.843364685773849487e-01
-6.045273318886756897e-02
1.272873878479003906e-01
4.915559664368629456e-02
-9.861763566732406616e-02
-8.801870048046112061e-03
1.008476037532091141e-02
-1.064928621053695679e-01
-6.953588221222162247e-03
-7.241075485944747925e-02
-2.409168146550655365e-02
7.599675655364990234e-02
8.868193626403808594e-02
-6.807871907949447632e-02
7.135517895221710205e-02
-6.315623223781585693e-02
-5.040635913610458374e-02
-5.834966525435447693e-02
-1.932506076991558075e-02
-4.919281601905822754e-02
-7.400940358638763428e-02
-4.139119386672973633e-02
-1.284719854593276978e-01
-4.618210718035697937e-02
1.214451808482408524e-02
4.550333693623542786e-02
-1.604512631893157959e-01
-5.678380373865365982e-03
1.063430458307266235e-01
1.366842687129974365e-01
-1.566969454288482666e-01
6.702862679958343506e-02
-1.202079653739929199e-01
-5.109145306050777435e-03
2.075104275718331337e-03
-3.354707732796669006e-03
1.463230792433023453e-02
6.150365620851516724e-02
-9.896195679903030396e-02
5.231223627924919128e-02
-1.573212742805480957e-01
-3.073215484619140625e-02
3.594671934843063354e-02
3.235121257603168488e-03
-1.024850085377693176e-01
1.171160712838172913e-01
2.104290388524532318e-02
-1.047368049621582031e-01
-1.960899233818054199e-01
-1.881412565708160400e-01
-1.651449948549270630e-01
-1.411634236574172974e-01
-6.277608871459960938e-02
9.483525902032852173e-02
-1.597440391778945923e-01
-1.967967860400676727e-02
4.632071405649185181e-02
5.623381119221448898e-03
-3.916202113032341003e-02
-1.142586544156074524e-01
1.297102216631174088e-02
-1.208772733807563782e-01
-1.293405592441558838e-01
-4.438218474388122559e-02
2.907318994402885437e-02
2.376882359385490417e-02
4.339741542935371399e-02
5.148917064070701599e-02
1.344993859529495239e-01
-1.540288478136062622e-01
-5.255552381277084351e-02
-4.810616746544837952e-02
3.043054789304733276e-02
-1.164661496877670288e-01
-9.717576950788497925e-02
8.951646834611892700e-02
-7.027401123195886612e-03
-1.438537705689668655e-02
-6.866351515054702759e-02
1.129015386104583740e-01
1.535372585058212280e-01
-6.511838734149932861e-02
-3.694461891427636147e-03
-1.235916540026664734e-01
-3.188217803835868835e-02
3.106338158249855042e-02
-1.636201590299606323e-01
-1.575788855552673340e-01
-3.721622750163078308e-02
1.279679825529456139e-03
1.977417469024658203e-01
1.658797115087509155e-01
-1.212629303336143494e-01
-6.798444688320159912e-02
-2.433080375194549561e-01
5.317252501845359802e-02
-1.499896645545959473e-01
-1.824356168508529663e-01
-5.575555562973022461e-02
1.685501821339130402e-02
-1.616791076958179474e-02
1.442852020263671875e-01
6.902677938342094421e-03
6.524536013603210449e-02
3.561175987124443054e-02
3.945045638829469681e-03
-2.508119493722915649e-02
1.105582043528556824e-01
2.222420461475849152e-02
-3.182129561901092529e-02
-6.982300430536270142e-02
3.513882309198379517e-02
-4.072033613920211792e-02
-8.884306997060775757e-02
-1.002704352140426636e-02
3.523094113916158676e-03
1.030224487185478210e-01
2.772075496613979340e-02
-6.577976047992706299e-02
1.384874992072582245e-02
4.954609274864196777e-02
-3.240566700696945190e-02
-6.601961795240640640e-03
-2.662077732384204865e-02
-3.291878476738929749e-02
4.589161649346351624e-02
1.426033526659011841e-01
1.790223456919193268e-02
1.025905981659889221e-01
1.267401874065399170e-01
-2.337197363376617432e-01
1.361978650093078613e-01
7.186170667409896851e-02
-1.470756828784942627e-01
1.260067075490951538e-01
-1.444275490939617157e-02
-1.389866136014461517e-02
8.107302337884902954e-02
-3.913004696369171143e-02
-1.112959682941436768e-01
-2.086594700813293457e-02
-8.625973947346210480e-03
-2.766244709491729736e-01
9.201554954051971436e-02
3.179624304175376892e-02
3.359246999025344849e-02
-1.095222905278205872e-01
-6.059612333774566650e-02
4.930187016725540161e-02
-1.032152101397514343e-01
4.258107021450996399e-02
3.336093574762344360e-02
-2.362972684204578400e-02
-6.732621043920516968e-02
-6.077847257256507874e-02
7.013291865587234497e-02
1.126582324504852295e-01
-1.117354724556207657e-03
7.931139320135116577e-02
-5.389044433832168579e-02
3.982752189040184021e-02
-4.628732427954673767e-02
2.593828924000263214e-02
-1.352503299713134766e-01
-1.169600412249565125e-01
1.578503102064132690e-01
-7.595022022724151611e-02
-1.618826091289520264e-01
-2.838472835719585419e-03
4.832691699266433716e-02
-1.415686868131160736e-02
-1.399720739573240280e-02
1.382137686014175415e-01
-3.010948887094855309e-03
-8.834774792194366455e-02
-1.104760468006134033e-01
-3.170007094740867615e-02
-1.537121832370758057e-01
-1.591238379478454590e-01
8.283932507038116455e-02
6.920979917049407959e-02
6.082921847701072693e-02
-1.750614494085311890e-01
8.610548824071884155e-02
7.130382210016250610e-02
-7.266942411661148071e-02
-3.499910235404968262e-03
-5.153532326221466064e-02
1.858921907842159271e-02
-1.585889011621475220e-01
4.460599273443222046e-02
4.268733784556388855e-02
2.441105619072914124e-02
5.543778464198112488e-02
-1.210045441985130310e-01
-5.422440171241760254e-02
1.179989613592624664e-02
3.815044835209846497e-02
9.252351522445678711e-02
1.264562308788299561e-01
1.365790218114852905e-01
1.089727729558944702e-01
-1.200530007481575012e-01
1.275162119418382645e-02
-7.467787712812423706e-02
1.428553462028503418e-01
5.945289880037307739e-02
-2.133554220199584961e-01
4.904319345951080322e-02
-2.821572497487068176e-02
-1.300267428159713745e-01
-7.951722294092178345e-02
-5.256985127925872803e-02
-8.197759836912155151e-02
-2.013813704252243042e-02
1.127912253141403198e-01
1.398959308862686157e-01
5.014163255691528320e-02
-9.086360782384872437e-02
-3.389487043023109436e-02
-4.530699923634529114e-02
-2.092313617467880249e-01
1.590083390474319458e-01
-3.244612738490104675e-02
4.682405665516853333e-02
6.019165273755788803e-03
-1.411002222448587418e-02
4.274263605475425720e-02
6.567217409610748291e-02
6.996025145053863525e-02
-1.225471030920743942e-02
-6.796915084123611450e-02
2.509177848696708679e-02
4.551755636930465698e-02
2.973300218582153320e-02
1.275694370269775391e-01
-3.288691863417625427e-02
-4.218656569719314575e-02
6.073007360100746155e-02
1.463007330894470215e-01
8.273565024137496948e-02
1.461269408464431763e-01
-4.044430330395698547e-02
5.887120962142944336e-02
-1.457512080669403076e-01
-5.305872764438390732e-03
-1.021348908543586731e-01
-3.556714579463005066e-02
-3.612045198678970337e-02
-1.471479423344135284e-02
1.600287854671478271e-02
-5.286039412021636963e-02
-4.058993607759475708e-02
-4.181003943085670471e-02
-3.909299150109291077e-02
-2.099294774234294891e-02
-2.941161952912807465e-02
5.475053563714027405e-02
6.802462786436080933e-02
-6.388260424137115479e-02
1.172197982668876648e-01
-2.460972592234611511e-02
1.000242307782173157e-01
-1.560055613517761230e-01
2.384475991129875183e-02
-4.912181571125984192e-02
1.422443687915802002e-01
8.549404889345169067e-02
-7.089778780937194824e-02
-1.406233757734298706e-01
1.364389620721340179e-02
-6.402748078107833862e-02
-7.632651180028915405e-02
-6.316890940070152283e-03
6.918582320213317871e-02
5.370861291885375977e-02
8.345212042331695557e-02
7.692357059568166733e-03
7.846093922853469849e-02
3.495481237769126892e-02
-6.353495270013809204e-02
-1.962054073810577393e-01
2.106910385191440582e-02
3.544957190752029419e-02
1.618067920207977295e-01
3.918159753084182739e-02
2.459593489766120911e-02
5.112748965620994568e-02
5.673824623227119446e-02
8.325207978487014771e-03
1.140408292412757874e-01
-8.569042384624481201e-02
-1.125180870294570923e-01
3.459842503070831299e-02
1.044602505862712860e-02
-3.952730819582939148e-02
-1.614511162042617798e-01
-5.794543027877807617e-02
4.775646328926086426e-02
-7.152996957302093506e-02
-3.221337497234344482e-02
2.117266179993748665e-03
-3.753873333334922791e-02
-5.512081459164619446e-02
-5.124185979366302490e-02
3.154674917459487915e-02
1.263223886489868164e-01
1.531354617327451706e-02
-1.650467216968536377e-01
-7.413776963949203491e-02
-4.135986417531967163e-02
5.748302489519119263e-02
-9.862004220485687256e-02
5.242126435041427612e-02
9.424704313278198242e-02
1.316174119710922241e-01
4.599844664335250854e-02
7.910137996077537537e-03
1.144278980791568756e-02
-7.301309704780578613e-02
-8.453876525163650513e-02
-1.890518367290496826e-01
-3.126895055174827576e-02
5.975980893708765507e-04
1.143588647246360779e-01
-9.047425538301467896e-02
1.016032099723815918e-01
-5.775356665253639221e-03
9.604246914386749268e-02
-2.373589202761650085e-02
3.884675214067101479e-03
-2.915927954018115997e-02
8.452583849430084229e-02
-2.247502095997333527e-02
-7.597742974758148193e-02
9.742785990238189697e-02
1.367816179990768433e-01
1.206424366682767868e-02
4.137098789215087891e-02
-9.070707857608795166e-02
-1.289437711238861084e-01
7.058142870664596558e-02
-1.292885839939117432e-01
4.134177416563034058e-02
-1.154295429587364197e-01
-3.428843244910240173e-02
5.118208751082420349e-02
-5.734846927225589752e-03
1.438593417406082153e-01
-1.670674830675125122e-01
-1.239551454782485962e-01
6.800787150859832764e-02
-1.903807930648326874e-02
4.608366638422012329e-02
-6.184395402669906616e-02
1.701621115207672119e-01
-1.198515892028808594e-01
6.865765154361724854e-02
2.361769229173660278e-02
-8.763394504785537720e-02
-1.833991557359695435e-01
-1.137010231614112854e-01
6.288126111030578613e-02
2.549432450905442238e-03
2.600684575736522675e-02
4.954687505960464478e-02
1.679181866347789764e-02
-6.524072494357824326e-03
-1.668010950088500977e-01
1.033924892544746399e-02
-5.484782159328460693e-02
-1.073164120316505432e-01
1.070909947156906128e-01
1.217161342501640320e-01
-5.749961733818054199e-02
2.386180870234966278e-02
-1.457810252904891968e-01
-6.485041230916976929e-02
9.675759822130203247e-02
-1.082730069756507874e-01
9.777896851301193237e-02
-4.973661154508590698e-02
-7.966578751802444458e-02
-7.973954081535339355e-02
-1.173370284959673882e-03
6.324168294668197632e-03
3.304166020825505257e-03
-1.525193303823471069e-01
1.274266093969345093e-01
1.616526581346988678e-02
-3.906673192977905273e-02
-1.550431400537490845e-01
6.827627122402191162e-02
6.341004371643066406e-02
8.113514631986618042e-02
-1.152358427643775940e-01
-1.183902099728584290e-01
-1.696400940418243408e-01
1.712155938148498535e-01
-1.173827499151229858e-01
-2.473893575370311737e-02
-1.490562558174133301e-01
2.300777705386281013e-03
-1.547264009714126587e-01
-5.060784891247749329e-02
-3.465680405497550964e-02
-1.927622705698013306e-01
-8.091277629137039185e-02
4.158292710781097412e-02
-2.114912122488021851e-01
5.079966410994529724e-02
-7.388830184936523438e-02
1.132152974605560303e-02
3.789850696921348572e-02
1.771178692579269409e-01
-1.953458972275257111e-02
-1.324957311153411865e-01
-1.258224099874496460e-01
6.455458700656890869e-02
-1.035136207938194275e-01
2.435159981250762939e-01
-1.082908064126968384e-01
1.082599759101867676e-01
-7.939934730529785156e-03
-1.674357503652572632e-01
1.929077692329883575e-02
-1.038384586572647095e-01
-4.606748372316360474e-02
8.786443620920181274e-02
4.309010226279497147e-03
-2.153823152184486389e-02
1.801527664065361023e-02
-1.245679631829261780e-01
-1.461198031902313232e-01
-4.077705368399620056e-02
7.806316763162612915e-02
3.452610224485397339e-02
-9.789038449525833130e-03
6.728268414735794067e-02
-9.164421260356903076e-02
1.459358930587768555e-01
-1.223862692713737488e-01
-6.998950242996215820e-02
-1.416105870157480240e-02
7.696045190095901489e-02
-1.396103575825691223e-02
-8.762850612401962280e-02
1.501740049570798874e-02
-7.466765493154525757e-02
1.084960326552391052e-01
1.435528844594955444e-01
1.308769434690475464e-01
-7.564363628625869751e-02
1.395264081656932831e-02
1.356851756572723389e-01
6.182805821299552917e-02
-8.236733824014663696e-02
-1.864604353904724121e-01
-3.311064094305038452e-02
7.611161470413208008e-02
9.868150949478149414e-02
1.857582330703735352e-01
2.384069142863154411e-03
1.026801466941833496e-01
9.993545711040496826e-02
-5.312415584921836853e-02
-4.243636131286621094e-02
-5.941554903984069824e-02
2.600795403122901917e-02
1.223087869584560394e-02
2.966206520795822144e-02
-7.017869502305984497e-02
-4.460528865456581116e-02
3.789800219237804413e-03
-4.071331396698951721e-02
4.337422549724578857e-02
5.935503169894218445e-02
-7.904314249753952026e-02
1.082918122410774231e-01
2.167907170951366425e-02
-1.988043338060379028e-01
-4.183753579854965210e-02
-7.399567216634750366e-02
1.387268006801605225e-01
8.745194226503372192e-02
-5.709898192435503006e-03
-1.561188250780105591e-01
-1.293236464262008667e-01
9.205470979213714600e-02
-7.915257662534713745e-02
8.411816507577896118e-02
-6.487067788839340210e-02
6.846999377012252808e-02
-1.527144312858581543e-01
-1.567216217517852783e-01
6.436014920473098755e-02
7.146509736776351929e-02
-1.427020728588104248e-01
-1.443856805562973022e-01
-2.451600739732384682e-03
-1.492119282484054565e-01
8.552482724189758301e-02
1.087897643446922302e-01
8.018045686185359955e-03
-1.066968217492103577e-01
-2.085282206535339355e-01
-5.874421074986457825e-02
7.873785495758056641e-02
-5.686999484896659851e-02
1.699075847864151001e-01
-2.130920765921473503e-03
-1.371617764234542847e-01
-8.313424140214920044e-02
1.017554197460412979e-02
1.424304544925689697e-01
6.291266530752182007e-02
1.125619634985923767e-01
-1.075863372534513474e-03
-1.337997317314147949e-01
-8.048757910728454590e-03
-9.752150624990463257e-03
-7.054543495178222656e-02
-3.253669664263725281e-02
-1.750812493264675140e-02
4.824000597000122070e-02
3.101807087659835815e-02
-1.553829014301300049e-02
-4.669500514864921570e-02
-4.216457158327102661e-02
-2.008269429206848145e-01
6.965246051549911499e-03
-5.366174876689910889e-02
2.618491277098655701e-02
-1.383073031902313232e-01
-1.626800447702407837e-01
4.013080522418022156e-02
-1.485167443752288818e-02
7.622724864631891251e-03
-3.589761257171630859e-02
1.645216345787048340e-01
8.074605464935302734e-02
7.705215830355882645e-03
-1.560028493404388428e-01
2.526898682117462158e-02
2.440508455038070679e-02
-1.318957507610321045e-01
1.073666140437126160e-01
-1.455760151147842407e-01
-1.327397227287292480e-01
-6.449136137962341309e-02
3.988612443208694458e-02
-3.243091329932212830e-02
-3.466469794511795044e-02
-1.581702008843421936e-02
-1.229656953364610672e-02
-1.667604446411132812e-01
-2.619112096726894379e-02
7.443737983703613281e-02
1.464513987302780151e-01
-9.953649342060089111e-02
8.977585285902023315e-02
-1.361631508916616440e-02
3.268752992153167725e-02
-2.158596664667129517e-01
-3.783822059631347656e-02
-8.122120797634124756e-02
8.078996837139129639e-02
-5.009449273347854614e-02
6.729395687580108643e-02
-7.381187379360198975e-02
-1.350528746843338013e-02
-5.548169836401939392e-02
-1.088714152574539185e-01
6.758595257997512817e-02
1.541499607264995575e-02
4.384107887744903564e-02
-1.204999629408121109e-02
1.069163978099822998e-01
-1.006620079278945923e-01
1.353265792131423950e-01
8.195630460977554321e-02
-3.062477707862854004e-02
7.734930515289306641e-02
-7.165634538978338242e-03
-9.502993896603584290e-03
6.672080606222152710e-02
7.102856040000915527e-02
-8.612886816263198853e-02
1.598501354455947876e-01
6.051588337868452072e-03
-4.624218493700027466e-02
1.169202104210853577e-01
5.329563748091459274e-03
2.311283163726329803e-02
-1.705637574195861816e-01
5.889036692678928375e-03
5.512037780135869980e-03
-1.739074140787124634e-01
-2.556289732456207275e-02
-5.049823224544525146e-02
-6.451653689146041870e-02
1.622793823480606079e-02
-1.599855870008468628e-01
-6.436916440725326538e-02
4.075208678841590881e-02
2.540165744721889496e-02
3.256671130657196045e-01
-3.416804596781730652e-02
6.494001485407352448e-03
5.961856245994567871e-02
-1.856445223093032837e-01
1.795930787920951843e-02
5.165081471204757690e-02
-1.185438632965087891e-01
-8.257050812244415283e-02
4.783754050731658936e-02
-6.979252398014068604e-02
5.008880421519279480e-02
4.833261296153068542e-02
-8.180422335863113403e-02
-6.666053086519241333e-02
-5.195520073175430298e-02
-4.916195198893547058e-02
-8.585859835147857666e-02
-7.256656885147094727e-02
-1.836979389190673828e-02
-8.377986401319503784e-02
-4.001417383551597595e-02
1.440147012472152710e-01
-9.365830570459365845e-02
7.350061088800430298e-02
2.720112912356853485e-02
4.189975187182426453e-02
-3.563975170254707336e-02
-4.646279290318489075e-02
-7.907398045063018799e-02
-8.092033863067626953e-02
-5.948155000805854797e-02
9.111906588077545166e-02
-1.377897262573242188e-01
1.924722269177436829e-02
-6.071354821324348450e-02
-3.483823314309120178e-02
-3.410714492201805115e-02
-7.774313539266586304e-02
-1.410248130559921265e-01
-1.764584481716156006e-01
-5.677558854222297668e-02
-9.203682653605937958e-03
-1.690906845033168793e-02
-1.035723537206649780e-01
5.788931623101234436e-02
4.837535694241523743e-02
3.601578623056411743e-02
6.218748539686203003e-02
1.890528351068496704e-01
-2.625243179500102997e-02
6.968211382627487183e-02
4.859773907810449600e-03
8.588078431785106659e-03
-2.009615004062652588e-01
9.755444526672363281e-02
5.106183513998985291e-02
1.595400273799896240e-02
-7.707753777503967285e-02
-4.073895514011383057e-02
6.704204529523849487e-02
-2.151547931134700775e-02
6.661084294319152832e-02
-1.809157803654670715e-02
-1.934294551610946655e-01
-8.635117858648300171e-02
7.362066954374313354e-02
7.098874449729919434e-02
-1.106130406260490417e-01
-9.739864617586135864e-02
1.507597118616104126e-01
-1.335411332547664642e-02
6.822831463068723679e-03
-2.012067101895809174e-02
-2.023456431925296783e-02
-7.992449402809143066e-02
-1.220202073454856873e-01
8.294254541397094727e-02
1.196804046630859375e-01
-3.864853456616401672e-02
-2.462409064173698425e-02
4.607632756233215332e-02
9.622689336538314819e-03
-8.774739503860473633e-02
1.508580595254898071e-01
-7.264100760221481323e-02
5.764654278755187988e-02
-1.862214356660842896e-01
3.610715270042419434e-02
-1.509345415979623795e-02
-1.660775206983089447e-02
-8.458090573549270630e-02
1.045588403940200806e-01
-7.571592181921005249e-02
1.045702323317527771e-01
3.541767969727516174e-02
-1.877466440200805664e-01
6.640302389860153198e-02
-6.786274909973144531e-02
6.522535532712936401e-02
7.086854428052902222e-02
-1.614806801080703735e-02
8.005852811038494110e-03
1.052187606692314148e-01
1.065530106425285339e-01
4.400689899921417236e-02
-1.145716160535812378e-01
-1.262409538030624390e-01
4.799214377999305725e-02
1.970533654093742371e-02
-9.316481649875640869e-02
1.536681205034255981e-01
5.063478648662567139e-02
4.417327418923377991e-02
1.047698259353637695e-01
2.481402084231376648e-02
-7.747014611959457397e-02
-1.419301144778728485e-02
7.245683670043945312e-02
2.624022215604782104e-02
-1.456398330628871918e-02
4.211144521832466125e-02
-1.359374523162841797e-01
1.206382736563682556e-01
1.557915657758712769e-01
-1.096361503005027771e-02
1.027723327279090881e-01
4.018356651067733765e-02
1.438379473984241486e-02
-1.229570284485816956e-01
-4.583517834544181824e-02
3.736025467514991760e-02
9.503972530364990234e-02
3.629776090383529663e-02
-2.436436340212821960e-02
-7.319349050521850586e-02
-4.591905325651168823e-02
-3.691214695572853088e-02
1.795422052964568138e-03
-3.840715065598487854e-02
-5.916620790958404541e-02
1.115140542387962341e-01
-2.842003107070922852e-02
1.013655960559844971e-01
1.505368016660213470e-02
-1.174695268273353577e-01
-6.490764021873474121e-02
-6.260690838098526001e-02
-1.226911917328834534e-01
9.742372483015060425e-02
1.020040735602378845e-01
-1.988351941108703613e-01
-1.598496921360492706e-02
-7.514209300279617310e-02
-5.647639930248260498e-02
-6.426507979631423950e-02
-6.115612015128135681e-02
5.573851615190505981e-02
-8.813235908746719360e-02
4.489380866289138794e-02
6.344039738178253174e-02
-7.193133980035781860e-02
7.213190943002700806e-02
-3.689185529947280884e-02
-1.729649864137172699e-02
1.435742713510990143e-02
1.478032171726226807e-01
-1.145705282688140869e-01
-1.946736499667167664e-02
-2.597753517329692841e-02
-6.656810641288757324e-02
-5.787268653512001038e-02
4.160387814044952393e-02
-1.130683440715074539e-02
5.358961969614028931e-02
-1.205439791083335876e-01
4.113988578319549561e-02
-7.910286635160446167e-02
-1.197058707475662231e-01
-1.197693571448326111e-01
5.369682982563972473e-02
7.017491012811660767e-02
3.268294408917427063e-02
-4.244740679860115051e-02
-1.243636459112167358e-01
5.423512682318687439e-02
-1.420989334583282471e-01
-1.961187645792961121e-02
7.276576012372970581e-02
4.888494033366441727e-03
1.091653853654861450e-01
8.640756458044052124e-02
1.742964535951614380e-01
-9.149006009101867676e-02
-1.449974328279495239e-01
-7.914534211158752441e-02
-3.175229951739311218e-02
-7.504982501268386841e-02
1.049781218171119690e-02
-7.681467384099960327e-02
-4.710853472352027893e-02
-3.701876103878021240e-02
-3.973013535141944885e-02
-5.908229202032089233e-02
2.749830484390258789e-02
3.229299932718276978e-02
3.746974840760231018e-02
-4.257526621222496033e-02
1.262160241603851318e-01
3.046021610498428345e-02
-2.209040708839893341e-02
1.257291734218597412e-01
-3.839248791337013245e-02
-8.751846849918365479e-02
4.121071472764015198e-02
2.474876493215560913e-02
-3.382032364606857300e-02
-7.060433924198150635e-02
-4.346199706196784973e-02
-2.669104840606451035e-03
-4.632961377501487732e-02
-1.332925856113433838e-01
-1.582667529582977295e-01
1.537258625030517578e-01
-9.683093428611755371e-02
3.077503293752670288e-02
2.283950895071029663e-02
-1.280282288789749146e-01
-1.754363477230072021e-01
1.819934137165546417e-02
-2.164923697710037231e-01
-8.627051860094070435e-02
1.248332206159830093e-02
1.527829002588987350e-02
-1.238476708531379700e-01
-1.023709326982498169e-01
-3.690661117434501648e-02
-1.402678340673446655e-01
-4.263450950384140015e-02
2.863179519772529602e-02
2.471356838941574097e-02
-1.643979251384735107e-01
6.750276684761047363e-02
-1.117201671004295349e-01
-1.260792464017868042e-02
4.054231569170951843e-02
-6.299898028373718262e-02
6.274577975273132324e-02
1.507020555436611176e-02
2.410646714270114899e-02
-7.151047140359878540e-02
-6.576553732156753540e-02
6.611528992652893066e-02
4.062088951468467712e-02
4.170129820704460144e-02
-1.407728195190429688e-01
-3.010425567626953125e-01
-9.703804552555084229e-02
-1.287596523761749268e-01
-2.580842003226280212e-02
-6.881820410490036011e-02
5.602195858955383301e-02
2.030311897397041321e-02
-9.315824508666992188e-02
-7.723079621791839600e-02
-5.875157937407493591e-02
-1.840542554855346680e-01
1.528496295213699341e-01
-1.289514824748039246e-02
-7.567205280065536499e-02
7.795675843954086304e-02
2.614082209765911102e-02
4.140040650963783264e-02
3.028213419020175934e-02
-5.540347844362258911e-02
2.003156393766403198e-02
-1.189942359924316406e-01
-1.635259240865707397e-01
-2.083649305859580636e-04
8.217295259237289429e-02
-1.144354194402694702e-01
4.364539682865142822e-02
-1.318156868219375610e-01
-5.719068273901939392e-02
-7.278825342655181885e-02
8.898447453975677490e-02
5.627929233014583588e-03
-1.069905236363410950e-01
4.890447482466697693e-02
4.967602435499429703e-03
-8.547630906105041504e-02
-1.224802690558135509e-03
-2.938630618155002594e-02
1.676708012819290161e-01
-5.908516701310873032e-03
-8.819416165351867676e-02
-3.893106430768966675e-02
2.489008381962776184e-02
-1.666001230478286743e-01
-6.214386597275733948e-02
-6.632734835147857666e-02
5.751172453165054321e-02
-1.333833187818527222e-01
5.868366360664367676e-02
2.046391367912292480e-01
1.005120761692523956e-02
-7.420081179589033127e-03
-4.444010928273200989e-02
1.672747284173965454e-01
-2.928762324154376984e-02
-6.932934373617172241e-02
-7.445573806762695312e-02
7.707534730434417725e-02
-6.524202413856983185e-03
5.686688050627708435e-02
-5.462100729346275330e-02
2.923158230260014534e-03
-5.849851667881011963e-02
-1.797223985195159912e-01
2.462600916624069214e-02
5.771261081099510193e-02
-4.191990941762924194e-02
-1.082483306527137756e-02
-6.081631034612655640e-02
-1.053997501730918884e-01
-1.318394839763641357e-01
5.094211921095848083e-02
9.847477078437805176e-02
-9.081800282001495361e-02
5.833061784505844116e-02
-1.427753642201423645e-02
1.222791671752929688e-01
-1.355222761631011963e-01
-3.607492521405220032e-02
1.717636436223983765e-01
3.242928534746170044e-02
-1.742915716022253036e-03
3.264009207487106323e-02
-1.625246554613113403e-01
-1.173775419592857361e-01
3.538096323609352112e-02
6.402363628149032593e-02
-7.850938476622104645e-03
5.535708740353584290e-02
4.666636139154434204e-02
-1.240587979555130005e-01
1.082522608339786530e-02
-1.081676036119461060e-02
4.203261807560920715e-02
-1.554413884878158569e-02
1.465781331062316895e-01
-1.393678933382034302e-01
6.842016428709030151e-02
-1.161447688937187195e-01
6.959293037652969360e-02
8.809160441160202026e-02
-6.254438310861587524e-02
-6.915631890296936035e-02
-1.353375911712646484e-01
3.146372362971305847e-02
1.593452244997024536e-01
-5.121501535177230835e-02
6.557361781597137451e-02
5.164469592273235321e-03
-2.130057290196418762e-02
6.455767154693603516e-02
-3.500835970044136047e-02
-3.521839156746864319e-02
1.188543215394020081e-01
-8.140587806701660156e-02
-8.181584998965263367e-03
5.392016097903251648e-02
1.553176939487457275e-01
-5.899449437856674194e-02
-6.066758558154106140e-02
4.060259833931922913e-02
-3.801377117633819580e-02
1.476086825132369995e-01
-1.299720704555511475e-01
-9.432104974985122681e-02
-1.540498156100511551e-02
-1.973291188478469849e-01
4.353625699877738953e-02
8.969510905444622040e-03
1.499058157205581665e-01
-1.234097108244895935e-01
1.879265345633029938e-02
-3.581893444061279297e-02
-1.063855588436126709e-01
-4.850331693887710571e-02
-1.633570194244384766e-01
-1.294505447149276733e-01
5.592361092567443848e-02
-2.914626337587833405e-02
5.450676381587982178e-02
-2.773172780871391296e-02
2.755015529692173004e-02
-6.989160925149917603e-02
-9.738364070653915405e-02
-8.656478673219680786e-02
-2.323284186422824860e-02
-4.370696097612380981e-02
-5.951460078358650208e-02
-1.255170702934265137e-01
-9.841606765985488892e-02
5.569818988442420959e-02
-9.567144513130187988e-02
-7.894133031368255615e-02
-2.966662310063838959e-02
-8.949647098779678345e-02
5.614227801561355591e-02
-2.238705754280090332e-01
-4.867970943450927734e-02
-8.810664713382720947e-02
-2.441586926579475403e-02
-2.371419966220855713e-02
-1.527591049671173096e-01
-8.403013646602630615e-02
-4.840231314301490784e-02
-1.049099639058113098e-01
6.881298124790191650e-02
-3.335724025964736938e-02
4.884684830904006958e-02
6.902647763490676880e-02
-3.060287795960903168e-02
-6.922809034585952759e-02
-1.721152104437351227e-02
